{"learner":{"attributes":{},"feature_names":[],"feature_types":[],"gradient_booster":{"model":{"gbtree_model_param":{"num_parallel_tree":"1","num_trees":"500"},"iteration_indptr":[0,1,2,3,4,5,6,7,8,9,10,11,12,13,14,15,16,17,18,19,20,21,22,23,24,25,26,27,28,29,30,31,32,33,34,35,36,37,38,39,40,41,42,43,44,45,46,47,48,49,50,51,52,53,54,55,56,57,58,59,60,61,62,63,64,65,66,67,68,69,70,71,72,73,74,75,76,77,78,79,80,81,82,83,84,85,86,87,88,89,90,91,92,93,94,95,96,97,98,99,100,101,102,103,104,105,106,107,108,109,110,111,112,113,114,115,116,117,118,119,120,121,122,123,124,125,126,127,128,129,130,131,132,133,134,135,136,137,138,139,140,141,142,143,144,145,146,147,148,149,150,151,152,153,154,155,156,157,158,159,160,161,162,163,164,165,166,167,168,169,170,171,172,173,174,175,176,177,178,179,180,181,182,183,184,185,186,187,188,189,190,191,192,193,194,195,196,197,198,199,200,201,202,203,204,205,206,207,208,209,210,211,212,213,214,215,216,217,218,219,220,221,222,223,224,225,226,227,228,229,230,231,232,233,234,235,236,237,238,239,240,241,242,243,244,245,246,247,248,249,250,251,252,253,254,255,256,257,258,259,260,261,262,263,264,265,266,267,268,269,270,271,272,273,274,275,276,277,278,279,280,281,282,283,284,285,286,287,288,289,290,291,292,293,294,295,296,297,298,299,300,301,302,303,304,305,306,307,308,309,310,311,312,313,314,315,316,317,318,319,320,321,322,323,324,325,326,327,328,329,330,331,332,333,334,335,336,337,338,339,340,341,342,343,344,345,346,347,348,349,350,351,352,353,354,355,356,357,358,359,360,361,362,363,364,365,366,367,368,369,370,371,372,373,374,375,376,377,378,379,380,381,382,383,384,385,386,387,388,389,390,391,392,393,394,395,396,397,398,399,400,401,402,403,404,405,406,407,408,409,410,411,412,413,414,415,416,417,418,419,420,421,422,423,424,425,426,427,428,429,430,431,432,433,434,435,436,437,438,439,440,441,442,443,444,445,446,447,448,449,450,451,452,453,454,455,456,457,458,459,460,461,462,463,464,465,466,467,468,469,470,471,472,473,474,475,476,477,478,479,480,481,482,483,484,485,486,487,488,489,490,491,492,493,494,495,496,497,498,499,500],"tree_info":[0,0,0,0,0,0,0,0,0,0,0,0,0,0,0,0,0,0,0,0,0,0,0,0,0,0,0,0,0,0,0,0,0,0,0,0,0,0,0,0,0,0,0,0,0,0,0,0,0,0,0,0,0,0,0,0,0,0,0,0,0,0,0,0,0,0,0,0,0,0,0,0,0,0,0,0,0,0,0,0,0,0,0,0,0,0,0,0,0,0,0,0,0,0,0,0,0,0,0,0,0,0,0,0,0,0,0,0,0,0,0,0,0,0,0,0,0,0,0,0,0,0,0,0,0,0,0,0,0,0,0,0,0,0,0,0,0,0,0,0,0,0,0,0,0,0,0,0,0,0,0,0,0,0,0,0,0,0,0,0,0,0,0,0,0,0,0,0,0,0,0,0,0,0,0,0,0,0,0,0,0,0,0,0,0,0,0,0,0,0,0,0,0,0,0,0,0,0,0,0,0,0,0,0,0,0,0,0,0,0,0,0,0,0,0,0,0,0,0,0,0,0,0,0,0,0,0,0,0,0,0,0,0,0,0,0,0,0,0,0,0,0,0,0,0,0,0,0,0,0,0,0,0,0,0,0,0,0,0,0,0,0,0,0,0,0,0,0,0,0,0,0,0,0,0,0,0,0,0,0,0,0,0,0,0,0,0,0,0,0,0,0,0,0,0,0,0,0,0,0,0,0,0,0,0,0,0,0,0,0,0,0,0,0,0,0,0,0,0,0,0,0,0,0,0,0,0,0,0,0,0,0,0,0,0,0,0,0,0,0,0,0,0,0,0,0,0,0,0,0,0,0,0,0,0,0,0,0,0,0,0,0,0,0,0,0,0,0,0,0,0,0,0,0,0,0,0,0,0,0,0,0,0,0,0,0,0,0,0,0,0,0,0,0,0,0,0,0,0,0,0,0,0,0,0,0,0,0,0,0,0,0,0,0,0,0,0,0,0,0,0,0,0,0,0,0,0,0,0,0,0,0,0,0,0,0,0,0,0,0,0,0,0,0,0,0,0,0,0,0,0,0,0,0,0,0,0,0,0,0,0,0,0,0,0,0,0,0,0,0,0,0,0,0,0,0,0,0,0,0,0,0,0,0,0,0,0,0,0,0,0,0,0,0,0,0,0,0,0,0],"trees":[{"base_weights":[4.0770378E6,-4.9020412E7,6.6421344E8,-9.80512E7,9.587646E7,4.771424E8,1.03289016E8,-1.1972635E8,-4.9120984E7,4.4644428E7,1.9954187E8,3.197768E7,5.304453E7,-1.2546279E7,-7.2554795E6,-6.0040095E6,6.099342E5,1.1462518E6,8.469101E6,1.093497E7,2.2553294E7],"categories":[],"categories_nodes":[],"categories_segments":[],"categories_sizes":[],"default_left":[0,0,0,0,0,0,0,0,0,0,0,0,0,0,0,0,0,0,0,0,0],"id":0,"left_children":[1,3,5,7,9,11,-1,13,15,17,19,-1,-1,-1,-1,-1,-1,-1,-1,-1,-1],"loss_changes":[8.992984E19,1.6919973E19,1.0708856E19,1.855228E18,3.1579843E18,2.926526E17,0E0,2.8677792E17,3.3586905E17,5.399633E17,3.408398E17,0E0,0E0,0E0,0E0,0E0,0E0,0E0,0E0,0E0,0E0],"parents":[2147483647,0,0,1,1,2,2,3,3,4,4,5,5,7,7,8,8,9,9,10,10],"right_children":[2,4,6,8,10,12,-1,14,16,18,20,-1,-1,-1,-1,-1,-1,-1,-1,-1,-1],"split_conditions":[1.3820777E0,-1.083666E-1,3.3218918E0,-3.2974094E-1,5.080775E-1,1.4824064E0,1.03289016E8,-3.3179262E-1,2.2817978E-1,3.0561233E-1,3.857874E-1,3.197768E7,5.304453E7,-1.2546279E7,-7.2554795E6,-6.0040095E6,6.099342E5,1.1462518E6,8.469101E6,1.093497E7,2.2553294E7],"split_indices":[12,12,12,11,12,11,0,12,11,11,11,0,0,0,0,0,0,0,0,0,0],"split_type":[0,0,0,0,0,0,0,0,0,0,0,0,0,0,0,0,0,0,0,0,0],"sum_hessian":[2.556E3,2.37E3,1.86E2,1.772E3,5.98E2,1.31E2,5.5E1,1.223E3,5.49E2,4.05E2,1.93E2,4.2E1,8.9E1,1.083E3,1.4E2,4.58E2,9.1E1,2.25E2,1.8E2,4.9E1,1.44E2],"tree_param":{"num_deleted":"0","num_feature":"105","num_nodes":"21","size_leaf_vector":"1"}},{"base_weights":[-3.0259694E5,-4.5471244E7,5.5396224E8,-8.2378536E7,9.305415E7,3.868558E8,9.06686E7,-1.0612327E8,-3.7038316E7,4.6453716E7,1.6075595E8,2.977878E8,5.0723996E7,-1.2263527E7,-8.70301E6,-6.292197E6,3.8249722E5,2.352241E6,8.774545E6,1.1152334E7,2.1528044E7,1.1918481E7,3.1468544E7],"categories":[],"categories_nodes":[],"categories_segments":[],"categories_sizes":[],"default_left":[0,0,0,0,0,0,0,0,0,0,0,0,0,0,0,0,0,0,0,0,0,0,0],"id":1,"left_children":[1,3,5,7,9,11,-1,13,15,17,19,21,-1,-1,-1,-1,-1,-1,-1,-1,-1,-1,-1],"loss_changes":[6.379095E19,1.2083609E19,9.563156E18,1.9860369E18,1.5338184E18,7.3516206E17,0E0,3.3125976E17,6.865873E17,2.7563581E17,4.19517E17,9.012422E16,0E0,0E0,0E0,0E0,0E0,0E0,0E0,0E0,0E0,0E0,0E0],"parents":[2147483647,0,0,1,1,2,2,3,3,4,4,5,5,7,7,8,8,9,9,10,10,11,11],"right_children":[2,4,6,8,10,12,-1,14,16,18,20,22,-1,-1,-1,-1,-1,-1,-1,-1,-1,-1,-1],"split_conditions":[1.3566629E0,1.3487132E-1,3.2134762E0,-3.7386233E-1,3.9313385E-1,1.9822158E0,9.06686E7,-5.73779E-1,-1.6940796E-1,5.8882964E-1,6.271152E-1,2.3411405E-1,5.0723996E7,-1.2263527E7,-8.70301E6,-6.292197E6,3.8249722E5,2.352241E6,8.774545E6,1.1152334E7,2.1528044E7,1.1918481E7,3.1468544E7],"split_indices":[11,11,11,2,9,9,0,11,9,11,7,2,0,0,0,0,0,0,0,0,0,0,0],"split_type":[0,0,0,0,0,0,0,0,0,0,0,0,0,0,0,0,0,0,0,0,0,0,0],"sum_hessian":[2.538E3,2.351E3,1.87E2,1.858E3,4.93E2,1.34E2,5.3E1,1.215E3,6.43E2,2.97E2,1.96E2,8.7E1,4.7E1,6.37E2,5.78E2,3.92E2,2.51E2,1.96E2,1.01E2,1.11E2,8.5E1,1.1E1,7.6E1],"tree_param":{"num_deleted":"0","num_feature":"105","num_nodes":"23","size_leaf_vector":"1"}},{"base_weights":[1.06652914E5,-3.876758E7,5.7549024E8,-7.8455064E7,9.234988E7,4.417315E8,9.640694E7,-9.542673E7,-3.0867984E7,4.9320364E7,1.8159862E8,3.0897258E7,5.0133104E7,-1.0175987E7,-5.4645945E6,-4.1763588E6,1.4163371E6,2.918321E6,1.017455E7,1.0583619E7,1.9892402E7],"categories":[],"categories_nodes":[],"categories_segments":[],"categories_sizes":[],"default_left":[0,0,0,0,0,0,0,0,0,0,0,0,0,0,0,0,0,0,0,0,0],"id":2,"left_children":[1,3,5,7,9,11,-1,13,15,17,19,-1,-1,-1,-1,-1,-1,-1,-1,-1,-1],"loss_changes":[5.690287E19,1.2436697E19,6.2388137E18,1.464853E18,2.0904415E18,2.4621144E17,0E0,3.20346E17,2.4288243E17,3.884284E17,1.29690695E17,0E0,0E0,0E0,0E0,0E0,0E0,0E0,0E0,0E0,0E0],"parents":[2147483647,0,0,1,1,2,2,3,3,4,4,5,5,7,7,8,8,9,9,10,10],"right_children":[2,4,6,8,10,12,-1,14,16,18,20,-1,-1,-1,-1,-1,-1,-1,-1,-1,-1],"split_conditions":[1.602785E0,-4.763921E-2,4.0547915E0,-2.6905042E-1,5.8706284E-1,2.0989826E0,9.640694E7,-3.3179262E-1,3.4655464E-1,6.641302E-1,4.1457325E-1,3.0897258E7,5.0133104E7,-1.0175987E7,-5.4645945E6,-4.1763588E6,1.4163371E6,2.918321E6,1.017455E7,1.0583619E7,1.9892402E7],"split_indices":[12,12,12,11,12,12,0,12,11,11,11,0,0,0,0,0,0,0,0,0,0],"split_type":[0,0,0,0,0,0,0,0,0,0,0,0,0,0,0,0,0,0,0,0,0],"sum_hessian":[2.534E3,2.378E3,1.56E2,1.827E3,5.51E2,1.24E2,3.2E1,1.343E3,4.84E2,3.77E2,1.74E2,4.8E1,7.6E1,1.156E3,1.87E2,3.9E2,9.4E1,2.78E2,9.9E1,3.9E1,1.35E2],"tree_param":{"num_deleted":"0","num_feature":"105","num_nodes":"21","size_leaf_vector":"1"}},{"base_weights":[-1.2996038E6,-4.3208732E7,3.9822643E8,-7.551705E7,4.889568E7,2.8661334E8,6.996888E7,-9.4973064E7,-4.8573316E7,1.974948E7,1.1118622E8,2.0458392E8,3.5614828E7,-1.0348055E7,-8.1599115E6,-5.8310905E6,-1.890231E6,-2.6085438E5,4.830805E6,7.481144E6,1.3612016E7,3.3174498E6,2.0825082E7],"categories":[],"categories_nodes":[],"categories_segments":[],"categories_sizes":[],"default_left":[0,0,0,0,0,0,0,0,0,0,0,0,0,0,0,0,0,0,0,0,0,0,0],"id":3,"left_children":[1,3,5,7,9,11,-1,13,15,17,19,21,-1,-1,-1,-1,-1,-1,-1,-1,-1,-1,-1],"loss_changes":[4.338547E19,6.9965696E18,7.2744965E18,8.8802386E17,1.1001267E18,7.08025E17,0E0,7.2014163E16,2.0800382E17,2.7072113E17,1.2503481E17,2.7054033E16,0E0,0E0,0E0,0E0,0E0,0E0,0E0,0E0,0E0,0E0,0E0],"parents":[2147483647,0,0,1,1,2,2,3,3,4,4,5,5,7,7,8,8,9,9,10,10,11,11],"right_children":[2,4,6,8,10,12,-1,14,16,18,20,22,-1,-1,-1,-1,-1,-1,-1,-1,-1,-1,-1],"split_conditions":[1.0073444E0,-1.5470248E-1,3.0036402E0,-4.5155266E-1,3.1935945E-1,1.6834439E0,6.996888E7,-6.180837E-1,-4.848402E-3,2.2817978E-1,6.0770565E-1,-7.617454E-1,3.5614828E7,-1.0348055E7,-8.1599115E6,-5.8310905E6,-1.890231E6,-2.6085438E5,4.830805E6,7.481144E6,1.3612016E7,3.3174498E6,2.0825082E7],"split_indices":[12,12,12,11,12,12,0,11,11,11,11,11,0,0,0,0,0,0,0,0,0,0,0],"split_type":[0,0,0,0,0,0,0,0,0,0,0,0,0,0,0,0,0,0,0,0,0,0,0],"sum_hessian":[2.581E3,2.34E3,2.41E2,1.733E3,6.07E2,1.83E2,5.8E1,9.99E2,7.34E2,4.18E2,1.89E2,9.3E1,9E1,5.9E2,4.09E2,5.49E2,1.85E2,2.37E2,1.81E2,8.5E1,1.04E2,3E0,9E1],"tree_param":{"num_deleted":"0","num_feature":"105","num_nodes":"23","size_leaf_vector":"1"}},{"base_weights":[1.4186468E6,-3.5511856E7,4.204037E8,-6.6432492E7,5.393674E7,3.0948067E8,7.399724E8,-7.722352E7,-2.8024616E7,1.9568484E7,1.1257038E8,2.089126E7,3.7394524E7,5.2609244E7,1.0300635E8,-8.911999E6,-6.4276055E6,-3.9187065E6,-1.5318435E6,-2.909536E4,4.1357625E6,7.7058915E6,1.3961491E7],"categories":[],"categories_nodes":[],"categories_segments":[],"categories_sizes":[],"default_left":[0,0,0,0,0,0,0,0,0,0,0,0,0,0,0,0,0,0,0,0,0,0,0],"id":4,"left_children":[1,3,5,7,9,11,13,15,17,19,21,-1,-1,-1,-1,-1,-1,-1,-1,-1,-1,-1,-1],"loss_changes":[3.973279E19,6.545221E18,6.2280495E18,7.169723E17,1.2162035E18,6.661314E17,3.9269058E17,1.8207088E17,5.273859E16,1.68821E17,1.6133491E17,0E0,0E0,0E0,0E0,0E0,0E0,0E0,0E0,0E0,0E0,0E0,0E0],"parents":[2147483647,0,0,1,1,2,2,3,3,4,4,5,5,6,6,7,7,8,8,9,9,10,10],"right_children":[2,4,6,8,10,12,14,16,18,20,22,-1,-1,-1,-1,-1,-1,-1,-1,-1,-1,-1,-1],"split_conditions":[1.2637594E0,-1.3330889E-1,3.7046754E0,-3.3179262E-1,3.1935945E-1,1.8785348E0,5.38905E0,-5.6906456E-1,-2.648974E-1,9.118269E-2,6.6396964E-1,2.089126E7,3.7394524E7,5.2609244E7,1.0300635E8,-8.911999E6,-6.4276055E6,-3.9187065E6,-1.5318435E6,-2.909536E4,4.1357625E6,7.7058915E6,1.3961491E7],"split_indices":[12,12,12,12,12,12,12,9,9,9,12,0,0,0,0,0,0,0,0,0,0,0,0],"split_type":[0,0,0,0,0,0,0,0,0,0,0,0,0,0,0,0,0,0,0,0,0,0,0],"sum_hessian":[2.558E3,2.355E3,2.03E2,1.751E3,6.04E2,1.58E2,4.5E1,1.363E3,3.88E2,3.85E2,2.19E2,7E1,8.8E1,3.4E1,1.1E1,6.95E2,6.68E2,2.01E2,1.87E2,2.04E2,1.81E2,1.03E2,1.16E2],"tree_param":{"num_deleted":"0","num_feature":"105","num_nodes":"23","size_leaf_vector":"1"}},{"base_weights":[2.1781005E6,-2.734636E7,4.3867766E8,-5.3561068E7,8.3725976E7,3.5364624E8,9.945368E7,-6.780288E7,-9.281873E6,4.7383264E7,1.3508034E8,2.4425886E7,4.1489724E7,-8.0996585E6,-5.2772565E6,-2.0143744E6,2.7694332E6,1.2094024E6,6.0952315E6,9.950814E6,1.6985846E7],"categories":[],"categories_nodes":[],"categories_segments":[],"categories_sizes":[],"default_left":[0,0,0,0,0,0,0,0,0,0,0,0,0,0,0,0,0,0,0,0,0],"id":5,"left_children":[1,3,5,7,9,11,-1,13,15,17,19,-1,-1,-1,-1,-1,-1,-1,-1,-1,-1],"loss_changes":[3.3361059E19,7.083365E18,5.9929717E18,1.2360132E18,8.3585286E17,4.9830087E17,0E0,2.7331E17,1.9717865E17,1.3038985E17,1.5054376E17,0E0,0E0,0E0,0E0,0E0,0E0,0E0,0E0,0E0,0E0],"parents":[2147483647,0,0,1,1,2,2,3,3,4,4,5,5,7,7,8,8,9,9,10,10],"right_children":[2,4,6,8,10,12,-1,14,16,18,20,-1,-1,-1,-1,-1,-1,-1,-1,-1,-1],"split_conditions":[1.602785E0,5.764708E-2,5.38905E0,-1.6709712E-1,5.8706284E-1,2.2191687E0,9.945368E7,-5.499572E-1,4.478048E-1,6.9144405E-2,8.938037E-1,2.4425886E7,4.1489724E7,-8.0996585E6,-5.2772565E6,-2.0143744E6,2.7694332E6,1.2094024E6,6.0952315E6,9.950814E6,1.6985846E7],"split_indices":[12,12,12,11,12,12,0,11,11,11,11,0,0,0,0,0,0,0,0,0,0],"split_type":[0,0,0,0,0,0,0,0,0,0,0,0,0,0,0,0,0,0,0,0,0],"sum_hessian":[2.579E3,2.42E3,1.59E2,1.96E3,4.6E2,1.45E2,1.4E1,1.481E3,4.79E2,2.75E2,1.85E2,6.1E1,8.4E1,7.77E2,7.04E2,3.72E2,1.07E2,7.9E1,1.96E2,1.01E2,8.4E1],"tree_param":{"num_deleted":"0","num_feature":"105","num_nodes":"21","size_leaf_vector":"1"}},{"base_weights":[2.2067908E6,-2.9161586E7,3.4430336E8,-5.5155492E7,4.422645E7,2.5040434E8,6.387752E8,-6.38935E7,-2.2450624E7,1.6148476E7,8.372473E7,1.7409173E8,3.0446736E7,4.4589624E7,8.7069544E7,-7.2769385E6,-5.263847E6,-3.2543568E6,-1.3745609E6,3.0051344E5,3.2768862E6,6.310669E6,1.1323483E7,1.503569E6,1.7511462E7],"categories":[],"categories_nodes":[],"categories_segments":[],"categories_sizes":[],"default_left":[0,0,0,0,0,0,0,0,0,0,0,0,0,0,0,0,0,0,0,0,0,0,0,0,0],"id":6,"left_children":[1,3,5,7,9,11,13,15,17,19,21,23,-1,-1,-1,-1,-1,-1,-1,-1,-1,-1,-1,-1,-1],"loss_changes":[2.7596715E19,4.5066002E18,5.172769E18,4.9064882E17,6.7973046E17,4.4459192E17,2.5069525E17,1.1790833E17,3.0710545E16,7.989628E16,1.20031485E17,3.3919934E14,0E0,0E0,0E0,0E0,0E0,0E0,0E0,0E0,0E0,0E0,0E0,0E0,0E0],"parents":[2147483647,0,0,1,1,2,2,3,3,4,4,5,5,6,6,7,7,8,8,9,9,10,10,11,11],"right_children":[2,4,6,8,10,12,14,16,18,20,22,24,-1,-1,-1,-1,-1,-1,-1,-1,-1,-1,-1,-1,-1],"split_conditions":[1.1918246E0,-1.3330889E-1,3.7046754E0,-3.3179262E-1,2.6482695E-1,1.8785348E0,5.38905E0,-5.5633646E-1,-2.9343307E-1,1.09918386E-1,7.04258E-1,-7.4012864E-1,3.0446736E7,4.4589624E7,8.7069544E7,-7.2769385E6,-5.263847E6,-3.2543568E6,-1.3745609E6,3.0051344E5,3.2768862E6,6.310669E6,1.1323483E7,1.503569E6,1.7511462E7],"split_indices":[12,12,12,12,12,12,12,9,9,9,12,4,0,0,0,0,0,0,0,0,0,0,0,0,0],"split_type":[0,0,0,0,0,0,0,0,0,0,0,0,0,0,0,0,0,0,0,0,0,0,0,0,0],"sum_hessian":[2.562E3,2.351E3,2.11E2,1.737E3,6.14E2,1.67E2,4.4E1,1.367E3,3.7E2,3.63E2,2.51E2,7.8E1,8.9E1,3.2E1,1.2E1,7.49E2,6.18E2,1.65E2,2.05E2,2.06E2,1.57E2,1.57E2,9.4E1,1E0,7.7E1],"tree_param":{"num_deleted":"0","num_feature":"105","num_nodes":"25","size_leaf_vector":"1"}},{"base_weights":[2.368402E6,-2.6216304E7,3.1346778E8,-4.8928076E7,4.0855804E7,2.0900176E8,5.0665357E8,-5.6865372E7,-1.8740632E7,1.5587677E7,8.236628E7,1.6141707E7,2.505807E7,3.973529E7,7.302522E7,-6.6640085E6,-4.5982555E6,-2.699633E6,-8.333227E5,2.6488078E5,3.3185858E6,6.349664E6,1.0756247E7],"categories":[],"categories_nodes":[],"categories_segments":[],"categories_sizes":[],"default_left":[0,0,0,0,0,0,0,0,0,0,0,0,0,0,0,0,0,0,0,0,0,0,0],"id":7,"left_children":[1,3,5,7,9,11,13,15,17,19,21,-1,-1,-1,-1,-1,-1,-1,-1,-1,-1,-1,-1],"loss_changes":[2.303757E19,3.624849E18,3.8700786E18,4.199733E17,6.260624E17,9.453766E16,3.332422E17,1.33924914E17,3.1267164E16,8.631439E16,7.377627E16,0E0,0E0,0E0,0E0,0E0,0E0,0E0,0E0,0E0,0E0,0E0,0E0],"parents":[2147483647,0,0,1,1,2,2,3,3,4,4,5,5,6,6,7,7,8,8,9,9,10,10],"right_children":[2,4,6,8,10,12,14,16,18,20,22,-1,-1,-1,-1,-1,-1,-1,-1,-1,-1,-1,-1],"split_conditions":[1.1918246E0,-1.3330889E-1,3.0036402E0,-3.2903105E-1,3.1935945E-1,1.8785348E0,5.38905E0,-5.453075E-1,-2.4432479E-1,1.0386939E-1,8.0264264E-1,1.6141707E7,2.505807E7,3.973529E7,7.302522E7,-6.6640085E6,-4.5982555E6,-2.699633E6,-8.333227E5,2.6488078E5,3.3185858E6,6.349664E6,1.0756247E7],"split_indices":[12,12,12,12,12,12,12,2,9,8,12,0,0,0,0,0,0,0,0,0,0,0,0],"split_type":[0,0,0,0,0,0,0,0,0,0,0,0,0,0,0,0,0,0,0,0,0,0,0],"sum_hessian":[2.581E3,2.368E3,2.13E2,1.77E3,5.98E2,1.45E2,6.8E1,1.398E3,3.72E2,3.76E2,2.22E2,7.9E1,6.6E1,5.5E1,1.3E1,7.23E2,6.75E2,2.03E2,1.69E2,2.2E2,1.56E2,1.37E2,8.5E1],"tree_param":{"num_deleted":"0","num_feature":"105","num_nodes":"23","size_leaf_vector":"1"}},{"base_weights":[4.432007E6,-1.7835696E7,3.660961E8,-3.9177492E7,6.496784E7,2.9222323E8,8.225531E7,-5.1412388E7,-1.0858059E7,3.7785916E7,1.1584246E8,2.124807E7,3.5223188E7,-6.0718345E6,-4.0872988E6,-2.4728755E6,5.0540247E5,2.0877692E6,6.358422E6,8.664176E6,1.4586399E7],"categories":[],"categories_nodes":[],"categories_segments":[],"categories_sizes":[],"default_left":[0,0,0,0,0,0,0,0,0,0,0,0,0,0,0,0,0,0,0,0,0],"id":8,"left_children":[1,3,5,7,9,11,-1,13,15,17,19,-1,-1,-1,-1,-1,-1,-1,-1,-1,-1],"loss_changes":[2.0689688E19,4.2910602E18,3.8224038E18,6.6523285E17,6.6678316E17,2.7658105E17,0E0,1.1950757E17,1.3040336E17,1.3818209E17,8.671766E16,0E0,0E0,0E0,0E0,0E0,0E0,0E0,0E0,0E0,0E0],"parents":[2147483647,0,0,1,1,2,2,3,3,4,4,5,5,7,7,8,8,9,9,10,10],"right_children":[2,4,6,8,10,12,-1,14,16,18,20,-1,-1,-1,-1,-1,-1,-1,-1,-1,-1],"split_conditions":[1.8238941E0,2.2817978E-1,5.4454355E0,-2.9411095E-1,8.938037E-1,2.8519657E0,8.225531E7,-5.501317E-1,-2.2572842E-1,3.2715824E-1,9.352621E-1,2.124807E7,3.5223188E7,-6.0718345E6,-4.0872988E6,-2.4728755E6,5.0540247E5,2.0877692E6,6.358422E6,8.664176E6,1.4586399E7],"split_indices":[11,11,11,11,11,11,0,2,8,2,2,0,0,0,0,0,0,0,0,0,0],"split_type":[0,0,0,0,0,0,0,0,0,0,0,0,0,0,0,0,0,0,0,0,0],"sum_hessian":[2.56E3,2.416E3,1.44E2,1.923E3,4.93E2,1.31E2,1.3E1,1.34E3,5.83E2,3.27E2,1.66E2,6.6E1,6.5E1,6.99E2,6.41E2,3.1E2,2.73E2,2.03E2,1.24E2,9.4E1,7.2E1],"tree_param":{"num_deleted":"0","num_feature":"105","num_nodes":"21","size_leaf_vector":"1"}},{"base_weights":[8.0103056E5,-2.0935942E7,2.698178E8,-3.8683884E7,3.9806908E7,2.024305E8,5.229391E8,-4.6541096E7,-1.1961628E7,1.9724514E7,7.748463E7,1.5800798E8,2.643324E7,4.0763572E6,5.3067126E8,-5.5941345E6,-3.9570225E6,-1.9071406E6,-4.0093025E5,6.9362306E5,3.3277718E6,5.88811E6,9.590755E6,1.2776026E6,1.5879021E7,7.928037E6,5.455648E7],"categories":[],"categories_nodes":[],"categories_segments":[],"categories_sizes":[],"default_left":[0,0,0,0,0,0,0,0,0,0,0,0,0,0,0,0,0,0,0,0,0,0,0,0,0,0,0],"id":9,"left_children":[1,3,5,7,9,11,13,15,17,19,21,23,-1,-1,25,-1,-1,-1,-1,-1,-1,-1,-1,-1,-1,-1,-1],"loss_changes":[1.493965E19,2.5562348E18,2.7286217E18,3.8186754E17,3.9868422E17,2.2839165E17,2.978577E16,8.158871E16,2.35338E16,6.072192E16,3.5169529E16,1.7847822E15,0E0,0E0,2.5758259E16,0E0,0E0,0E0,0E0,0E0,0E0,0E0,0E0,0E0,0E0,0E0,0E0],"parents":[2147483647,0,0,1,1,2,2,3,3,4,4,5,5,6,6,7,7,8,8,9,9,10,10,11,11,14,14],"right_children":[2,4,6,8,10,12,14,16,18,20,22,24,-1,-1,26,-1,-1,-1,-1,-1,-1,-1,-1,-1,-1,-1,-1],"split_conditions":[1.3097177E0,-6.538982E-2,4.0547915E0,-3.1488687E-1,4.794422E-1,2.352771E0,7.7825373E-1,-6.2189096E-1,-2.3325579E-1,1.3063315E-1,8.661202E-1,-7.4012864E-1,2.643324E7,4.0763572E6,1.0763233E-1,-5.5941345E6,-3.9570225E6,-1.9071406E6,-4.0093025E5,6.9362306E5,3.3277718E6,5.88811E6,9.590755E6,1.2776026E6,1.5879021E7,7.928037E6,5.455648E7],"split_indices":[12,12,12,12,12,12,8,8,7,12,12,4,0,0,4,0,0,0,0,0,0,0,0,0,0,0,0],"split_type":[0,0,0,0,0,0,0,0,0,0,0,0,0,0,0,0,0,0,0,0,0,0,0,0,0,0,0],"sum_hessian":[2.545E3,2.359E3,1.86E2,1.827E3,5.32E2,1.54E2,3.2E1,1.409E3,4.18E2,3.52E2,1.8E2,1E2,5.4E1,1E0,3.1E1,5.85E2,8.24E2,2.17E2,2.01E2,1.85E2,1.67E2,1E2,8E1,1E0,9.9E1,2E0,2.9E1],"tree_param":{"num_deleted":"0","num_feature":"105","num_nodes":"27","size_leaf_vector":"1"}},{"base_weights":[1.4591181E6,-1.4832426E7,2.952645E8,-3.3786932E7,4.7424444E7,2.1070765E8,5.104878E8,-4.6817756E7,-1.83373E7,2.370307E7,8.692267E7,5.332981E6,2.159626E7,1.3331895E7,5.385572E8,-4.7120875E6,2.9666428E6,-2.5516048E6,-2.0698311E5,1.0031347E6,4.1285025E6,5.3331075E6,1.0299276E7,5.477181E7,4.5481855E6],"categories":[],"categories_nodes":[],"categories_segments":[],"categories_sizes":[],"default_left":[0,0,0,0,0,0,0,0,0,0,0,0,0,0,0,0,0,0,0,0,0,0,0,0,0],"id":10,"left_children":[1,3,5,7,9,11,13,15,17,19,21,-1,-1,-1,23,-1,-1,-1,-1,-1,-1,-1,-1,-1,-1],"loss_changes":[1.2117493E19,2.8389473E18,1.882597E18,3.6654144E17,5.1626538E17,2.8422925E16,9.543761E14,3.0080714E16,9.911575E16,8.398376E16,8.535894E16,0E0,0E0,0E0,1.0954434E16,0E0,0E0,0E0,0E0,0E0,0E0,0E0,0E0,0E0,0E0],"parents":[2147483647,0,0,1,1,2,2,3,3,4,4,5,5,6,6,7,7,8,8,9,9,10,10,14,14],"right_children":[2,4,6,8,10,12,14,16,18,20,22,-1,-1,-1,24,-1,-1,-1,-1,-1,-1,-1,-1,-1,-1],"split_conditions":[1.750964E0,1.3487132E-1,4.0625725E0,-4.5543653E-1,7.736964E-1,-1.7569616E-1,1.9229221E0,3.0526338E0,-1.3009608E-1,1.5465376E-1,1.02188975E-1,5.332981E6,2.159626E7,1.3331895E7,2.5012484E0,-4.7120875E6,2.9666428E6,-2.5516048E6,-2.0698311E5,1.0031347E6,4.1285025E6,5.3331075E6,1.0299276E7,5.477181E7,4.5481855E6],"split_indices":[11,11,11,11,11,5,10,9,11,8,3,0,0,0,16,0,0,0,0,0,0,0,0,0,0],"split_type":[0,0,0,0,0,0,0,0,0,0,0,0,0,0,0,0,0,0,0,0,0,0,0,0,0],"sum_hessian":[2.522E3,2.394E3,1.28E2,1.837E3,5.57E2,9.9E1,2.9E1,9.91E2,8.46E2,3.53E2,2.04E2,5E0,9.4E1,4E0,2.5E1,9.89E2,2E0,5.85E2,2.61E2,2.03E2,1.5E2,7.3E1,1.31E2,2.4E1,1E0],"tree_param":{"num_deleted":"0","num_feature":"105","num_nodes":"25","size_leaf_vector":"1"}},{"base_weights":[5.1634238E5,-1.5853701E7,2.3367664E8,-3.2731434E7,3.2569808E7,1.5982203E8,3.6711606E8,-4.120973E7,-1.785808E7,1.721148E7,7.153024E7,1.2121338E8,1.994363E7,2.7595936E7,5.624962E7,-4.1735905E6,5.8539785E6,-2.974609E6,-1.0514322E6,2.893654E5,3.3352092E6,4.789629E6,9.292916E6,1.624939E6,1.2305167E7],"categories":[],"categories_nodes":[],"categories_segments":[],"categories_sizes":[],"default_left":[0,0,0,0,0,0,0,0,0,0,0,0,0,0,0,0,0,0,0,0,0,0,0,0,0],"id":11,"left_children":[1,3,5,7,9,11,13,15,17,19,21,23,-1,-1,-1,-1,-1,-1,-1,-1,-1,-1,-1,-1,-1],"loss_changes":[9.774377E18,1.961079E18,1.3622944E18,2.2040123E17,3.6543032E17,5.807428E16,2.2124153E17,7.1419877E16,5.5532158E16,1.0397397E17,6.574413E16,3.895226E15,0E0,0E0,0E0,0E0,0E0,0E0,0E0,0E0,0E0,0E0,0E0,0E0,0E0],"parents":[2147483647,0,0,1,1,2,2,3,3,4,4,5,5,6,6,7,7,8,8,9,9,10,10,11,11],"right_children":[2,4,6,8,10,12,14,16,18,20,22,24,-1,-1,-1,-1,-1,-1,-1,-1,-1,-1,-1,-1,-1],"split_conditions":[1.4824064E0,1.1577332E-2,3.2134762E0,-4.0446448E-1,7.736964E-1,2.1534927E0,5.4454355E0,3.0526338E0,-3.948323E-1,7.156147E-2,7.394624E-1,-2.645684E-1,1.994363E7,2.7595936E7,5.624962E7,-4.1735905E6,5.8539785E6,-2.974609E6,-1.0514322E6,2.893654E5,3.3352092E6,4.789629E6,9.292916E6,1.624939E6,1.2305167E7],"split_indices":[11,11,11,11,11,9,11,9,9,2,8,3,0,0,0,0,0,0,0,0,0,0,0,0,0],"split_type":[0,0,0,0,0,0,0,0,0,0,0,0,0,0,0,0,0,0,0,0,0,0,0,0,0],"sum_hessian":[2.551E3,2.388E3,1.63E2,1.772E3,6.16E2,1.12E2,5.1E1,1.123E3,6.49E2,4.47E2,1.69E2,6.7E1,4.5E1,4.3E1,8E0,1.12E3,3E0,2.42E2,4.07E2,2.4E2,2.07E2,8.8E1,8.1E1,2E0,6.5E1],"tree_param":{"num_deleted":"0","num_feature":"105","num_nodes":"25","size_leaf_vector":"1"}},{"base_weights":[2.4615438E6,-1.333852E7,2.4318462E8,-2.5982608E7,4.9329896E7,1.9223888E8,6.0919372E7,-3.3924976E7,-2.0240696E6,3.4722524E7,8.658721E7,1.3075897E8,2.3884044E7,-4.4604015E6,-2.7446992E6,-1.2755461E6,7.9355956E5,2.5179388E6,5.897005E6,6.1940585E6,1.0686785E7,2.014E6,1.3243311E7],"categories":[],"categories_nodes":[],"categories_segments":[],"categories_sizes":[],"default_left":[0,0,0,0,0,0,0,0,0,0,0,0,0,0,0,0,0,0,0,0,0,0,0],"id":12,"left_children":[1,3,5,7,9,11,-1,13,15,17,19,21,-1,-1,-1,-1,-1,-1,-1,-1,-1,-1,-1],"loss_changes":[9.75683E18,1.9144716E18,2.3606097E18,3.815638E17,2.059252E17,2.6214611E17,0E0,9.8131E16,5.4481055E16,6.1995104E16,2.2385988E16,3.6819896E14,0E0,0E0,0E0,0E0,0E0,0E0,0E0,0E0,0E0,0E0,0E0],"parents":[2147483647,0,0,1,1,2,2,3,3,4,4,5,5,7,7,8,8,9,9,10,10,11,11],"right_children":[2,4,6,8,10,12,-1,14,16,18,20,22,-1,-1,-1,-1,-1,-1,-1,-1,-1,-1,-1],"split_conditions":[1.6834439E0,1.3063315E-1,5.38905E0,-2.7691E-1,1.0378526E0,2.490446E0,6.0919372E7,-6.206533E-1,-9.7912244E-2,8.0264264E-1,8.661202E-1,3.2115015E-1,2.3884044E7,-4.4604015E6,-2.7446992E6,-1.2755461E6,7.9355956E5,2.5179388E6,5.897005E6,6.1940585E6,1.0686785E7,2.014E6,1.3243311E7],"split_indices":[12,12,12,12,11,12,0,11,11,12,12,11,0,0,0,0,0,0,0,0,0,0,0],"split_type":[0,0,0,0,0,0,0,0,0,0,0,0,0,0,0,0,0,0,0,0,0,0,0],"sum_hessian":[2.556E3,2.403E3,1.53E2,2.002E3,4.01E2,1.41E2,1.2E1,1.502E3,5E2,2.95E2,1.06E2,6.9E1,7.2E1,5.56E2,9.46E2,2.4E2,2.6E2,2.19E2,7.6E1,5.7E1,4.9E1,2E0,6.7E1],"tree_param":{"num_deleted":"0","num_feature":"105","num_nodes":"23","size_leaf_vector":"1"}},{"base_weights":[2.86598E6,-9.113014E6,2.921004E8,-2.248192E7,5.8730348E7,2.0947466E8,6.194998E8,-3.0496506E7,-5.5392305E3,3.4182636E7,9.479995E7,1.4477975E7,2.397599E7,1.5773581E7,6.9509816E7,-4.0557558E6,-2.4648332E6,-5.607938E5,1.9132479E6,2.5914935E6,5.526874E6,6.890197E6,1.1368061E7],"categories":[],"categories_nodes":[],"categories_segments":[],"categories_sizes":[],"default_left":[0,0,0,0,0,0,0,0,0,0,0,0,0,0,0,0,0,0,0,0,0,0,0],"id":13,"left_children":[1,3,5,7,9,11,13,15,17,19,21,-1,-1,-1,-1,-1,-1,-1,-1,-1,-1,-1,-1],"loss_changes":[8.8865015E18,2.2414287E18,2.110418E18,3.7144554E17,3.4416583E17,8.1556275E14,8.01456E16,8.443658E16,5.918515E16,3.6421976E16,4.00493E16,0E0,0E0,0E0,0E0,0E0,0E0,0E0,0E0,0E0,0E0,0E0,0E0],"parents":[2147483647,0,0,1,1,2,2,3,3,4,4,5,5,6,6,7,7,8,8,9,9,10,10],"right_children":[2,4,6,8,10,12,14,16,18,20,22,-1,-1,-1,-1,-1,-1,-1,-1,-1,-1,-1,-1],"split_conditions":[2.3868282E0,1.955792E-1,5.38905E0,-1.6045232E-1,9.892665E-1,2.490446E0,4.365899E0,-6.264413E-1,4.9946102E-1,9.3214715E-1,1.0901031E0,1.4477975E7,2.397599E7,1.5773581E7,6.9509816E7,-4.0557558E6,-2.4648332E6,-5.607938E5,1.9132479E6,2.5914935E6,5.526874E6,6.890197E6,1.1368061E7],"split_indices":[11,12,12,11,12,12,2,11,11,11,11,0,0,0,0,0,0,0,0,0,0,0,0],"split_type":[0,0,0,0,0,0,0,0,0,0,0,0,0,0,0,0,0,0,0,0,0,0,0],"sum_hessian":[2.556E3,2.459E3,9.7E1,2.057E3,4.02E2,8.4E1,1.3E1,1.515E3,5.42E2,2.45E2,1.57E2,3.6E1,4.8E1,4E0,9E0,5.46E2,9.69E2,4.22E2,1.2E2,1.84E2,6.1E1,7.6E1,8.1E1],"tree_param":{"num_deleted":"0","num_feature":"105","num_nodes":"23","size_leaf_vector":"1"}},{"base_weights":[1.7620281E6,-1.1768582E7,1.7156042E8,-2.3990422E7,2.3524256E7,1.3003E8,3.4944304E8,-3.2155122E7,-1.4823817E7,1.1474025E7,4.7056496E7,8.943111E6,1.5908867E8,2.1629916E7,4.710878E7,-3.6041392E6,-2.672603E6,-2.2885188E6,-8.085436E5,3.6329922E5,2.6856178E6,2.9757628E6,6.3078775E6,1.6008663E7,1.2044449E6],"categories":[],"categories_nodes":[],"categories_segments":[],"categories_sizes":[],"default_left":[0,0,0,0,0,0,0,0,0,0,0,0,0,0,0,0,0,0,0,0,0,0,0,0,0],"id":14,"left_children":[1,3,5,7,9,11,13,15,17,19,21,-1,23,-1,-1,-1,-1,-1,-1,-1,-1,-1,-1,-1,-1],"loss_changes":[5.9146084E18,1.0315758E18,1.1764417E18,1.3038751E17,1.7197884E17,1.1998228E17,2.4997397E16,1.4890136E16,4.497571E16,4.944551E16,4.7988254E16,0E0,3.272559E15,0E0,0E0,0E0,0E0,0E0,0E0,0E0,0E0,0E0,0E0,0E0,0E0],"parents":[2147483647,0,0,1,1,2,2,3,3,4,4,5,5,6,6,7,7,8,8,9,9,10,10,12,12],"right_children":[2,4,6,8,10,12,14,16,18,20,22,-1,24,-1,-1,-1,-1,-1,-1,-1,-1,-1,-1,-1,-1],"split_conditions":[1.4224784E0,1.1577332E-2,4.0625725E0,-4.9332365E-1,6.7860544E-1,1.9888271E0,5.4454355E0,-5.912247E-1,-3.948323E-1,2.7398366E-1,5.9532475E-1,8.943111E6,3.253983E0,2.1629916E7,4.710878E7,-3.6041392E6,-2.672603E6,-2.2885188E6,-8.085436E5,3.6329922E5,2.6856178E6,2.9757628E6,6.3078775E6,1.6008663E7,1.2044449E6],"split_indices":[11,11,11,11,11,11,11,1,9,9,8,0,60,0,0,0,0,0,0,0,0,0,0,0,0],"split_type":[0,0,0,0,0,0,0,0,0,0,0,0,0,0,0,0,0,0,0,0,0,0,0,0,0],"sum_hessian":[2.565E3,2.38E3,1.85E2,1.769E3,6.11E2,1.57E2,2.8E1,9.29E2,8.4E2,4.09E2,2.02E2,7.4E1,8.3E1,2E1,8E0,5.25E2,4.04E2,3.77E2,4.63E2,2.75E2,1.34E2,1.04E2,9.8E1,8.2E1,1E0],"tree_param":{"num_deleted":"0","num_feature":"105","num_nodes":"25","size_leaf_vector":"1"}},{"base_weights":[1.8773994E6,-9.499858E6,1.9004136E8,-2.0161112E7,3.4868436E7,1.3708635E8,4.10123E8,-2.5415252E7,-1.9932635E6,2.150674E7,6.1587704E7,1.0612935E7,1.7220654E7,2.3721056E7,5.6817766E8,-3.1805958E6,-2.023628E6,-6.0516344E5,2.795921E5,1.1107969E6,2.7380202E6,4.306239E6,6.884988E6,4.8029315E6,5.9928896E7],"categories":[],"categories_nodes":[],"categories_segments":[],"categories_sizes":[],"default_left":[0,0,0,0,0,0,0,0,0,0,0,0,0,0,0,0,0,0,0,0,0,0,0,0,0],"id":15,"left_children":[1,3,5,7,9,11,13,15,17,19,21,-1,-1,-1,23,-1,-1,-1,-1,-1,-1,-1,-1,-1,-1],"loss_changes":[5.519419E18,1.1539036E18,1.4320886E18,1.8722305E17,1.6224517E17,4.560829E16,3.6681357E16,4.7188977E16,8.753183E15,1.8207122E16,6.028622E15,0E0,0E0,0E0,1.7908021E16,0E0,0E0,0E0,0E0,0E0,0E0,0E0,0E0,0E0,0E0],"parents":[2147483647,0,0,1,1,2,2,3,3,4,4,5,5,6,6,7,7,8,8,9,9,10,10,14,14],"right_children":[2,4,6,8,10,12,14,16,18,20,22,-1,-1,-1,24,-1,-1,-1,-1,-1,-1,-1,-1,-1,-1],"split_conditions":[1.7483202E0,5.764708E-2,4.781239E0,-2.7691E-1,8.0264264E-1,2.6729598E0,1.8773161E0,-5.057055E-1,-1.2971722E-1,2.1382993E-1,1.0073444E0,1.0612935E7,1.7220654E7,2.3721056E7,3.7090588E0,-3.1805958E6,-2.023628E6,-6.0516344E5,2.795921E5,1.1107969E6,2.7380202E6,4.306239E6,6.884988E6,4.8029315E6,5.9928896E7],"split_indices":[12,12,12,12,12,12,13,12,2,12,12,0,0,0,2,0,0,0,0,0,0,0,0,0,0],"split_type":[0,0,0,0,0,0,0,0,0,0,0,0,0,0,0,0,0,0,0,0,0,0,0,0,0],"sum_hessian":[2.569E3,2.427E3,1.42E2,1.959E3,4.68E2,1.21E2,2.1E1,1.518E3,4.41E2,3.18E2,1.5E2,7.5E1,4.6E1,1.6E1,5E0,6.68E2,8.5E2,2.38E2,2.03E2,1.2E2,1.98E2,5.2E1,9.8E1,1E0,4E0],"tree_param":{"num_deleted":"0","num_feature":"105","num_nodes":"25","size_leaf_vector":"1"}},{"base_weights":[1.136075E4,-1.2107414E7,1.1559394E8,-2.1838996E7,1.1372856E7,9.055461E7,2.6980186E7,-2.7377788E7,-1.4742931E7,4.1341765E6,3.2379518E7,6.836484E7,1.3616155E7,-3.3924618E6,-2.3500038E6,-2.5151978E6,-1.0071578E6,-2.2471188E5,1.4401868E6,2.3381862E6,4.7630805E6,4.8318655E6,7.891564E6],"categories":[],"categories_nodes":[],"categories_segments":[],"categories_sizes":[],"default_left":[0,0,0,0,0,0,0,0,0,0,0,0,0,0,0,0,0,0,0,0,0,0,0],"id":16,"left_children":[1,3,5,7,9,11,-1,13,15,17,19,21,-1,-1,-1,-1,-1,-1,-1,-1,-1,-1,-1],"loss_changes":[3.542413E18,5.242788E17,8.04544E17,6.165374E16,1.01819475E17,1.7002614E17,0E0,1.896362E16,3.3791531E16,3.3381042E16,1.8034344E16,1.3505989E16,0E0,0E0,0E0,0E0,0E0,0E0,0E0,0E0,0E0,0E0,0E0],"parents":[2147483647,0,0,1,1,2,2,3,3,4,4,5,5,7,7,8,8,9,9,10,10,11,11],"right_children":[2,4,6,8,10,12,-1,14,16,18,20,22,-1,-1,-1,-1,-1,-1,-1,-1,-1,-1,-1],"split_conditions":[9.892665E-1,-2.2939187E-1,4.0547915E0,-4.866111E-1,6.422342E-1,2.3868282E0,2.6980186E7,-7.1806294E-1,-4.7433874E-1,9.6131735E-2,1.1783572E0,9.709502E-1,1.3616155E7,-3.3924618E6,-2.3500038E6,-2.5151978E6,-1.0071578E6,-2.2471188E5,1.4401868E6,2.3381862E6,4.7630805E6,4.8318655E6,7.891564E6],"split_indices":[12,12,12,11,11,11,0,11,12,12,11,11,0,0,0,0,0,0,0,0,0,0,0],"split_type":[0,0,0,0,0,0,0,0,0,0,0,0,0,0,0,0,0,0,0,0,0,0,0],"sum_hessian":[2.519E3,2.284E3,2.35E2,1.615E3,6.69E2,2.09E2,2.6E1,8.99E2,7.16E2,5.02E2,1.67E2,1.49E2,6E1,3.2E2,5.79E2,2.15E2,5.01E2,3.12E2,1.9E2,1.13E2,5.4E1,6.1E1,8.8E1],"tree_param":{"num_deleted":"0","num_feature":"105","num_nodes":"23","size_leaf_vector":"1"}},{"base_weights":[2.2744848E6,-7.6054345E6,1.4640304E8,-1.6176286E7,2.8037402E7,1.1161694E8,3.160989E8,-2.1014864E7,-3.2790445E6,1.5529618E7,4.4531932E7,8.169218E7,1.4034038E8,1.5230768E7,3.903964E7,-2.6533525E6,-1.6870496E6,-8.183898E5,9.350614E3,8.070142E5,1.9391099E6,3.1486735E6,5.0942135E6,6.3188425E5,8.2232655E6,2.0980992E6,1.4243122E7],"categories":[],"categories_nodes":[],"categories_segments":[],"categories_sizes":[],"default_left":[0,0,0,0,0,0,0,0,0,0,0,0,0,0,0,0,0,0,0,0,0,0,0,0,0,0,0],"id":17,"left_children":[1,3,5,7,9,11,13,15,17,19,21,23,25,-1,-1,-1,-1,-1,-1,-1,-1,-1,-1,-1,-1,-1,-1],"loss_changes":[3.6182008E18,7.2902706E17,7.8578825E17,1.1953416E17,9.206372E16,6.5590954E16,6.929947E15,2.969025E16,8.771017E15,7.0236116E15,8.453664E15,7.424109E14,1.5292832E15,0E0,0E0,0E0,0E0,0E0,0E0,0E0,0E0,0E0,0E0,0E0,0E0,0E0,0E0],"parents":[2147483647,0,0,1,1,2,2,3,3,4,4,5,5,6,6,7,7,8,8,9,9,10,10,11,11,12,12],"right_children":[2,4,6,8,10,12,14,16,18,20,22,24,26,-1,-1,-1,-1,-1,-1,-1,-1,-1,-1,-1,-1,-1,-1],"split_conditions":[1.6834439E0,5.764708E-2,4.781239E0,-3.1488687E-1,5.8706284E-1,2.490446E0,4.5074615E0,-5.139609E-1,-2.1956798E-1,1.955792E-1,8.661202E-1,-6.2031764E-1,-3.6734277E-3,1.5230768E7,3.903964E7,-2.6533525E6,-1.6870496E6,-8.183898E5,9.350614E3,8.070142E5,1.9391099E6,3.1486735E6,5.0942135E6,6.3188425E5,8.2232655E6,2.0980992E6,1.4243122E7],"split_indices":[12,12,12,12,12,12,8,12,12,12,12,17,5,0,0,0,0,0,0,0,0,0,0,0,0,0,0],"split_type":[0,0,0,0,0,0,0,0,0,0,0,0,0,0,0,0,0,0,0,0,0,0,0,0,0,0,0],"sum_hessian":[2.532E3,2.374E3,1.58E2,1.916E3,4.58E2,1.38E2,2E1,1.391E3,5.25E2,2.66E2,1.92E2,7.7E1,6.1E1,1.1E1,9E0,5.85E2,8.06E2,2.11E2,3.14E2,9.6E1,1.7E2,7.3E1,1.19E2,1E0,7.6E1,2E0,5.9E1],"tree_param":{"num_deleted":"0","num_feature":"105","num_nodes":"27","size_leaf_vector":"1"}},{"base_weights":[1.6917745E6,-5.1395415E6,1.9970158E8,-1.2484421E7,4.2382896E7,1.3496952E8,4.407263E8,-1.837617E7,2.4031612E6,2.8160552E7,6.3455836E7,1.1302976E6,1.3587698E7,1.2210748E7,5.3004966E8,-2.693758E6,-1.5324218E6,-3.2264875E5,1.1521426E6,1.8542894E6,4.0086445E6,4.0482765E6,7.0666195E6,3.9194708E6,5.595378E7],"categories":[],"categories_nodes":[],"categories_segments":[],"categories_sizes":[],"default_left":[0,0,0,0,0,0,0,0,0,0,0,0,0,0,0,0,0,0,0,0,0,0,0,0,0],"id":18,"left_children":[1,3,5,7,9,11,13,15,17,19,21,-1,-1,-1,23,-1,-1,-1,-1,-1,-1,-1,-1,-1,-1],"loss_changes":[3.4882504E18,8.731677E17,1.0443513E18,1.9003368E17,9.146693E16,7.374974E14,1.3174623E17,3.846212E16,3.1909432E16,2.025553E16,7.39559E15,0E0,0E0,0E0,4.956406E16,0E0,0E0,0E0,0E0,0E0,0E0,0E0,0E0,0E0,0E0],"parents":[2147483647,0,0,1,1,2,2,3,3,4,4,5,5,6,6,7,7,8,8,9,9,10,10,14,14],"right_children":[2,4,6,8,10,12,14,16,18,20,22,-1,-1,-1,24,-1,-1,-1,-1,-1,-1,-1,-1,-1,-1],"split_conditions":[2.622964E0,3.1935945E-1,5.38905E0,-1.6045232E-1,1.1402673E0,4.9364367E-1,5.247316E0,-6.904095E-1,-4.763921E-2,9.2473364E-1,8.661202E-1,1.1302976E6,1.3587698E7,1.2210748E7,2.3701081E0,-2.693758E6,-1.5324218E6,-3.2264875E5,1.1521426E6,1.8542894E6,4.0086445E6,4.0482765E6,7.0666195E6,3.9194708E6,5.595378E7],"split_indices":[11,12,12,11,11,7,2,11,12,12,12,0,0,0,3,0,0,0,0,0,0,0,0,0,0],"split_type":[0,0,0,0,0,0,0,0,0,0,0,0,0,0,0,0,0,0,0,0,0,0,0,0,0],"sum_hessian":[2.57E3,2.489E3,8.1E1,2.159E3,3.3E2,7E1,1.1E1,1.546E3,6.13E2,2.04E2,1.26E2,1E0,6.9E1,5E0,6E0,3.96E2,1.15E3,3.81E2,2.32E2,1.2E2,8.4E1,3.8E1,8.8E1,1E0,5E0],"tree_param":{"num_deleted":"0","num_feature":"105","num_nodes":"25","size_leaf_vector":"1"}},{"base_weights":[2.5794602E6,-4.031548E6,1.923038E8,-1.2373092E7,3.274804E7,1.2980013E8,4.078187E8,-1.6958846E7,-6.1163175E5,1.946907E7,5.640995E7,1.3069697E8,1.0721824E6,1.347757E7,5.3156092E7,-2.2546532E6,-1.372629E6,-8.896258E5,3.16183E5,1.2642344E6,2.7395178E6,4.2970815E6,6.661282E6,1.1114592E6,1.3158599E7],"categories":[],"categories_nodes":[],"categories_segments":[],"categories_sizes":[],"default_left":[0,0,0,0,0,0,0,0,0,0,0,0,0,0,0,0,0,0,0,0,0,0,0,0,0],"id":19,"left_children":[1,3,5,7,9,11,13,15,17,19,21,23,-1,-1,-1,-1,-1,-1,-1,-1,-1,-1,-1,-1,-1],"loss_changes":[3.203517E18,7.598184E17,8.937861E17,1.0873538E17,1.3841501E17,8.9637685E14,2.1617058E17,2.4661256E16,1.7991084E16,1.4555223E16,7.901022E15,4.48051E14,0E0,0E0,0E0,0E0,0E0,0E0,0E0,0E0,0E0,0E0,0E0,0E0,0E0],"parents":[2147483647,0,0,1,1,2,2,3,3,4,4,5,5,6,6,7,7,8,8,9,9,10,10,11,11],"right_children":[2,4,6,8,10,12,14,16,18,20,22,24,-1,-1,-1,-1,-1,-1,-1,-1,-1,-1,-1,-1,-1],"split_conditions":[2.622964E0,4.1457325E-1,5.4454355E0,-2.3441769E-1,1.1402673E0,6.2433963E0,5.247316E0,-6.427682E-1,-3.521842E-1,8.3081074E-2,1.5775328E0,-1.893217E0,1.0721824E6,1.347757E7,5.3156092E7,-2.2546532E6,-1.372629E6,-8.896258E5,3.16183E5,1.2642344E6,2.7395178E6,4.2970815E6,6.661282E6,1.1114592E6,1.3158599E7],"split_indices":[11,11,11,11,11,40,2,11,7,3,11,0,0,0,0,0,0,0,0,0,0,0,0,0,0],"split_type":[0,0,0,0,0,0,0,0,0,0,0,0,0,0,0,0,0,0,0,0,0,0,0,0,0],"sum_hessian":[2.546E3,2.465E3,8.1E1,2.012E3,4.53E2,6.9E1,1.2E1,1.446E3,5.66E2,2.96E2,1.57E2,6.8E1,1E0,7E0,5E0,5.19E2,9.27E2,1.75E2,3.91E2,1.66E2,1.3E2,7.9E1,7.8E1,1E0,6.7E1],"tree_param":{"num_deleted":"0","num_feature":"105","num_nodes":"25","size_leaf_vector":"1"}},{"base_weights":[2.0543489E6,-3.100455E6,1.9754696E8,-1.118808E7,3.4464596E7,1.2583161E7,3.5383466E8,-1.5472228E7,4.637136E5,2.0898968E7,5.8925956E7,8.125625E6,4.026941E8,-1.8883874E6,-1.0712529E6,-7.298154E4,2.4160012E6,1.5118424E6,3.3571692E6,4.373245E6,7.537252E6,1.2505503E7,4.8746304E7],"categories":[],"categories_nodes":[],"categories_segments":[],"categories_sizes":[],"default_left":[0,0,0,0,0,0,0,0,0,0,0,0,0,0,0,0,0,0,0,0,0,0,0],"id":20,"left_children":[1,3,5,7,9,-1,11,13,15,17,19,-1,21,-1,-1,-1,-1,-1,-1,-1,-1,-1,-1],"loss_changes":[2.5888875E18,7.6297716E17,5.1712533E17,1.0311658E17,1.4150852E17,0E0,7.611727E16,2.350852E16,1.5926204E16,1.8999295E16,2.2500337E16,0E0,2.4693657E16,0E0,0E0,0E0,0E0,0E0,0E0,0E0,0E0,0E0,0E0],"parents":[2147483647,0,0,1,1,2,2,3,3,4,4,6,6,7,7,8,8,9,9,10,10,12,12],"right_children":[2,4,6,8,10,-1,12,14,16,18,20,-1,22,-1,-1,-1,-1,-1,-1,-1,-1,-1,-1],"split_conditions":[3.0036402E0,2.0333214E-1,5.02514E0,-2.7691E-1,1.2280227E0,1.2583161E7,2.075164E0,-4.9332365E-1,1.0378526E0,9.2473364E-1,1.9888271E0,8.125625E6,2.7173352E0,-1.8883874E6,-1.0712529E6,-7.298154E4,2.4160012E6,1.5118424E6,3.3571692E6,4.373245E6,7.537252E6,1.2505503E7,4.8746304E7],"split_indices":[12,12,7,12,11,0,5,11,11,12,11,0,3,0,0,0,0,0,0,0,0,0,0],"split_type":[0,0,0,0,0,0,0,0,0,0,0,0,0,0,0,0,0,0,0,0,0,0,0],"sum_hessian":[2.561E3,2.5E3,6.1E1,2.06E3,4.4E2,4.8E1,1.3E1,1.505E3,5.55E2,2.89E2,1.51E2,4E0,9E0,8.68E2,6.37E2,5.33E2,2.2E1,2.06E2,8.3E1,8.8E1,6.3E1,5E0,4E0],"tree_param":{"num_deleted":"0","num_feature":"105","num_nodes":"23","size_leaf_vector":"1"}},{"base_weights":[2.283445E6,-3.1493328E6,1.7014938E8,-8.761679E6,3.7360016E7,1.223954E8,4.4322957E8,-1.3692392E7,2.700058E6,3.036932E7,6.8049025E6,8.2632E5,1.233794E8,2.295855E6,4.771716E7,-1.9049396E6,-1.0644139E6,2.719608E3,1.5894584E6,2.1971998E6,3.9949492E6,1.8935844E6,1.2496563E7],"categories":[],"categories_nodes":[],"categories_segments":[],"categories_sizes":[],"default_left":[0,0,0,0,0,0,0,0,0,0,0,0,0,0,0,0,0,0,0,0,0,0,0],"id":21,"left_children":[1,3,5,7,9,11,13,15,17,19,-1,-1,21,-1,-1,-1,-1,-1,-1,-1,-1,-1,-1],"loss_changes":[2.3273118E18,5.6410678E17,7.72007E17,1.2321696E17,5.4457333E16,3.3254042E15,8.787256E16,2.3856018E16,2.3238887E16,1.6125334E16,0E0,0E0,4.279849E14,0E0,0E0,0E0,0E0,0E0,0E0,0E0,0E0,0E0,0E0],"parents":[2147483647,0,0,1,1,2,2,3,3,4,4,5,5,6,6,7,7,8,8,9,9,12,12],"right_children":[2,4,6,8,10,12,14,16,18,20,-1,-1,22,-1,-1,-1,-1,-1,-1,-1,-1,-1,-1],"split_conditions":[2.6729598E0,4.794422E-1,5.624752E0,-2.7003956E-1,2.241194E0,-3.6734277E-3,4.7650127E0,-5.295343E-1,6.236935E-1,1.1140726E0,6.8049025E6,8.2632E5,8.6418176E-1,2.295855E6,4.771716E7,-1.9049396E6,-1.0644139E6,2.719608E3,1.5894584E6,2.1971998E6,3.9949492E6,1.8935844E6,1.2496563E7],"split_indices":[12,12,8,12,11,5,1,12,11,12,0,0,2,0,0,0,0,0,0,0,0,0,0],"split_type":[0,0,0,0,0,0,0,0,0,0,0,0,0,0,0,0,0,0,0,0,0,0,0],"sum_hessian":[2.544E3,2.469E3,7.5E1,2.172E3,2.97E2,7E1,5E0,1.518E3,6.54E2,2.5E2,4.7E1,1E0,6.9E1,1E0,4E0,5.41E2,9.77E2,5.48E2,1.06E2,1.42E2,1.08E2,2E0,6.7E1],"tree_param":{"num_deleted":"0","num_feature":"105","num_nodes":"23","size_leaf_vector":"1"}},{"base_weights":[2.2685765E6,-1.3321941E6,2.3914715E8,-6.7935345E6,4.5913016E7,1.4620851E8,4.262711E8,-1.1876305E7,5.9582445E6,3.304756E7,7.135817E6,1.1706432E6,1.4858258E7,2.6505858E6,4.5596396E7,-1.8127906E6,-9.6700194E5,-3.910194E4,1.0071592E6,2.6898798E6,4.2282875E6],"categories":[],"categories_nodes":[],"categories_segments":[],"categories_sizes":[],"default_left":[0,0,0,0,0,0,0,0,0,0,0,0,0,0,0,0,0,0,0,0,0],"id":22,"left_children":[1,3,5,7,9,11,13,15,17,19,-1,-1,-1,-1,-1,-1,-1,-1,-1,-1,-1],"loss_changes":[2.1646626E18,6.47389E17,3.4923747E17,1.460565E17,7.332341E16,1.8405137E15,5.827343E16,2.131618E16,1.6838868E16,4.64822E15,0E0,0E0,0E0,0E0,0E0,0E0,0E0,0E0,0E0,0E0,0E0],"parents":[2147483647,0,0,1,1,2,2,3,3,4,4,5,5,6,6,7,7,8,8,9,9],"right_children":[2,4,6,8,10,12,14,16,18,20,-1,-1,-1,-1,-1,-1,-1,-1,-1,-1,-1],"split_conditions":[4.0625725E0,9.3214715E-1,2.3637147E0,-1.0860435E-1,1.9888271E0,1.3687906E0,3.149442E0,-6.8368816E-1,-1.0078404E-1,1.2036761E0,7.135817E6,1.1706432E6,1.4858258E7,2.6505858E6,4.5596396E7,-1.8127906E6,-9.6700194E5,-3.910194E4,1.0071592E6,2.6898798E6,4.2282875E6],"split_indices":[11,11,13,11,11,1,1,11,8,1,0,0,0,0,0,0,0,0,0,0,0],"split_type":[0,0,0,0,0,0,0,0,0,0,0,0,0,0,0,0,0,0,0,0,0],"sum_hessian":[2.531E3,2.498E3,3.3E1,2.243E3,2.55E2,2.8E1,5E0,1.604E3,6.39E2,1.77E2,7.8E1,1E0,2.7E1,1E0,4E0,4.09E2,1.195E3,2.53E2,3.86E2,1.18E2,5.9E1],"tree_param":{"num_deleted":"0","num_feature":"105","num_nodes":"21","size_leaf_vector":"1"}},{"base_weights":[2.6540335E6,-1.0873318E5,3.7580157E8,-5.7857715E6,5.36638E7,1.1697899E7,4.7804016E8,-1.094612E7,6.18628E6,3.9574564E7,1.0009454E8,2.9704982E6,5.0529564E7,-1.4915519E6,-7.6838094E5,1.1302206E5,1.3931914E6,3.2647382E6,5.1717515E6,1.0120007E7,6.9170025E5],"categories":[],"categories_nodes":[],"categories_segments":[],"categories_sizes":[],"default_left":[0,0,0,0,0,0,0,0,0,0,0,0,0,0,0,0,0,0,0,0,0],"id":23,"left_children":[1,3,5,7,9,-1,11,13,15,17,19,-1,-1,-1,-1,-1,-1,-1,-1,-1,-1],"loss_changes":[2.6651315E18,7.863984E17,2.2316815E17,1.4428589E17,1.4112067E17,0E0,7.158618E16,2.053448E16,2.7530751E16,8.128724E15,2.0625464E15,0E0,0E0,0E0,0E0,0E0,0E0,0E0,0E0,0E0,0E0],"parents":[2147483647,0,0,1,1,2,2,3,3,4,4,6,6,7,7,8,8,9,9,10,10],"right_children":[2,4,6,8,10,-1,12,14,16,18,20,-1,-1,-1,-1,-1,-1,-1,-1,-1,-1],"split_conditions":[5.38905E0,9.892665E-1,5.247316E0,-2.2939187E-1,3.0036402E0,1.1697899E7,2.3701081E0,-4.8523772E-1,1.802183E-1,1.7288393E0,5.543479E0,2.9704982E6,5.0529564E7,-1.4915519E6,-7.6838094E5,1.1302206E5,1.3931914E6,3.2647382E6,5.1717515E6,1.0120007E7,6.9170025E5],"split_indices":[12,12,2,12,12,0,3,12,12,8,49,0,0,0,0,0,0,0,0,0,0],"split_type":[0,0,0,0,0,0,0,0,0,0,0,0,0,0,0,0,0,0,0,0,0],"sum_hessian":[2.58E3,2.566E3,1.4E1,2.325E3,2.41E2,7E0,7E0,1.625E3,7E2,1.92E2,4.9E1,1E0,6E0,7.25E2,9E2,4.27E2,2.73E2,1.34E2,5.8E1,4.8E1,1E0],"tree_param":{"num_deleted":"0","num_feature":"105","num_nodes":"21","size_leaf_vector":"1"}},{"base_weights":[2.7035982E6,4.5213562E4,3.5653667E8,-5.1721875E6,4.934121E7,1.1198858E7,4.5252784E8,-9.657565E6,6.114867E6,3.3714316E7,8.34234E7,2.9209898E6,4.7773404E7,-1.6487499E6,-7.84145E5,5.783837E4,1.3871575E6,2.1306428E6,4.0077772E6,8.552513E6,1.289368E6],"categories":[],"categories_nodes":[],"categories_segments":[],"categories_sizes":[],"default_left":[0,0,0,0,0,0,0,0,0,0,0,0,0,0,0,0,0,0,0,0,0],"id":24,"left_children":[1,3,5,7,9,-1,11,13,15,17,19,-1,-1,-1,-1,-1,-1,-1,-1,-1,-1],"loss_changes":[2.3966305E18,6.5301315E17,1.9262509E17,1.1653418E17,1.153587E17,0E0,5.8269993E16,1.975807E16,2.813173E16,9.547901E15,5.3074113E15,0E0,0E0,0E0,0E0,0E0,0E0,0E0,0E0,0E0,0E0],"parents":[2147483647,0,0,1,1,2,2,3,3,4,4,6,6,7,7,8,8,9,9,10,10],"right_children":[2,4,6,8,10,-1,12,14,16,18,20,-1,-1,-1,-1,-1,-1,-1,-1,-1,-1],"split_conditions":[5.38905E0,9.892665E-1,5.247316E0,-8.118058E-2,2.490446E0,1.1198858E7,2.3701081E0,-7.1070087E-1,1.09792106E-1,9.709502E-1,2.7564197E0,2.9209898E6,4.7773404E7,-1.6487499E6,-7.84145E5,5.783837E4,1.3871575E6,2.1306428E6,4.0077772E6,8.552513E6,1.289368E6],"split_indices":[12,12,2,11,12,0,3,11,12,11,81,0,0,0,0,0,0,0,0,0,0],"split_type":[0,0,0,0,0,0,0,0,0,0,0,0,0,0,0,0,0,0,0,0,0],"sum_hessian":[2.543E3,2.529E3,1.4E1,2.291E3,2.38E2,7E0,7E0,1.64E3,6.51E2,1.7E2,6.8E1,1E0,6E0,3.36E2,1.304E3,3.83E2,2.68E2,6.5E1,1.05E2,6.5E1,3E0],"tree_param":{"num_deleted":"0","num_feature":"105","num_nodes":"21","size_leaf_vector":"1"}},{"base_weights":[2.1290852E6,-1.4394373E5,3.2708595E8,-5.1393585E6,3.860259E7,1.0316699E7,4.546376E7,-8.3414885E6,6.394874E6,2.7930104E7,7.283658E7,-1.0441303E6,-2.4220305E5,3.9689428E5,1.9877222E6,2.2482335E6,3.8550652E6,4.0658325E6,8.503677E6],"categories":[],"categories_nodes":[],"categories_segments":[],"categories_sizes":[],"default_left":[0,0,0,0,0,0,0,0,0,0,0,0,0,0,0,0,0,0,0],"id":25,"left_children":[1,3,5,7,9,-1,-1,11,13,15,17,-1,-1,-1,-1,-1,-1,-1,-1],"loss_changes":[1.9140423E18,4.9997676E17,2.7958423E17,8.477197E16,9.761004E16,0E0,0E0,2.2160116E16,1.5959164E16,9.147439E15,9.015686E15,0E0,0E0,0E0,0E0,0E0,0E0,0E0,0E0],"parents":[2147483647,0,0,1,1,2,2,3,3,4,4,7,7,8,8,9,9,10,10],"right_children":[2,4,6,8,10,-1,-1,12,14,16,18,-1,-1,-1,-1,-1,-1,-1,-1],"split_conditions":[5.38905E0,7.42324E-1,5.247316E0,4.7293738E-2,2.8519657E0,1.0316699E7,4.546376E7,-3.3179262E-1,1.0142308E0,1.7483202E0,2.490446E0,-1.0441303E6,-2.4220305E5,3.9689428E5,1.9877222E6,2.2482335E6,3.8550652E6,4.0658325E6,8.503677E6],"split_indices":[12,12,2,11,11,0,0,12,11,12,12,0,0,0,0,0,0,0,0],"split_type":[0,0,0,0,0,0,0,0,0,0,0,0,0,0,0,0,0,0,0],"sum_hessian":[2.586E3,2.573E3,1.3E1,2.283E3,2.9E2,8E0,5E0,1.788E3,4.95E2,2.28E2,6.2E1,1.317E3,4.71E2,4.25E2,7E1,1.61E2,6.7E1,2.3E1,3.9E1],"tree_param":{"num_deleted":"0","num_feature":"105","num_nodes":"19","size_leaf_vector":"1"}},{"base_weights":[1.4093942E6,-1.1350972E6,1.7328157E8,-5.3815135E6,2.6131624E7,1.0251631E8,3.6573296E7,-8.694281E6,1.2903396E6,1.9360628E7,4.9802204E7,7.852608E5,1.0419512E7,-1.545062E6,-7.436055E5,-1.8385936E5,4.8316134E5,1.3475149E6,2.6993638E6,3.0035734E5,5.0249825E6],"categories":[],"categories_nodes":[],"categories_segments":[],"categories_sizes":[],"default_left":[0,0,0,0,0,0,0,0,0,0,0,0,0,0,0,0,0,0,0,0,0],"id":26,"left_children":[1,3,5,7,9,11,-1,13,15,17,19,-1,-1,-1,-1,-1,-1,-1,-1,-1,-1],"loss_changes":[1.10917084E18,2.9039933E17,3.1643038E17,4.7995985E16,4.935139E16,1.3123702E15,0E0,1.1751993E16,8.0666336E15,1.0355664E16,7.5361214E14,0E0,0E0,0E0,0E0,0E0,0E0,0E0,0E0,0E0,0E0],"parents":[2147483647,0,0,1,1,2,2,3,3,4,4,5,5,7,7,8,8,9,9,10,10],"right_children":[2,4,6,8,10,12,-1,14,16,18,20,-1,-1,-1,-1,-1,-1,-1,-1,-1,-1],"split_conditions":[4.0625725E0,6.7860544E-1,5.624752E0,-2.2485614E-1,1.9888271E0,-9.6206903E-1,3.6573296E7,-7.5418824E-1,-6.887157E-2,1.2280227E0,-4.2813164E-1,7.852608E5,1.0419512E7,-1.545062E6,-7.436055E5,-1.8385936E5,4.8316134E5,1.3475149E6,2.6993638E6,3.0035734E5,5.0249825E6],"split_indices":[11,11,8,11,11,18,0,11,7,11,7,0,0,0,0,0,0,0,0,0,0],"split_type":[0,0,0,0,0,0,0,0,0,0,0,0,0,0,0,0,0,0,0,0,0],"sum_hessian":[2.529E3,2.497E3,3.2E1,2.164E3,3.33E2,2.9E1,3E0,1.445E3,7.19E2,2.66E2,6.7E1,1E0,2.8E1,2.18E2,1.227E3,3.83E2,3.36E2,1.58E2,1.08E2,1E0,6.6E1],"tree_param":{"num_deleted":"0","num_feature":"105","num_nodes":"21","size_leaf_vector":"1"}},{"base_weights":[1.6084051E6,-6.4370575E5,2.1592837E8,-4.9281945E6,2.6729774E7,8.620492E6,2.9097216E8,-8.051612E6,1.4624585E6,1.8791018E7,5.2249395E6,7.9847795E6,3.5661044E7,-1.1797479E6,-5.981791E5,2.7541576E4,1.3294616E6,1.3011915E6,2.4428568E6],"categories":[],"categories_nodes":[],"categories_segments":[],"categories_sizes":[],"default_left":[0,0,0,0,0,0,0,0,0,0,0,0,0,0,0,0,0,0,0],"id":27,"left_children":[1,3,5,7,9,-1,11,13,15,17,-1,-1,-1,-1,-1,-1,-1,-1,-1],"loss_changes":[1.2532295E18,3.024236E17,1.3742727E17,4.4551236E16,6.57962E16,0E0,6.5494884E16,1.1261559E16,1.0319015E16,7.3375994E15,0E0,0E0,0E0,0E0,0E0,0E0,0E0,0E0,0E0],"parents":[2147483647,0,0,1,1,2,2,3,3,4,4,6,6,7,7,8,8,9,9],"right_children":[2,4,6,8,10,-1,12,14,16,18,-1,-1,-1,-1,-1,-1,-1,-1,-1],"split_conditions":[4.781239E0,4.794422E-1,5.4454355E0,-2.9280445E-1,2.3868282E0,8.620492E6,5.247316E0,-5.303884E-1,8.5995424E-1,1.1140726E0,5.2249395E6,7.9847795E6,3.5661044E7,-1.1797479E6,-5.981791E5,2.7541576E4,1.3294616E6,1.3011915E6,2.4428568E6],"split_indices":[12,12,11,12,11,0,2,12,11,12,0,0,0,0,0,0,0,0,0],"split_type":[0,0,0,0,0,0,0,0,0,0,0,0,0,0,0,0,0,0,0],"sum_hessian":[2.59E3,2.568E3,2.2E1,2.224E3,3.44E2,1.2E1,1E1,1.493E3,7.31E2,2.69E2,7.5E1,5E0,5E0,5.23E2,9.7E2,6.69E2,6.2E1,1.41E2,1.28E2],"tree_param":{"num_deleted":"0","num_feature":"105","num_nodes":"19","size_leaf_vector":"1"}},{"base_weights":[2.2418568E6,3.5679497E5,3.011483E8,-3.3197435E6,3.4753572E7,5.2997355E6,3.8985444E7,-6.4318245E6,3.9974072E6,2.592111E7,7.235703E7,-9.43587E5,-3.998264E5,9.272997E4,8.449498E5,2.0384582E6,3.6204858E6,1.0704654E6,7.7184195E6],"categories":[],"categories_nodes":[],"categories_segments":[],"categories_sizes":[],"default_left":[0,0,0,0,0,0,0,0,0,0,0,0,0,0,0,0,0,0,0],"id":28,"left_children":[1,3,5,7,9,-1,-1,11,13,15,17,-1,-1,-1,-1,-1,-1,-1,-1],"loss_changes":[1.438532E18,3.221674E17,2.4889384E17,5.25487E16,7.2326425E16,0E0,0E0,1.1632477E16,9.392019E15,8.0956955E15,8.9634937E15,0E0,0E0,0E0,0E0,0E0,0E0,0E0,0E0],"parents":[2147483647,0,0,1,1,2,2,3,3,4,4,7,7,8,8,9,9,10,10],"right_children":[2,4,6,8,10,-1,-1,12,14,16,18,-1,-1,-1,-1,-1,-1,-1,-1],"split_conditions":[5.4454355E0,1.0901031E0,5.247316E0,-1.1759431E-1,3.2134762E0,5.2997355E6,3.8985444E7,-5.278606E-1,4.3284976E-1,1.9888271E0,1.7945502E0,-9.43587E5,-3.998264E5,9.272997E4,8.449498E5,2.0384582E6,3.6204858E6,1.0704654E6,7.7184195E6],"split_indices":[11,11,2,11,11,0,0,7,11,11,2,0,0,0,0,0,0,0,0],"split_type":[0,0,0,0,0,0,0,0,0,0,0,0,0,0,0,0,0,0,0],"sum_hessian":[2.549E3,2.538E3,1.1E1,2.297E3,2.41E2,5E0,6E0,1.612E3,6.85E2,2.02E2,3.9E1,7.15E2,8.97E2,4.09E2,2.76E2,1.41E2,6.1E1,4E0,3.5E1],"tree_param":{"num_deleted":"0","num_feature":"105","num_nodes":"19","size_leaf_vector":"1"}},{"base_weights":[1.03112194E6,-7.288906E5,1.2850987E8,-4.1209725E6,1.8769502E7,7.704618E7,2.5404598E7,-8.1108475E6,-1.074686E6,1.2839765E7,3.2578964E7,8.370321E7,2.05491E6,-1.4128261E6,-6.965202E5,-4.334964E5,1.14587336E5,9.326797E5,1.7515024E6,2.3998348E6,4.272281E6,8.563845E6,5.564501E5],"categories":[],"categories_nodes":[],"categories_segments":[],"categories_sizes":[],"default_left":[0,0,0,0,0,0,0,0,0,0,0,0,0,0,0,0,0,0,0,0,0,0,0],"id":29,"left_children":[1,3,5,7,9,11,-1,13,15,17,19,21,-1,-1,-1,-1,-1,-1,-1,-1,-1,-1,-1],"loss_changes":[5.766356E17,1.6825043E17,1.2825295E17,2.6282636E16,2.8779674E16,3.4351664E15,0E0,5.9674834E15,8.958555E15,3.6505418E15,4.4480657E15,1.7001886E15,0E0,0E0,0E0,0E0,0E0,0E0,0E0,0E0,0E0,0E0,0E0],"parents":[2147483647,0,0,1,1,2,2,3,3,4,4,5,5,7,7,8,8,9,9,10,10,11,11],"right_children":[2,4,6,8,10,12,-1,14,16,18,20,22,-1,-1,-1,-1,-1,-1,-1,-1,-1,-1,-1],"split_conditions":[4.0625725E0,6.236935E-1,2.3096704E0,-4.866111E-1,1.750964E0,4.369262E0,2.5404598E7,-1.1441145E0,-3.521842E-1,1.0901031E0,2.2776198E0,1.4876941E0,2.05491E6,-1.4128261E6,-6.965202E5,-4.334964E5,1.14587336E5,9.326797E5,1.7515024E6,2.3998348E6,4.272281E6,8.563845E6,5.564501E5],"split_indices":[11,11,13,11,11,53,0,0,7,11,8,21,0,0,0,0,0,0,0,0,0,0,0],"split_type":[0,0,0,0,0,0,0,0,0,0,0,0,0,0,0,0,0,0,0,0,0,0,0],"sum_hessian":[2.563E3,2.533E3,3E1,2.161E3,3.72E2,2.7E1,3E0,9.32E2,1.229E3,2.67E2,1.05E2,2.2E1,5E0,1.4E2,7.92E2,4.96E2,7.33E2,1.61E2,1.06E2,6.6E1,3.9E1,2.1E1,1E0],"tree_param":{"num_deleted":"0","num_feature":"105","num_nodes":"23","size_leaf_vector":"1"}},{"base_weights":[1.545484E6,-3.3597766E5,1.7992845E8,-3.3916818E6,2.2607602E7,9.758658E7,3.1449882E7,-6.0510325E6,1.5227214E6,1.688426E7,4.2176996E7,1.0070305E8,4.3179522E5,-1.1467972E6,-4.9755916E5,-1.2548581E5,6.376436E5,9.60063E5,1.89193E6,1.6777424E6,4.634507E6,7.9587844E5,1.0310988E7],"categories":[],"categories_nodes":[],"categories_segments":[],"categories_sizes":[],"default_left":[0,0,0,0,0,0,0,0,0,0,0,0,0,0,0,0,0,0,0,0,0,0,0],"id":30,"left_children":[1,3,5,7,9,11,-1,13,15,17,19,21,-1,-1,-1,-1,-1,-1,-1,-1,-1,-1,-1],"loss_changes":[8.682175E17,1.8014232E17,1.4572666E17,2.9673768E16,3.0264075E16,4.801911E15,0E0,8.2899827E15,1.082527E16,2.6788527E15,2.9936094E15,1.0309124E15,0E0,0E0,0E0,0E0,0E0,0E0,0E0,0E0,0E0,0E0,0E0],"parents":[2147483647,0,0,1,1,2,2,3,3,4,4,5,5,7,7,8,8,9,9,10,10,11,11],"right_children":[2,4,6,8,10,12,-1,14,16,18,20,22,-1,-1,-1,-1,-1,-1,-1,-1,-1,-1,-1],"split_conditions":[4.781239E0,7.04258E-1,6.119012E0,-2.1042116E-1,2.490446E0,5.624752E0,3.1449882E7,-7.5187355E-1,3.9841563E-2,6.236935E-1,5.1211727E-1,6.54243E-1,4.3179522E5,-1.1467972E6,-4.9755916E5,-1.2548581E5,6.376436E5,9.60063E5,1.89193E6,1.6777424E6,4.634507E6,7.9587844E5,1.0310988E7],"split_indices":[12,12,79,11,12,8,0,11,12,11,4,1,0,0,0,0,0,0,0,0,0,0,0],"split_type":[0,0,0,0,0,0,0,0,0,0,0,0,0,0,0,0,0,0,0,0,0,0,0],"sum_hessian":[2.581E3,2.559E3,2.2E1,2.262E3,2.97E2,1.9E1,3E0,1.467E3,7.95E2,2.37E2,6E1,1.8E1,1E0,2.35E2,1.232E3,5.08E2,2.87E2,5.8E1,1.79E2,1.2E1,4.8E1,1E0,1.7E1],"tree_param":{"num_deleted":"0","num_feature":"105","num_nodes":"23","size_leaf_vector":"1"}},{"base_weights":[1.364292E6,-3.516738E5,1.1990621E8,-3.2790585E6,1.6178196E7,6.939835E7,1.864598E8,-7.245654E6,-9.562049E5,1.2543472E7,3.1420738E7,2.5953462E6,7.3866104E7,3.1155552E6,2.1747332E7,-6.4241944E5,-1.1887954E6,-8.969881E5,4.0826297E4,8.407582E5,1.7560774E6,3.209495E6,2.3315566E5,-6.955518E4,3.723456E5,7.5727265E6,4.2459947E5],"categories":[],"categories_nodes":[],"categories_segments":[],"categories_sizes":[],"default_left":[0,0,0,0,0,0,0,0,0,0,0,0,0,0,0,0,0,0,0,0,0,0,0,0,0,0,0],"id":31,"left_children":[1,3,5,7,9,11,13,15,17,19,21,23,25,-1,-1,-1,-1,-1,-1,-1,-1,-1,-1,-1,-1,-1,-1],"loss_changes":[5.2745954E17,1.2414182E17,5.9674757E16,2.0042272E16,1.9414704E16,7.696779E15,2.8737351E16,2.68417E15,1.5107787E16,5.9021054E15,1.01832386E15,3.8936743E13,1.8907992E15,0E0,0E0,0E0,0E0,0E0,0E0,0E0,0E0,0E0,0E0,0E0,0E0,0E0,0E0],"parents":[2147483647,0,0,1,1,2,2,3,3,4,4,5,5,6,6,7,7,8,8,9,9,10,10,11,11,12,12],"right_children":[2,4,6,8,10,12,14,16,18,20,22,24,26,-1,-1,-1,-1,-1,-1,-1,-1,-1,-1,-1,-1,-1,-1],"split_conditions":[4.0547915E0,3.7876362E-1,5.4454355E0,-4.6667048E-1,2.3868282E0,-5.109392E-1,4.365899E0,-3.7386233E-1,-1.1441145E0,1.1140726E0,2.5012484E0,6.54243E-1,7.6912794E0,3.1155552E6,2.1747332E7,-6.4241944E5,-1.1887954E6,-8.969881E5,4.0826297E4,8.407582E5,1.7560774E6,3.209495E6,2.3315566E5,-6.955518E4,3.723456E5,7.5727265E6,4.2459947E5],"split_indices":[12,12,11,12,11,22,2,2,0,12,16,1,7,0,0,0,0,0,0,0,0,0,0,0,0,0,0],"split_type":[0,0,0,0,0,0,0,0,0,0,0,0,0,0,0,0,0,0,0,0,0,0,0,0,0,0,0],"sum_hessian":[2.587E3,2.555E3,3.2E1,2.174E3,3.81E2,2.4E1,8E0,7.99E2,1.375E3,3.15E2,6.6E1,2E0,2.2E1,3E0,5E0,6.89E2,1.1E2,1.96E2,1.179E3,1.8E2,1.35E2,6.4E1,2E0,1E0,1E0,2.1E1,1E0],"tree_param":{"num_deleted":"0","num_feature":"105","num_nodes":"27","size_leaf_vector":"1"}},{"base_weights":[1.6173572E6,-2.5305364E5,1.5896109E8,-3.1231132E6,1.55208E7,6.838019E7,2.3806062E8,-5.609075E6,-6.511923E4,1.2503424E7,3.6211076E7,7.0546635E6,4.175232E5,5.155422E6,2.8688608E7,-4.1764347E5,-9.354448E5,-7.953255E5,1.5031716E5,7.543842E5,1.4820632E6,6.321273E5,3.8256492E6],"categories":[],"categories_nodes":[],"categories_segments":[],"categories_sizes":[],"default_left":[0,0,0,0,0,0,0,0,0,0,0,0,0,0,0,0,0,0,0,0,0,0,0],"id":32,"left_children":[1,3,5,7,9,11,13,15,17,19,21,-1,-1,-1,-1,-1,-1,-1,-1,-1,-1,-1,-1],"loss_changes":[7.515426E17,1.1468973E17,1.33554035E17,1.6289379E16,2.2084017E16,1.4482716E15,5.3536733E16,6.1470044E15,1.2010055E16,3.440329E15,1.6642912E15,0E0,0E0,0E0,0E0,0E0,0E0,0E0,0E0,0E0,0E0,0E0,0E0],"parents":[2147483647,0,0,1,1,2,2,3,3,4,4,5,5,6,6,7,7,8,8,9,9,10,10],"right_children":[2,4,6,8,10,12,14,16,18,20,22,-1,-1,-1,-1,-1,-1,-1,-1,-1,-1,-1,-1],"split_conditions":[4.781239E0,4.3508202E-1,5.4454355E0,-3.703372E-1,3.0488822E0,7.6912794E0,5.247316E0,-3.3358818E-1,-4.464276E-1,6.7860544E-1,2.5501966E-1,7.0546635E6,4.175232E5,5.155422E6,2.8688608E7,-4.1764347E5,-9.354448E5,-7.953255E5,1.5031716E5,7.543842E5,1.4820632E6,6.321273E5,3.8256492E6],"split_indices":[12,12,11,11,11,7,2,12,12,11,10,0,0,0,0,0,0,0,0,0,0,0,0],"split_type":[0,0,0,0,0,0,0,0,0,0,0,0,0,0,0,0,0,0,0,0,0,0,0],"sum_hessian":[2.548E3,2.523E3,2.5E1,2.138E3,3.85E2,1.6E1,9E0,1.177E3,9.61E2,3.43E2,4.2E1,1.5E1,1E0,4E0,5E0,8.59E2,3.18E2,1.56E2,8.05E2,1.16E2,2.27E2,4E0,3.8E1],"tree_param":{"num_deleted":"0","num_feature":"105","num_nodes":"23","size_leaf_vector":"1"}},{"base_weights":[6.262037E5,-4.2943256E5,1.088937E8,-3.2821188E6,1.1308848E7,3.793208E6,1.2595318E8,-6.5333515E6,-1.488973E6,8.2669515E6,2.4626722E7,1.3047076E6,1.3598923E8,-5.274136E5,-9.2647744E5,-9.7201494E5,-5.6446582E4,6.041477E5,1.3523274E6,9.938748E5,2.6228772E6,1.4600152E7,1.8829494E6],"categories":[],"categories_nodes":[],"categories_segments":[],"categories_sizes":[],"default_left":[0,0,0,0,0,0,0,0,0,0,0,0,0,0,0,0,0,0,0,0,0,0,0],"id":33,"left_children":[1,3,5,7,9,-1,11,13,15,17,19,-1,21,-1,-1,-1,-1,-1,-1,-1,-1,-1,-1],"loss_changes":[2.9590483E17,8.6143206E16,6.375896E15,1.2013494E16,1.9359398E16,0E0,1.1525064E16,2.280239E15,1.0169673E16,4.4694847E15,8.379009E14,0E0,5.0229127E15,0E0,0E0,0E0,0E0,0E0,0E0,0E0,0E0,0E0,0E0],"parents":[2147483647,0,0,1,1,2,2,3,3,4,4,6,6,7,7,8,8,9,9,10,10,12,12],"right_children":[2,4,6,8,10,-1,12,14,16,18,20,-1,22,-1,-1,-1,-1,-1,-1,-1,-1,-1,-1],"split_conditions":[4.781239E0,1.802183E-1,3.0488822E0,-4.8523772E-1,2.0989826E0,3.793208E6,1.3039927E0,-5.453075E-1,-7.149629E-1,1.1783572E0,1.1918797E0,1.3047076E6,2.986467E0,-5.274136E5,-9.2647744E5,-9.7201494E5,-5.6446582E4,6.041477E5,1.3523274E6,9.938748E5,2.6228772E6,1.4600152E7,1.8829494E6],"split_indices":[12,12,11,12,12,0,4,2,11,11,2,0,23,0,0,0,0,0,0,0,0,0,0],"split_type":[0,0,0,0,0,0,0,0,0,0,0,0,0,0,0,0,0,0,0,0,0,0,0],"sum_hessian":[2.582E3,2.562E3,2E1,2.064E3,4.98E2,7E0,1.3E1,7.29E2,1.335E3,4.12E2,8.6E1,2E0,1.1E1,5.09E2,2.2E2,1.3E2,1.205E3,2.97E2,1.15E2,1.2E1,7.4E1,9E0,2E0],"tree_param":{"num_deleted":"0","num_feature":"105","num_nodes":"23","size_leaf_vector":"1"}},{"base_weights":[1.5528392E6,1.5258236E5,2.2493365E8,-1.2272816E6,3.5224556E7,3.7973058E6,3.181235E7,-3.113979E6,6.946723E6,2.2838774E7,5.7910616E7,-7.185844E5,-1.9842205E5,4.2546266E5,1.1076069E6,5.1539247E5,2.499029E6,2.5691336E5,6.1284315E6],"categories":[],"categories_nodes":[],"categories_segments":[],"categories_sizes":[],"default_left":[0,0,0,0,0,0,0,0,0,0,0,0,0,0,0,0,0,0,0],"id":34,"left_children":[1,3,5,7,9,-1,-1,11,13,15,17,-1,-1,-1,-1,-1,-1,-1,-1],"loss_changes":[8.033873E17,1.2400942E17,2.1836459E17,3.81385E16,2.0642472E16,0E0,0E0,9.161359E15,4.922479E15,2.0575041E15,5.0006304E15,0E0,0E0,0E0,0E0,0E0,0E0,0E0,0E0],"parents":[2147483647,0,0,1,1,2,2,3,3,4,4,7,7,8,8,9,9,10,10],"right_children":[2,4,6,8,10,-1,-1,12,14,16,18,-1,-1,-1,-1,-1,-1,-1,-1],"split_conditions":[5.4454355E0,2.2191687E0,5.247316E0,1.09792106E-1,4.0547915E0,3.7973058E6,3.181235E7,-5.445998E-1,8.661202E-1,1.3024529E0,6.54243E-1,-7.185844E5,-1.9842205E5,4.2546266E5,1.1076069E6,5.1539247E5,2.499029E6,2.5691336E5,6.1284315E6],"split_indices":[11,12,2,12,12,0,0,12,12,8,1,0,0,0,0,0,0,0,0],"split_type":[0,0,0,0,0,0,0,0,0,0,0,0,0,0,0,0,0,0,0],"sum_hessian":[2.564E3,2.553E3,1.1E1,2.461E3,9.2E1,6E0,5E0,2.002E3,4.59E2,6.6E1,2.6E1,4.29E2,1.573E3,2.84E2,1.75E2,9E0,5.7E1,2E0,2.4E1],"tree_param":{"num_deleted":"0","num_feature":"105","num_nodes":"19","size_leaf_vector":"1"}},{"base_weights":[1.0774024E6,1.2891978E4,1.7279221E8,-1.6344478E6,1.8217612E7,3.726043E7,2.5750558E7,-3.444055E6,2.6531862E6,1.3736222E7,4.0851908E7,3.903178E6,2.9626025E5,-9.558607E5,-2.6424303E5,1.6234064E5,1.1236302E6,1.1913908E6,2.4695885E6,2.4957348E5,4.2923965E6],"categories":[],"categories_nodes":[],"categories_segments":[],"categories_sizes":[],"default_left":[0,0,0,0,0,0,0,0,0,0,0,0,0,0,0,0,0,0,0,0,0],"id":35,"left_children":[1,3,5,7,9,11,-1,13,15,17,19,-1,-1,-1,-1,-1,-1,-1,-1,-1,-1],"loss_changes":[4.747002E17,7.770136E16,1.357278E17,1.8480914E16,1.9002361E16,1.5085965E14,0E0,8.0740446E15,6.1666094E15,2.2636346E15,2.0870792E15,0E0,0E0,0E0,0E0,0E0,0E0,0E0,0E0,0E0,0E0],"parents":[2147483647,0,0,1,1,2,2,3,3,4,4,5,5,7,7,8,8,9,9,10,10],"right_children":[2,4,6,8,10,12,-1,14,16,18,20,-1,-1,-1,-1,-1,-1,-1,-1,-1,-1],"split_conditions":[5.4454355E0,1.1140726E0,5.247316E0,-8.118058E-2,3.7046754E0,1.5526545E0,2.5750558E7,-1.1441145E0,1.2280227E0,3.607508E0,6.54243E-1,3.903178E6,2.9626025E5,-9.558607E5,-2.6424303E5,1.6234064E5,1.1236302E6,1.1913908E6,2.4695885E6,2.4957348E5,4.2923965E6],"split_indices":[11,12,2,11,12,0,0,0,11,11,1,0,0,0,0,0,0,0,0,0,0],"split_type":[0,0,0,0,0,0,0,0,0,0,0,0,0,0,0,0,0,0,0,0,0],"sum_hessian":[2.592E3,2.581E3,1.1E1,2.371E3,2.1E2,7E0,4E0,1.668E3,7.03E2,1.82E2,2.8E1,6E0,1E0,1.87E2,1.481E3,6.33E2,7E1,1.65E2,1.7E1,2E0,2.6E1],"tree_param":{"num_deleted":"0","num_feature":"105","num_nodes":"21","size_leaf_vector":"1"}},{"base_weights":[1.606365E6,1.6864075E5,1.9368734E8,-1.4704382E6,1.7958256E7,6.2446224E7,3.0481846E7,-3.2376655E6,2.442577E6,1.355243E7,4.1036504E7,6.598464E7,2.1514025E5,-9.616955E5,-2.6211986E5,1.8649764E5,1.2158625E6,1.1712019E6,2.4209292E6,-1.6245929E4,4.381018E6,4.671616E5,6.890425E6],"categories":[],"categories_nodes":[],"categories_segments":[],"categories_sizes":[],"default_left":[0,0,0,0,0,0,0,0,0,0,0,0,0,0,0,0,0,0,0,0,0,0,0],"id":36,"left_children":[1,3,5,7,9,11,-1,13,15,17,19,21,-1,-1,-1,-1,-1,-1,-1,-1,-1,-1,-1],"loss_changes":[7.062526E17,7.431147E16,1.8194066E17,1.6179587E16,1.9080212E16,2.490424E15,0E0,6.2054804E15,3.9777665E15,2.2695466E15,3.6923104E15,8.966689E14,0E0,0E0,0E0,0E0,0E0,0E0,0E0,0E0,0E0,0E0,0E0],"parents":[2147483647,0,0,1,1,2,2,3,3,4,4,5,5,7,7,8,8,9,9,10,10,11,11],"right_children":[2,4,6,8,10,12,-1,14,16,18,20,22,-1,-1,-1,-1,-1,-1,-1,-1,-1,-1,-1],"split_conditions":[5.38905E0,1.1140726E0,6.119012E0,-2.2939187E-1,3.7046754E0,2.6733706E0,3.0481846E7,-1.293935E0,1.4224784E0,3.607508E0,1.6003745E0,6.54243E-1,2.1514025E5,-9.616955E5,-2.6211986E5,1.8649764E5,1.2158625E6,1.1712019E6,2.4209292E6,-1.6245929E4,4.381018E6,4.671616E5,6.890425E6],"split_indices":[12,12,79,12,12,22,0,0,11,11,2,1,0,0,0,0,0,0,0,0,0,0,0],"split_type":[0,0,0,0,0,0,0,0,0,0,0,0,0,0,0,0,0,0,0,0,0,0,0],"sum_hessian":[2.553E3,2.539E3,1.4E1,2.329E3,2.1E2,1E1,4E0,1.605E3,7.24E2,1.83E2,2.7E1,9E0,1E0,1.35E2,1.47E3,6.89E2,3.5E1,1.65E2,1.8E1,2E0,2.5E1,1E0,8E0],"tree_param":{"num_deleted":"0","num_feature":"105","num_nodes":"23","size_leaf_vector":"1"}},{"base_weights":[1.4066629E6,6.967577E4,1.811779E8,-8.710976E5,2.654635E7,4.6295148E7,2.7942484E7,-2.537229E6,5.332911E6,1.8182902E7,4.3985656E7,4.8879915E6,2.1155412E5,-6.581212E5,-1.6261672E5,3.966176E5,1.0887679E6,2.3247498E6,8.852808E5,1.13897125E5,4.7463855E6],"categories":[],"categories_nodes":[],"categories_segments":[],"categories_sizes":[],"default_left":[0,0,0,0,0,0,0,0,0,0,0,0,0,0,0,0,0,0,0,0,0],"id":37,"left_children":[1,3,5,7,9,11,-1,13,15,17,19,-1,-1,-1,-1,-1,-1,-1,-1,-1,-1],"loss_changes":[6.1860256E17,6.388151E16,1.8710444E17,2.5671644E16,8.836105E15,1.0816725E15,0E0,7.153017E15,3.777426E15,2.1841884E15,3.4554214E15,0E0,0E0,0E0,0E0,0E0,0E0,0E0,0E0,0E0,0E0],"parents":[2147483647,0,0,1,1,2,2,3,3,4,4,5,5,7,7,8,8,9,9,10,10],"right_children":[2,4,6,8,10,12,-1,14,16,18,20,-1,-1,-1,-1,-1,-1,-1,-1,-1,-1],"split_conditions":[5.38905E0,2.352771E0,9.797008E-1,4.619748E-2,4.0547915E0,5.624752E0,2.7942484E7,-5.559228E-1,1.4224784E0,1.3600878E0,1.2822709E0,4.8879915E6,2.1155412E5,-6.581212E5,-1.6261672E5,3.966176E5,1.0887679E6,2.3247498E6,8.852808E5,1.13897125E5,4.7463855E6],"split_indices":[12,12,16,12,12,8,0,12,11,16,1,0,0,0,0,0,0,0,0,0,0],"split_type":[0,0,0,0,0,0,0,0,0,0,0,0,0,0,0,0,0,0,0,0,0],"sum_hessian":[2.569E3,2.555E3,1.4E1,2.472E3,8.3E1,9E0,5E0,1.951E3,5.21E2,6.3E1,2E1,8E0,1E0,3.53E2,1.598E3,4.25E2,9.6E1,3.6E1,2.7E1,2E0,1.8E1],"tree_param":{"num_deleted":"0","num_feature":"105","num_nodes":"21","size_leaf_vector":"1"}},{"base_weights":[1.1817422E6,1.7298144E5,1.5220762E8,-7.3337325E5,2.499749E7,5.063988E7,2.3482142E7,-1.9271565E6,6.098673E6,1.6529621E7,4.0796052E7,5.7754856E7,9.2068644E5,-4.1747097E5,-4.424159E4,5.1220525E5,1.306934E6,1.8531204E6,3.4137344E5,4.6752555E6,6.698067E5,3.7790934E5,6.126289E6],"categories":[],"categories_nodes":[],"categories_segments":[],"categories_sizes":[],"default_left":[0,0,0,0,0,0,0,0,0,0,0,0,0,0,0,0,0,0,0,0,0,0,0],"id":38,"left_children":[1,3,5,7,9,11,-1,13,15,17,19,21,-1,-1,-1,-1,-1,-1,-1,-1,-1,-1,-1],"loss_changes":[3.9033883E17,5.7488674E16,8.318857E16,2.0171417E16,8.668498E15,1.4684257E15,0E0,7.0085454E15,2.1705229E15,1.4426172E15,4.1211757E15,9.252433E14,0E0,0E0,0E0,0E0,0E0,0E0,0E0,0E0,0E0,0E0,0E0],"parents":[2147483647,0,0,1,1,2,2,3,3,4,4,5,5,7,7,8,8,9,9,10,10,11,11],"right_children":[2,4,6,8,10,12,-1,14,16,18,20,22,-1,-1,-1,-1,-1,-1,-1,-1,-1,-1,-1],"split_conditions":[5.38905E0,2.352771E0,6.119012E0,4.9946102E-1,4.0547915E0,9.123006E0,2.3482142E7,-4.6667048E-1,2.241194E0,2.9509935E0,1.702475E0,6.54243E-1,9.2068644E5,-4.1747097E5,-4.424159E4,5.1220525E5,1.306934E6,1.8531204E6,3.4137344E5,4.6752555E6,6.698067E5,3.7790934E5,6.126289E6],"split_indices":[12,12,79,11,12,3,0,12,11,3,0,1,0,0,0,0,0,0,0,0,0,0,0],"split_type":[0,0,0,0,0,0,0,0,0,0,0,0,0,0,0,0,0,0,0,0,0,0,0],"sum_hessian":[2.558E3,2.546E3,1.2E1,2.461E3,8.5E1,9E0,3E0,2.098E3,3.63E2,6.2E1,2.3E1,6E0,3E0,8.31E2,1.267E3,3.26E2,3.7E1,5.2E1,1E1,1.8E1,5E0,1E0,5E0],"tree_param":{"num_deleted":"0","num_feature":"105","num_nodes":"23","size_leaf_vector":"1"}},{"base_weights":[9.1654106E5,1.8784416E5,1.1366923E8,-1.1527181E6,1.3595242E7,3.1399424E7,1.6021274E8,-2.3251952E6,2.4209665E6,8.953695E6,2.7212264E7,3.3127342E6,2.0653866E5,1.2050689E6,1.7120132E7,-7.0343906E5,-1.5596111E5,1.4092755E5,4.8480016E5,9.355836E5,9.589782E4,1.9244373E5,2.9006952E6],"categories":[],"categories_nodes":[],"categories_segments":[],"categories_sizes":[],"default_left":[0,0,0,0,0,0,0,0,0,0,0,0,0,0,0,0,0,0,0,0,0,0,0],"id":39,"left_children":[1,3,5,7,9,11,13,15,17,19,21,-1,-1,-1,-1,-1,-1,-1,-1,-1,-1,-1,-1],"loss_changes":[2.0472444E17,4.468847E16,3.611308E16,9.50188E15,1.3065862E16,2.6613765E14,4.3373329E15,6.0921566E15,1.3433235E15,5.209806E14,2.2169977E15,0E0,0E0,0E0,0E0,0E0,0E0,0E0,0E0,0E0,0E0,0E0,0E0],"parents":[2147483647,0,0,1,1,2,2,3,3,4,4,5,5,6,6,7,7,8,8,9,9,10,10],"right_children":[2,4,6,8,10,12,14,16,18,20,22,-1,-1,-1,-1,-1,-1,-1,-1,-1,-1,-1,-1],"split_conditions":[5.4454355E0,1.1783572E0,4.7864122E0,6.4959293E-3,3.0488822E0,4.009676E0,2.025671E0,-7.5187355E-1,7.762392E-1,2.3013186E0,2.5501966E-1,3.3127342E6,2.0653866E5,1.2050689E6,1.7120132E7,-7.0343906E5,-1.5596111E5,1.4092755E5,4.8480016E5,9.355836E5,9.589782E4,1.9244373E5,2.9006952E6],"split_indices":[11,11,9,11,11,9,1,11,10,15,10,0,0,0,0,0,0,0,0,0,0,0,0],"split_type":[0,0,0,0,0,0,0,0,0,0,0,0,0,0,0,0,0,0,0,0,0,0,0],"sum_hessian":[2.488E3,2.477E3,1.1E1,2.256E3,2.21E2,7E0,4E0,1.7E3,5.56E2,1.71E2,5E1,6E0,1E0,1E0,3E0,2.32E2,1.468E3,3.98E2,1.58E2,1.62E2,9E0,4E0,4.6E1],"tree_param":{"num_deleted":"0","num_feature":"105","num_nodes":"23","size_leaf_vector":"1"}},{"base_weights":[1.0232415E6,2.5349375E4,9.0151864E7,-1.5362908E6,8.193614E6,5.1947012E7,1.6766143E7,-6.013537E6,-8.283766E5,6.4081675E6,2.6050852E7,5.4817036E7,5.0019106E5,-3.593878E5,-9.80005E5,-3.215226E5,5.6891152E4,4.2827306E5,8.715917E5,4.408928E5,3.0674028E6,5.6330655E6,3.3339625E5],"categories":[],"categories_nodes":[],"categories_segments":[],"categories_sizes":[],"default_left":[0,0,0,0,0,0,0,0,0,0,0,0,0,0,0,0,0,0,0,0,0,0,0],"id":40,"left_children":[1,3,5,7,9,11,-1,13,15,17,19,21,-1,-1,-1,-1,-1,-1,-1,-1,-1,-1,-1],"loss_changes":[2.2491974E17,3.2029199E16,3.9367206E16,6.6564117E15,1.2014211E16,2.1321248E15,0E0,2.453413E15,6.099068E15,1.6429173E15,2.8257062E15,9.3120045E14,0E0,0E0,0E0,0E0,0E0,0E0,0E0,0E0,0E0,0E0,0E0],"parents":[2147483647,0,0,1,1,2,2,3,3,4,4,5,5,7,7,8,8,9,9,10,10,11,11],"right_children":[2,4,6,8,10,12,-1,14,16,18,20,22,-1,-1,-1,-1,-1,-1,-1,-1,-1,-1,-1],"split_conditions":[4.781239E0,6.236935E-1,6.119012E0,-7.3406607E-1,3.607508E0,7.6912794E0,1.6766143E7,-3.5612804E-1,-4.5230827E-1,9.892665E-1,1.5693219E0,3.9836717E0,5.0019106E5,-3.593878E5,-9.80005E5,-3.215226E5,5.6891152E4,4.2827306E5,8.715917E5,4.408928E5,3.0674028E6,5.6330655E6,3.3339625E5],"split_indices":[12,11,79,11,11,7,0,12,12,12,8,5,0,0,0,0,0,0,0,0,0,0,0],"split_type":[0,0,0,0,0,0,0,0,0,0,0,0,0,0,0,0,0,0,0,0,0,0,0],"sum_hessian":[2.524E3,2.501E3,2.3E1,2.103E3,3.98E2,2.1E1,2E0,2.82E2,1.821E3,3.68E2,3E1,1.9E1,2E0,1.78E2,1.04E2,6.7E2,1.151E3,1.99E2,1.69E2,7E0,2.3E1,1.8E1,1E0],"tree_param":{"num_deleted":"0","num_feature":"105","num_nodes":"23","size_leaf_vector":"1"}},{"base_weights":[1.2959288E6,1.5133794E5,1.620689E8,-9.453536E5,1.1824111E7,4.1046736E7,2.3836326E8,-1.9336565E6,2.1361652E6,8.829469E6,3.2240414E7,1.5197331E5,4.370743E6,1.7239594E6,2.5335502E7,-7.1003775E5,-1.24849875E5,1.4444398E5,7.013925E5,7.747853E5,1.8003094E6,1.0274479E5,3.6088312E6],"categories":[],"categories_nodes":[],"categories_segments":[],"categories_sizes":[],"default_left":[0,0,0,0,0,0,0,0,0,0,0,0,0,0,0,0,0,0,0,0,0,0,0],"id":41,"left_children":[1,3,5,7,9,11,13,15,17,19,21,-1,-1,-1,-1,-1,-1,-1,-1,-1,-1,-1,-1],"loss_changes":[4.6857444E17,3.249472E16,1.1727934E17,7.089198E15,1.1905087E16,1.0350828E15,1.1311638E16,6.1861096E15,1.8590685E15,1.2572744E15,2.9373174E15,0E0,0E0,0E0,0E0,0E0,0E0,0E0,0E0,0E0,0E0,0E0,0E0],"parents":[2147483647,0,0,1,1,2,2,3,3,4,4,5,5,6,6,7,7,8,8,9,9,10,10],"right_children":[2,4,6,8,10,12,14,16,18,20,22,-1,-1,-1,-1,-1,-1,-1,-1,-1,-1,-1,-1],"split_conditions":[5.4454355E0,1.1140726E0,2.3637147E0,3.388167E-2,4.0547915E0,-7.1254677E-1,-1.4437554E0,-1.1441145E0,1.2280227E0,4.0625725E0,1.6003745E0,1.5197331E5,4.370743E6,1.7239594E6,2.5335502E7,-7.1003775E5,-1.24849875E5,1.4444398E5,7.013925E5,7.747853E5,1.8003094E6,1.0274479E5,3.6088312E6],"split_indices":[11,12,13,11,12,21,0,0,11,11,2,0,0,0,0,0,0,0,0,0,0,0,0],"split_type":[0,0,0,0,0,0,0,0,0,0,0,0,0,0,0,0,0,0,0,0,0,0,0],"sum_hessian":[2.542E3,2.529E3,1.3E1,2.316E3,2.13E2,8E0,5E0,1.755E3,5.61E2,1.92E2,2.1E1,1E0,7E0,1E0,4E0,2E2,1.555E3,4.97E2,6.4E1,1.8E2,1.2E1,3E0,1.8E1],"tree_param":{"num_deleted":"0","num_feature":"105","num_nodes":"23","size_leaf_vector":"1"}},{"base_weights":[8.954289E5,3.3864914E4,1.29511896E8,-5.4873906E5,1.5585017E7,2.8611254E7,1.8583672E7,-1.6121818E6,3.4454942E6,2.9742308E6,1.9573088E7,1.4943998E5,3.0397148E6,-5.247427E5,-9.5074914E4,-5.160811E5,3.9527462E5,5.9847856E5,-4.3988016E5,2.484459E6,1.1290242E6],"categories":[],"categories_nodes":[],"categories_segments":[],"categories_sizes":[],"default_left":[0,0,0,0,0,0,0,0,0,0,0,0,0,0,0,0,0,0,0,0,0],"id":42,"left_children":[1,3,5,7,9,11,-1,13,15,17,19,-1,-1,-1,-1,-1,-1,-1,-1,-1,-1],"loss_changes":[2.8310098E17,2.3082754E16,7.002946E16,1.0459973E16,4.3358554E15,3.5400624E14,0E0,4.646939E15,2.36336E15,7.531431E14,1.6102412E15,0E0,0E0,0E0,0E0,0E0,0E0,0E0,0E0,0E0,0E0],"parents":[2147483647,0,0,1,1,2,2,3,3,4,4,5,5,7,7,8,8,9,9,10,10],"right_children":[2,4,6,8,10,12,-1,14,16,18,20,-1,-1,-1,-1,-1,-1,-1,-1,-1,-1],"split_conditions":[5.4454355E0,2.2191687E0,5.247316E0,5.764708E-2,2.0100203E0,-7.1254677E-1,1.8583672E7,-7.739191E-1,-3.0552334E-1,1.4388726E0,1.1254358E-1,1.4943998E5,3.0397148E6,-5.247427E5,-9.5074914E4,-5.160811E5,3.9527462E5,5.9847856E5,-4.3988016E5,2.484459E6,1.1290242E6],"split_indices":[11,12,2,12,2,21,0,15,11,5,21,0,0,0,0,0,0,0,0,0,0],"split_type":[0,0,0,0,0,0,0,0,0,0,0,0,0,0,0,0,0,0,0,0,0],"sum_hessian":[2.55E3,2.538E3,1.2E1,2.451E3,8.7E1,7E0,5E0,1.938E3,5.13E2,2.3E1,6.4E1,1E0,6E0,2.93E2,1.645E3,2.6E1,4.87E2,1.7E1,6E0,3.3E1,3.1E1],"tree_param":{"num_deleted":"0","num_feature":"105","num_nodes":"21","size_leaf_vector":"1"}},{"base_weights":[1.113744E6,5.35478E4,1.5105773E8,-2.7349006E5,2.9570832E7,4.389433E7,2.3383542E7,-1.3095202E6,4.810834E6,2.0404835E6,3.3734124E7,2.5044692E5,4.6114904E7,-4.850835E5,-7.140446E4,3.5847856E5,1.0098258E6,4.3891922E5,-2.7915306E5,-2.5435625E5,3.586436E6,4.842094E6,3.0737494E5],"categories":[],"categories_nodes":[],"categories_segments":[],"categories_sizes":[],"default_left":[0,0,0,0,0,0,0,0,0,0,0,0,0,0,0,0,0,0,0,0,0,0,0],"id":43,"left_children":[1,3,5,7,9,11,-1,13,15,17,19,-1,21,-1,-1,-1,-1,-1,-1,-1,-1,-1,-1],"loss_changes":[4.075588E17,2.4665926E16,1.0835306E17,1.3347774E16,2.8651018E15,7.092623E14,0E0,4.4195267E15,2.6000497E15,1.6340374E14,2.3108384E15,0E0,5.4613945E14,0E0,0E0,0E0,0E0,0E0,0E0,0E0,0E0,0E0,0E0],"parents":[2147483647,0,0,1,1,2,2,3,3,4,4,5,5,7,7,8,8,9,9,10,10,12,12],"right_children":[2,4,6,8,10,12,-1,14,16,18,20,-1,22,-1,-1,-1,-1,-1,-1,-1,-1,-1,-1],"split_conditions":[5.38905E0,4.0547915E0,6.119012E0,4.9946102E-1,2.5712228E0,6.54243E-1,2.3383542E7,-8.3526E-1,2.241194E0,8.03552E-1,6.54243E-1,2.5044692E5,9.123006E0,-4.850835E5,-7.140446E4,3.5847856E5,1.0098258E6,4.3891922E5,-2.7915306E5,-2.5435625E5,3.586436E6,4.842094E6,3.0737494E5],"split_indices":[12,12,79,11,8,1,0,20,11,0,1,0,3,0,0,0,0,0,0,0,0,0,0],"split_type":[0,0,0,0,0,0,0,0,0,0,0,0,0,0,0,0,0,0,0,0,0,0,0],"sum_hessian":[2.559E3,2.546E3,1.3E1,2.523E3,2.3E1,9E0,4E0,2.099E3,4.24E2,4E0,1.9E1,1E0,8E0,2.97E2,1.802E3,3.51E2,7.3E1,3E0,1E0,1E0,1.8E1,7E0,1E0],"tree_param":{"num_deleted":"0","num_feature":"105","num_nodes":"23","size_leaf_vector":"1"}},{"base_weights":[5.979919E5,2.7618328E3,9.363902E7,-8.122791E5,7.82297E6,2.448481E7,1.3382296E7,-3.066354E6,1.1501856E5,5.4491655E6,2.0319882E7,2.6427545E6,5.1912516E4,-1.8421953E5,-6.2030994E5,2.836127E5,-1.1062249E5,7.564587E5,2.7807516E5,2.3451125E6,2.5438253E5],"categories":[],"categories_nodes":[],"categories_segments":[],"categories_sizes":[],"default_left":[0,0,0,0,0,0,0,0,0,0,0,0,0,0,0,0,0,0,0,0,0],"id":44,"left_children":[1,3,5,7,9,11,-1,13,15,17,19,-1,-1,-1,-1,-1,-1,-1,-1,-1,-1],"loss_changes":[1.3939223E17,1.600449E16,2.807907E16,4.7548745E15,6.4770254E15,4.9011107E14,0E0,2.4887E15,5.385874E15,1.05765663E15,1.7055218E15,0E0,0E0,0E0,0E0,0E0,0E0,0E0,0E0,0E0,0E0],"parents":[2147483647,0,0,1,1,2,2,3,3,4,4,5,5,7,7,8,8,9,9,10,10],"right_children":[2,4,6,8,10,12,-1,14,16,18,20,-1,-1,-1,-1,-1,-1,-1,-1,-1,-1],"split_conditions":[5.38905E0,9.892665E-1,9.797008E-1,-5.02871E-1,3.7046754E0,3.531104E0,1.3382296E7,-5.326631E-1,-3.3358818E-1,1.2711702E-1,1.5526545E0,2.6427545E6,5.1912516E4,-1.8421953E5,-6.2030994E5,2.836127E5,-1.1062249E5,7.564587E5,2.7807516E5,2.3451125E6,2.5438253E5],"split_indices":[12,12,16,12,12,8,0,2,12,19,0,0,0,0,0,0,0,0,0,0,0],"split_type":[0,0,0,0,0,0,0,0,0,0,0,0,0,0,0,0,0,0,0,0,0],"sum_hessian":[2.512E3,2.501E3,1.1E1,2.269E3,2.32E2,7E0,4E0,6.58E2,1.611E3,2.01E2,3.1E1,6E0,1E0,4.79E2,1.79E2,4.97E2,1.114E3,1.07E2,9.4E1,2.5E1,6E0],"tree_param":{"num_deleted":"0","num_feature":"105","num_nodes":"21","size_leaf_vector":"1"}},{"base_weights":[8.890604E5,1.1369662E5,1.09666856E8,-2.2299788E5,2.110922E7,2.544707E7,1.6431915E8,-1.1747748E6,3.3700895E6,2.620239E7,2.29248E6,2.694024E6,1.2548371E5,9.1149444E5,1.7650022E7,-5.684847E5,-7.619868E4,-6.4839194E5,3.9079212E5,3.0804985E6,6.079541E5,-1.949248E5,4.3353366E5],"categories":[],"categories_nodes":[],"categories_segments":[],"categories_sizes":[],"default_left":[0,0,0,0,0,0,0,0,0,0,0,0,0,0,0,0,0,0,0,0,0,0,0],"id":45,"left_children":[1,3,5,7,9,11,13,15,17,19,21,-1,-1,-1,-1,-1,-1,-1,-1,-1,-1,-1,-1],"loss_changes":[2.1450462E17,1.7915372E16,6.1943272E16,8.5556597E15,3.5331324E15,3.0057255E14,1.086156E16,3.658929E15,2.903787E15,1.9347346E15,1.6356662E14,0E0,0E0,0E0,0E0,0E0,0E0,0E0,0E0,0E0,0E0,0E0,0E0],"parents":[2147483647,0,0,1,1,2,2,3,3,4,4,5,5,6,6,7,7,8,8,9,9,10,10],"right_children":[2,4,6,8,10,12,14,16,18,20,22,-1,-1,-1,-1,-1,-1,-1,-1,-1,-1,-1,-1],"split_conditions":[5.4454355E0,3.7046754E0,4.7864122E0,1.09792106E-1,1.8970755E0,1.4028339E0,2.025671E0,-7.670745E-1,-3.2073107E-1,6.428019E-1,3.7090588E0,2.694024E6,1.2548371E5,9.1149444E5,1.7650022E7,-5.684847E5,-7.619868E4,-6.4839194E5,3.9079212E5,3.0804985E6,6.079541E5,-1.949248E5,4.3353366E5],"split_indices":[11,12,9,12,20,0,1,11,11,17,2,0,0,0,0,0,0,0,0,0,0,0,0],"split_type":[0,0,0,0,0,0,0,0,0,0,0,0,0,0,0,0,0,0,0,0,0,0,0],"sum_hessian":[2.539E3,2.526E3,1.3E1,2.491E3,3.5E1,8E0,5E0,1.972E3,5.19E2,2.6E1,9E0,7E0,1E0,1E0,4E0,1.6E2,1.812E3,2.4E1,4.95E2,1.9E1,7E0,3E0,6E0],"tree_param":{"num_deleted":"0","num_feature":"105","num_nodes":"23","size_leaf_vector":"1"}},{"base_weights":[1.0682679E6,1.5963255E5,1.2974727E8,-1.2668906E5,1.96621E7,2.9721856E7,1.9490667E8,-1.0073702E6,3.012477E6,2.5010612E7,6.0136695E6,3.3289298E7,2.8859794E5,1.0368597E6,2.0965058E7,-5.7690144E5,-6.1973496E4,2.7024675E5,1.5888549E6,2.9886722E5,2.8493678E6,-2.8887253E5,7.472796E5,2.1330558E5,3.5338392E6],"categories":[],"categories_nodes":[],"categories_segments":[],"categories_sizes":[],"default_left":[0,0,0,0,0,0,0,0,0,0,0,0,0,0,0,0,0,0,0,0,0,0,0,0,0],"id":46,"left_children":[1,3,5,7,9,11,13,15,17,19,21,23,-1,-1,-1,-1,-1,-1,-1,-1,-1,-1,-1,-1,-1],"loss_changes":[3.0015293E17,1.4279517E16,8.835181E16,6.9902697E15,1.9489273E15,7.6419924E14,1.6339155E16,3.625695E15,1.9967142E15,1.4918064E15,3.287594E14,3.2536954E14,0E0,0E0,0E0,0E0,0E0,0E0,0E0,0E0,0E0,0E0,0E0,0E0,0E0],"parents":[2147483647,0,0,1,1,2,2,3,3,4,4,5,5,6,6,7,7,8,8,9,9,10,10,11,11],"right_children":[2,4,6,8,10,12,14,16,18,20,22,24,-1,-1,-1,-1,-1,-1,-1,-1,-1,-1,-1,-1,-1],"split_conditions":[5.4454355E0,3.7046754E0,2.3637147E0,8.3365105E-2,9.585818E-1,1.1585813E0,-1.4437554E0,-1.293935E0,4.0625725E0,1.2822709E0,-7.739191E-1,8.03552E-1,2.8859794E5,1.0368597E6,2.0965058E7,-5.7690144E5,-6.1973496E4,2.7024675E5,1.5888549E6,2.9886722E5,2.8493678E6,-2.8887253E5,7.472796E5,2.1330558E5,3.5338392E6],"split_indices":[11,12,13,12,17,14,0,0,11,1,15,0,0,0,0,0,0,0,0,0,0,0,0,0,0],"split_type":[0,0,0,0,0,0,0,0,0,0,0,0,0,0,0,0,0,0,0,0,0,0,0,0,0],"sum_hessian":[2.563E3,2.55E3,1.3E1,2.518E3,3.2E1,8E0,5E0,1.969E3,5.49E2,2E1,1.2E1,6E0,2E0,1E0,4E0,1.43E2,1.826E3,5.42E2,7E0,4E0,1.6E1,1E0,1.1E1,1E0,5E0],"tree_param":{"num_deleted":"0","num_feature":"105","num_nodes":"25","size_leaf_vector":"1"}},{"base_weights":[8.0525656E5,-1.5988013E4,1.3976517E8,-3.7874272E5,1.8486134E7,1.9057516E7,1.9059024E7,-3.1354742E6,3.783932E5,6.5256175E6,2.382053E7,2.038447E6,1.1858239E5,-1.8840125E5,-6.567941E5,-1.8485711E5,1.2681508E5,-1.0067747E5,7.5305506E5,4.4556152E4,2.8066718E6],"categories":[],"categories_nodes":[],"categories_segments":[],"categories_sizes":[],"default_left":[0,0,0,0,0,0,0,0,0,0,0,0,0,0,0,0,0,0,0,0,0],"id":47,"left_children":[1,3,5,7,9,11,-1,13,15,17,19,-1,-1,-1,-1,-1,-1,-1,-1,-1,-1],"loss_changes":[2.9135972E17,1.7102941E16,7.386375E16,5.2218964E15,2.3490883E15,1.1628678E14,0E0,2.2534582E15,3.9052865E15,2.0443796E14,3.113615E15,0E0,0E0,0E0,0E0,0E0,0E0,0E0,0E0,0E0,0E0],"parents":[2147483647,0,0,1,1,2,2,3,3,4,4,5,5,7,7,8,8,9,9,10,10],"right_children":[2,4,6,8,10,12,-1,14,16,18,20,-1,-1,-1,-1,-1,-1,-1,-1,-1,-1],"split_conditions":[5.4454355E0,3.3218918E0,4.7864122E0,-5.295343E-1,6.537315E-1,1.4028339E0,1.9059024E7,-5.632471E-1,-4.760539E-1,-1.1290043E-1,1.2822709E0,2.038447E6,1.1858239E5,-1.8840125E5,-6.567941E5,-1.8485711E5,1.2681508E5,-1.0067747E5,7.5305506E5,4.4556152E4,2.8066718E6],"split_indices":[11,12,9,12,0,0,0,9,11,22,1,0,0,0,0,0,0,0,0,0,0],"split_type":[0,0,0,0,0,0,0,0,0,0,0,0,0,0,0,0,0,0,0,0,0],"sum_hessian":[2.548E3,2.538E3,1E1,2.494E3,4.4E1,5E0,5E0,5.34E2,1.96E3,1.7E1,2.7E1,4E0,1E0,3.97E2,1.37E2,5.58E2,1.402E3,2E0,1.5E1,5E0,2.2E1],"tree_param":{"num_deleted":"0","num_feature":"105","num_nodes":"21","size_leaf_vector":"1"}},{"base_weights":[8.187186E5,5.385778E3,1.17214184E8,-7.1546044E5,5.4981445E6,2.7364032E7,1.918621E7,-2.916516E6,-4.7729418E4,4.550542E6,2.089604E7,7.194513E5,3.1505024E7,-2.2525938E5,-7.858228E5,2.025908E5,-1.2992354E5,6.629477E5,2.4030798E5,2.2871588E6,2.0191998E5,-1.8318918E4,1.0225492E5,1.4516052E5,3.3577332E6],"categories":[],"categories_nodes":[],"categories_segments":[],"categories_sizes":[],"default_left":[0,0,0,0,0,0,0,0,0,0,0,0,0,0,0,0,0,0,0,0,0,0,0,0,0],"id":48,"left_children":[1,3,5,7,9,11,-1,13,15,17,19,21,23,-1,-1,-1,-1,-1,-1,-1,-1,-1,-1,-1,-1],"loss_changes":[2.4556628E17,1.0238968E16,9.447767E16,3.3590682E15,3.9018833E15,1.431358E15,0E0,1.6569388E15,4.578064E15,1.210566E15,3.657621E14,2.8517193E12,5.036547E14,0E0,0E0,0E0,0E0,0E0,0E0,0E0,0E0,0E0,0E0,0E0,0E0],"parents":[2147483647,0,0,1,1,2,2,3,3,4,4,5,5,7,7,8,8,9,9,10,10,11,11,12,12],"right_children":[2,4,6,8,10,12,-1,14,16,18,20,22,24,-1,-1,-1,-1,-1,-1,-1,-1,-1,-1,-1,-1],"split_conditions":[5.38905E0,7.42324E-1,1.8773161E0,-5.295343E-1,4.781239E0,1.2079849E0,1.918621E7,-3.528298E-1,-3.3358818E-1,1.2711702E-1,3.9836717E0,4.365899E0,6.54243E-1,-2.2525938E5,-7.858228E5,2.025908E5,-1.2992354E5,6.629477E5,2.4030798E5,2.2871588E6,2.0191998E5,-1.8318918E4,1.0225492E5,1.4516052E5,3.3577332E6],"split_indices":[12,12,13,12,12,4,0,2,12,19,5,2,1,0,0,0,0,0,0,0,0,0,0,0,0],"split_type":[0,0,0,0,0,0,0,0,0,0,0,0,0,0,0,0,0,0,0,0,0,0,0,0,0],"sum_hessian":[2.589E3,2.576E3,1.3E1,2.281E3,2.95E2,9E0,4E0,5.27E2,1.754E3,2.84E2,1.1E1,2E0,7E0,4.71E2,5.6E1,6.59E2,1.095E3,1.39E2,1.45E2,9E0,2E0,1E0,1E0,1E0,6E0],"tree_param":{"num_deleted":"0","num_feature":"105","num_nodes":"25","size_leaf_vector":"1"}},{"base_weights":[6.840923E5,1.1650494E5,9.73243E7,-6.0136744E5,3.9437192E6,1.8836224E7,1.5422874E7,-3.8468335E6,-6.5531266E4,2.975691E6,1.3169555E7,2.4206932E6,2.5531058E6,-4.918164E5,9.554693E4,-1.8071297E5,9.5364164E4,5.2025484E5,1.0238628E5,1.8929826E6,5.5481244E5,-1.801385E4,2.858384E5],"categories":[],"categories_nodes":[],"categories_segments":[],"categories_sizes":[],"default_left":[0,0,0,0,0,0,0,0,0,0,0,0,0,0,0,0,0,0,0,0,0,0,0],"id":49,"left_children":[1,3,5,7,9,11,-1,13,15,17,19,21,-1,-1,-1,-1,-1,-1,-1,-1,-1,-1,-1],"loss_changes":[1.4091234E17,7.0453334E15,5.2469365E16,3.755062E15,3.421059E15,1.0097766E15,0E0,1.5978212E15,3.3083228E15,1.5945898E15,1.09923084E15,1.2819764E13,0E0,0E0,0E0,0E0,0E0,0E0,0E0,0E0,0E0,0E0,0E0],"parents":[2147483647,0,0,1,1,2,2,3,3,4,4,5,5,7,7,8,8,9,9,10,10,11,11],"right_children":[2,4,6,8,10,12,-1,14,16,18,20,22,-1,-1,-1,-1,-1,-1,-1,-1,-1,-1,-1],"split_conditions":[5.38905E0,3.583342E-1,1.8773161E0,-7.739191E-1,3.7046754E0,2.318657E0,1.5422874E7,-4.1930112E-1,-4.6667048E-1,6.4107764E-1,2.0507922E0,1.2079849E0,2.5531058E6,-4.918164E5,9.554693E4,-1.8071297E5,9.5364164E4,5.2025484E5,1.0238628E5,1.8929826E6,5.5481244E5,-1.801385E4,2.858384E5],"split_indices":[12,12,13,15,12,4,0,1,12,7,6,4,0,0,0,0,0,0,0,0,0,0,0],"split_type":[0,0,0,0,0,0,0,0,0,0,0,0,0,0,0,0,0,0,0,0,0,0,0],"sum_hessian":[2.565E3,2.555E3,1E1,2.155E3,4E2,7E0,3E0,3.01E2,1.854E3,3.68E2,3.2E1,4E0,3E0,2.46E2,5.5E1,6.83E2,1.171E3,1.68E2,2E2,1.4E1,1.8E1,1E0,3E0],"tree_param":{"num_deleted":"0","num_feature":"105","num_nodes":"23","size_leaf_vector":"1"}},{"base_weights":[7.525761E5,1.3892442E5,8.720478E7,-2.7294062E5,1.1121903E7,2.4984244E7,1.4936531E7,-3.5885845E6,1.4669419E5,4.3268105E6,1.6643432E7,3.0174624E7,1.5835199E6,-1.71645E5,-6.555754E5,-1.7375984E5,1.077407E5,6.1780925E5,-5.797107E5,2.313284E6,5.787034E5,1.0085118E5,3.2367675E6,-1.771305E4,1.9615633E5],"categories":[],"categories_nodes":[],"categories_segments":[],"categories_sizes":[],"default_left":[0,0,0,0,0,0,0,0,0,0,0,0,0,0,0,0,0,0,0,0,0,0,0,0,0],"id":50,"left_children":[1,3,5,7,9,11,-1,13,15,17,19,21,23,-1,-1,-1,-1,-1,-1,-1,-1,-1,-1,-1,-1],"loss_changes":[1.3548613E17,1.1513928E16,5.0959014E16,3.4184198E15,3.0917107E15,1.5829693E15,0E0,1.4769007E15,3.8395182E15,1.07870204E15,2.782777E15,6.0433626E14,7.062082E12,0E0,0E0,0E0,0E0,0E0,0E0,0E0,0E0,0E0,0E0,0E0,0E0],"parents":[2147483647,0,0,1,1,2,2,3,3,4,4,5,5,7,7,8,8,9,9,10,10,11,11,12,12],"right_children":[2,4,6,8,10,12,-1,14,16,18,20,22,24,-1,-1,-1,-1,-1,-1,-1,-1,-1,-1,-1,-1],"split_conditions":[5.38905E0,2.2191687E0,6.119012E0,-7.383597E-1,2.528999E0,9.123006E0,1.4936531E7,-4.2289346E-1,-4.464276E-1,2.1208615E0,1.3600878E0,-7.3777795E-1,1.2079849E0,-1.71645E5,-6.555754E5,-1.7375984E5,1.077407E5,6.1780925E5,-5.797107E5,2.313284E6,5.787034E5,1.0085118E5,3.2367675E6,-1.771305E4,1.9615633E5],"split_indices":[12,12,79,11,7,3,0,12,12,16,16,4,4,0,0,0,0,0,0,0,0,0,0,0,0],"split_type":[0,0,0,0,0,0,0,0,0,0,0,0,0,0,0,0,0,0,0,0,0,0,0,0,0],"sum_hessian":[2.55E3,2.537E3,1.3E1,2.45E3,8.7E1,1E1,3E0,2.71E2,2.179E3,4.3E1,4.4E1,7E0,3E0,1.71E2,1E2,7.19E2,1.46E3,3.8E1,5E0,2.4E1,2E1,1E0,6E0,1E0,2E0],"tree_param":{"num_deleted":"0","num_feature":"105","num_nodes":"25","size_leaf_vector":"1"}},{"base_weights":[8.152548E5,1.3583055E5,1.0718763E8,-3.4318712E5,5.3654825E6,1.5535515E7,1.6984178E7,-4.432306E6,-1.3418942E4,4.0913118E6,1.4891027E7,1.8749674E6,2.209888E5,-5.703989E5,9.784274E4,-3.7949575E5,2.5902162E4,1.196717E6,2.88742E5,2.1714582E6,2.749248E5],"categories":[],"categories_nodes":[],"categories_segments":[],"categories_sizes":[],"default_left":[0,0,0,0,0,0,0,0,0,0,0,0,0,0,0,0,0,0,0,0,0],"id":51,"left_children":[1,3,5,7,9,11,-1,13,15,17,19,-1,-1,-1,-1,-1,-1,-1,-1,-1,-1],"loss_changes":[1.8219713E17,6.299502E15,7.868528E16,3.107906E15,2.2563235E15,3.0679488E14,0E0,1.2113912E15,2.2075776E15,1.6571933E15,1.6070587E15,0E0,0E0,0E0,0E0,0E0,0E0,0E0,0E0,0E0,0E0],"parents":[2147483647,0,0,1,1,2,2,3,3,4,4,5,5,7,7,8,8,9,9,10,10],"right_children":[2,4,6,8,10,12,-1,14,16,18,20,-1,-1,-1,-1,-1,-1,-1,-1,-1,-1],"split_conditions":[5.4454355E0,1.2280227E0,1.8773161E0,-1.293935E0,4.0625725E0,1.6070946E0,1.6984178E7,-1.5522218E-1,-7.670745E-1,2.3411405E-1,1.0812157E0,1.8749674E6,2.209888E5,-5.703989E5,9.784274E4,-3.7949575E5,2.5902162E4,1.196717E6,2.88742E5,2.1714582E6,2.749248E5],"split_indices":[11,11,13,0,11,13,0,6,11,2,22,0,0,0,0,0,0,0,0,0,0],"split_type":[0,0,0,0,0,0,0,0,0,0,0,0,0,0,0,0,0,0,0,0,0],"sum_hessian":[2.517E3,2.506E3,1.1E1,2.3E3,2.06E2,7E0,4E0,1.67E2,2.133E3,1.88E2,1.8E1,4E0,3E0,1.35E2,3.2E1,1.39E2,1.994E3,1.9E1,1.69E2,9E0,9E0],"tree_param":{"num_deleted":"0","num_feature":"105","num_nodes":"21","size_leaf_vector":"1"}},{"base_weights":[6.237332E5,8.847192E4,7.672521E7,-9.417816E4,8.590421E6,1.9373074E7,1.2331452E8,-2.676542E6,3.2650694E5,2.1491465E6,1.6194275E7,2.564014E7,1.6468479E6,1.7783466E5,1.3739507E7,-5.081766E5,-1.4075939E5,-3.0469333E3,1.866778E5,-3.6445816E5,5.964262E5,1.6735898E5,2.0569619E6,6.297812E4,2.8069192E6,2.0177119E5,-2.200105E4],"categories":[],"categories_nodes":[],"categories_segments":[],"categories_sizes":[],"default_left":[0,0,0,0,0,0,0,0,0,0,0,0,0,0,0,0,0,0,0,0,0,0,0,0,0,0,0],"id":52,"left_children":[1,3,5,7,9,11,13,15,17,19,21,23,25,-1,-1,-1,-1,-1,-1,-1,-1,-1,-1,-1,-1,-1,-1],"loss_changes":[1.0497875E17,3.9871867E15,3.6151023E16,2.737656E15,2.4708206E15,1.3441524E15,1.4179981E16,1.0416278E15,1.1923378E15,8.823171E14,1.3526661E15,5.1912733E14,8.4507466E12,0E0,0E0,0E0,0E0,0E0,0E0,0E0,0E0,0E0,0E0,0E0,0E0,0E0,0E0],"parents":[2147483647,0,0,1,1,2,2,3,3,4,4,5,5,6,6,7,7,8,8,9,9,10,10,11,11,12,12],"right_children":[2,4,6,8,10,12,14,16,18,20,22,24,26,-1,-1,-1,-1,-1,-1,-1,-1,-1,-1,-1,-1,-1,-1],"split_conditions":[4.7864122E0,2.8611174E0,6.119012E0,-6.2031764E-1,8.03552E-1,-2.4699034E-1,2.1929138E0,-4.0457037E-1,1.2034922E-1,7.4135846E-1,9.6033704E-1,-7.3777795E-1,2.9509935E0,1.7783466E5,1.3739507E7,-5.081766E5,-1.4075939E5,-3.0469333E3,1.866778E5,-3.6445816E5,5.964262E5,1.6735898E5,2.0569619E6,6.297812E4,2.8069192E6,2.0177119E5,-2.200105E4],"split_indices":[9,10,79,17,0,24,2,3,3,82,2,4,3,0,0,0,0,0,0,0,0,0,0,0,0,0,0],"split_type":[0,0,0,0,0,0,0,0,0,0,0,0,0,0,0,0,0,0,0,0,0,0,0,0,0,0,0],"sum_hessian":[2.573E3,2.56E3,1.3E1,2.511E3,4.9E1,9E0,4E0,3.48E2,2.163E3,3E1,1.9E1,5E0,4E0,1E0,3E0,1.15E2,2.33E2,1.76E3,4.03E2,1.2E1,1.8E1,6E0,1.3E1,1E0,4E0,3E0,1E0],"tree_param":{"num_deleted":"0","num_feature":"105","num_nodes":"27","size_leaf_vector":"1"}},{"base_weights":[5.279847E5,-8.760816E2,8.063509E7,-1.9451278E5,1.3334007E7,1.1040299E8,1.4214877E7,-2.9821758E6,2.2118886E5,2.53782E6,1.7413582E7,7.5857055E4,1.2098815E7,1.9267039E5,1.7618752E6,-2.164724E5,-5.9292594E5,-2.1973898E5,5.389256E4,-3.931165E5,8.384794E5,2.07798E6,6.055134E5],"categories":[],"categories_nodes":[],"categories_segments":[],"categories_sizes":[],"default_left":[0,0,0,0,0,0,0,0,0,0,0,0,0,0,0,0,0,0,0,0,0,0,0],"id":53,"left_children":[1,3,5,7,9,11,13,15,17,19,21,-1,-1,-1,-1,-1,-1,-1,-1,-1,-1,-1,-1],"loss_changes":[1.0981173E17,6.6748446E15,2.5765414E16,2.9560126E15,1.4086607E15,1.2307744E16,2.9037066E14,7.332355E14,1.7134642E15,7.699938E14,3.6498847E14,0E0,0E0,0E0,0E0,0E0,0E0,0E0,0E0,0E0,0E0,0E0,0E0],"parents":[2147483647,0,0,1,1,2,2,3,3,4,4,5,5,6,6,7,7,8,8,9,9,10,10],"right_children":[2,4,6,8,10,12,14,16,18,20,22,-1,-1,-1,-1,-1,-1,-1,-1,-1,-1,-1,-1],"split_conditions":[5.38905E0,3.607508E0,7.4135846E-1,-5.5878216E-1,-3.345994E-1,6.54243E-1,2.318657E0,-5.167097E-1,-7.739191E-1,2.5712228E0,1.0812157E0,7.5857055E4,1.2098815E7,1.9267039E5,1.7618752E6,-2.164724E5,-5.9292594E5,-2.1973898E5,5.389256E4,-3.931165E5,8.384794E5,2.07798E6,6.055134E5],"split_indices":[12,11,82,12,15,1,4,9,15,8,22,0,0,0,0,0,0,0,0,0,0,0,0],"split_type":[0,0,0,0,0,0,0,0,0,0,0,0,0,0,0,0,0,0,0,0,0,0,0],"sum_hessian":[2.587E3,2.575E3,1.2E1,2.543E3,3.2E1,6E0,6E0,3.26E2,2.217E3,1.1E1,2.1E1,1E0,5E0,3E0,3E0,2.62E2,6.4E1,2.54E2,1.963E3,6E0,5E0,1.3E1,8E0],"tree_param":{"num_deleted":"0","num_feature":"105","num_nodes":"23","size_leaf_vector":"1"}},{"base_weights":[5.4116325E5,8.765528E4,7.316008E7,-2.6526372E5,5.7454805E6,1.2021327E7,1.2678551E7,-3.6658265E6,1.4285921E4,1.0053414E7,2.829032E6,1.8914432E7,4.961791E5,-5.82074E5,1.9175831E5,-1.5438914E5,9.97989E4,1.305832E5,1.1922044E6,1.1637929E5,1.3141425E6,2.0977135E6,7.4591984E4,1.854448E5,-1.4105417E5],"categories":[],"categories_nodes":[],"categories_segments":[],"categories_sizes":[],"default_left":[0,0,0,0,0,0,0,0,0,0,0,0,0,0,0,0,0,0,0,0,0,0,0,0,0],"id":54,"left_children":[1,3,5,7,9,11,-1,13,15,17,19,21,23,-1,-1,-1,-1,-1,-1,-1,-1,-1,-1,-1,-1],"loss_changes":[8.490281E16,5.135285E15,4.4836813E16,2.3026783E15,1.754936E15,9.85848E14,0E0,2.2696535E15,3.4457376E15,8.8657305E14,1.5892727E15,2.2157334E14,3.8977273E13,0E0,0E0,0E0,0E0,0E0,0E0,0E0,0E0,0E0,0E0,0E0,0E0],"parents":[2147483647,0,0,1,1,2,2,3,3,4,4,5,5,7,7,8,8,9,9,10,10,11,11,12,12],"right_children":[2,4,6,8,10,12,-1,14,16,18,20,22,24,-1,-1,-1,-1,-1,-1,-1,-1,-1,-1,-1,-1],"split_conditions":[5.38905E0,1.6513362E0,6.119012E0,-1.293935E0,9.264967E-1,3.7793121E0,1.2678551E7,-3.3179262E-1,-4.4956532E-1,-1.1493957E-1,3.7793121E0,1.2530135E0,8.03552E-1,-5.82074E5,1.9175831E5,-1.5438914E5,9.97989E4,1.305832E5,1.1922044E6,1.1637929E5,1.3141425E6,2.0977135E6,7.4591984E4,1.854448E5,-1.4105417E5],"split_indices":[12,11,79,0,5,1,0,12,12,15,1,0,0,0,0,0,0,0,0,0,0,0,0,0,0],"split_type":[0,0,0,0,0,0,0,0,0,0,0,0,0,0,0,0,0,0,0,0,0,0,0,0,0],"sum_hessian":[2.574E3,2.563E3,1.1E1,2.417E3,1.46E2,8E0,3E0,1.79E2,2.238E3,5.4E1,9.2E1,3E0,5E0,1.29E2,5E1,8.65E2,1.373E3,1.1E1,4.3E1,8.4E1,8E0,2E0,1E0,3E0,2E0],"tree_param":{"num_deleted":"0","num_feature":"105","num_nodes":"25","size_leaf_vector":"1"}},{"base_weights":[5.7654475E5,8.767821E4,5.896358E7,-7.730021E5,9.8642594E5,1.4554841E7,1.2203101E7,-2.9149625E5,-4.73927E6,6.860373E5,4.8056845E6,2.1475224E7,2.14664E6,-4.0790662E5,2.7357613E4,-5.372766E5,-3.762542E4,1.726802E5,1.7381698E3,-1.6523018E4,8.3585694E5,2.444695E6,-1.3736745E5,-4.1518918E4,2.5682561E5],"categories":[],"categories_nodes":[],"categories_segments":[],"categories_sizes":[],"default_left":[0,0,0,0,0,0,0,0,0,0,0,0,0,0,0,0,0,0,0,0,0,0,0,0,0],"id":55,"left_children":[1,3,5,7,9,11,-1,13,15,17,19,21,23,-1,-1,-1,-1,-1,-1,-1,-1,-1,-1,-1,-1],"loss_changes":[7.218912E16,1.9484782E15,4.993494E16,2.450981E15,1.396942E15,1.3151528E15,0E0,2.4732894E15,3.7408172E14,7.987583E14,1.5787422E15,9.148189E14,1.8292857E13,0E0,0E0,0E0,0E0,0E0,0E0,0E0,0E0,0E0,0E0,0E0,0E0],"parents":[2147483647,0,0,1,1,2,2,3,3,4,4,5,5,7,7,8,8,9,9,10,10,11,11,12,12],"right_children":[2,4,6,8,10,12,-1,14,16,18,20,22,24,-1,-1,-1,-1,-1,-1,-1,-1,-1,-1,-1,-1],"split_conditions":[4.7864122E0,-3.415722E-1,4.7650127E0,9.118269E-2,2.0173147E0,1.120696E0,1.2203101E7,-1.1441145E0,8.504745E-1,-1.839864E-1,1.5287998E0,1.5819547E0,2.4024441E0,-4.0790662E5,2.7357613E4,-5.372766E5,-3.762542E4,1.726802E5,1.7381698E3,-1.6523018E4,8.3585694E5,2.444695E6,-1.3736745E5,-4.1518918E4,2.5682561E5],"split_indices":[9,6,1,9,8,13,0,0,13,9,85,18,10,0,0,0,0,0,0,0,0,0,0,0,0],"split_type":[0,0,0,0,0,0,0,0,0,0,0,0,0,0,0,0,0,0,0,0,0,0,0,0,0],"sum_hessian":[2.525E3,2.509E3,1.6E1,1.282E3,1.227E3,1.3E1,3E0,1.148E3,1.34E2,1.143E3,8.4E1,6E0,7E0,1.45E2,1.003E3,1.16E2,1.8E1,4.44E2,6.99E2,3.7E1,4.7E1,5E0,1E0,1E0,6E0],"tree_param":{"num_deleted":"0","num_feature":"105","num_nodes":"25","size_leaf_vector":"1"}},{"base_weights":[5.73609E5,-1.6249908E3,8.113878E7,-1.5956617E5,1.4117479E7,1.4481307E7,1.3975109E7,-2.3248002E6,2.1433245E5,1.740331E7,-2.4877795E6,1.5161982E6,2.0841814E6,-5.604372E4,-4.0085634E5,-1.3058343E5,9.0159516E4,1.9438829E6,-1.424969E5,-4.3126184E5,4.3571188E4,-2.6773316E4,1.8631536E5],"categories":[],"categories_nodes":[],"categories_segments":[],"categories_sizes":[],"default_left":[0,0,0,0,0,0,0,0,0,0,0,0,0,0,0,0,0,0,0,0,0,0,0],"id":56,"left_children":[1,3,5,7,9,11,-1,13,15,17,19,21,-1,-1,-1,-1,-1,-1,-1,-1,-1,-1,-1],"loss_changes":[1.1766764E17,5.644213E15,6.020618E16,2.0288652E15,1.7442163E15,9.9650355E14,0E0,1.08498135E15,2.2406153E15,1.0583057E15,5.7409414E13,8.683587E12,0E0,0E0,0E0,0E0,0E0,0E0,0E0,0E0,0E0,0E0,0E0],"parents":[2147483647,0,0,1,1,2,2,3,3,4,4,5,5,7,7,8,8,9,9,10,10,11,11],"right_children":[2,4,6,8,10,12,-1,14,16,18,20,22,-1,-1,-1,-1,-1,-1,-1,-1,-1,-1,-1],"split_conditions":[5.38905E0,4.0625725E0,6.119012E0,-6.2031764E-1,1.0638418E0,2.318657E0,1.3975109E7,-3.4231782E-1,-4.6667048E-1,1.8991181E0,2.5712228E0,1.2079849E0,2.0841814E6,-5.604372E4,-4.0085634E5,-1.3058343E5,9.0159516E4,1.9438829E6,-1.424969E5,-4.3126184E5,4.3571188E4,-2.6773316E4,1.8631536E5],"split_indices":[12,11,79,17,17,4,0,12,12,24,8,4,0,0,0,0,0,0,0,0,0,0,0],"split_type":[0,0,0,0,0,0,0,0,0,0,0,0,0,0,0,0,0,0,0,0,0,0,0],"sum_hessian":[2.534E3,2.521E3,1.3E1,2.498E3,2.3E1,9E0,4E0,3.64E2,2.134E3,1.9E1,4E0,5E0,4E0,1.81E2,1.83E2,6.63E2,1.471E3,1.7E1,2E0,1E0,3E0,1E0,4E0],"tree_param":{"num_deleted":"0","num_feature":"105","num_nodes":"23","size_leaf_vector":"1"}},{"base_weights":[7.007675E5,1.7822322E5,8.320707E7,-2.0046825E5,4.1642038E6,1.0787797E7,1.3353995E7,-2.4179768E6,1.5045523E5,3.068963E6,1.1746201E7,3.9233412E5,1.574032E6,-1.808777E5,-7.067989E5,1.4823455E5,-8.154106E4,6.450211E5,9.84169E4,1.5605632E6,-2.2317055E5,-1.3463252E5,1.4511198E5],"categories":[],"categories_nodes":[],"categories_segments":[],"categories_sizes":[],"default_left":[0,0,0,0,0,0,0,0,0,0,0,0,0,0,0,0,0,0,0,0,0,0,0],"id":57,"left_children":[1,3,5,7,9,11,-1,13,15,17,19,21,-1,-1,-1,-1,-1,-1,-1,-1,-1,-1,-1],"loss_changes":[1.0960583E17,3.8276281E15,5.1118125E16,1.8056306E15,1.6466615E15,5.8692795E14,0E0,8.3407084E14,2.586617E15,1.3710511E15,1.5767515E15,2.6336205E13,0E0,0E0,0E0,0E0,0E0,0E0,0E0,0E0,0E0,0E0,0E0],"parents":[2147483647,0,0,1,1,2,2,3,3,4,4,5,5,7,7,8,8,9,9,10,10,11,11],"right_children":[2,4,6,8,10,12,-1,14,16,18,20,22,-1,-1,-1,-1,-1,-1,-1,-1,-1,-1,-1],"split_conditions":[5.38905E0,1.1783572E0,6.119012E0,-5.5878216E-1,4.0625725E0,2.318657E0,1.3353995E7,-3.3143696E-1,-3.3358818E-1,4.7966945E-1,1.0638418E0,-7.3777795E-1,1.574032E6,-1.808777E5,-7.067989E5,1.4823455E5,-8.154106E4,6.450211E5,9.84169E4,1.5605632E6,-2.2317055E5,-1.3463252E5,1.4511198E5],"split_indices":[12,11,79,12,11,4,0,11,12,5,17,4,0,0,0,0,0,0,0,0,0,0,0],"split_type":[0,0,0,0,0,0,0,0,0,0,0,0,0,0,0,0,0,0,0,0,0,0,0],"sum_hessian":[2.539E3,2.528E3,1.1E1,2.313E3,2.15E2,7E0,4E0,3.12E2,2.001E3,1.94E2,2.1E1,4E0,3E0,2.82E2,3E1,8.4E2,1.161E3,7E1,1.24E2,1.6E1,5E0,1E0,3E0],"tree_param":{"num_deleted":"0","num_feature":"105","num_nodes":"23","size_leaf_vector":"1"}},{"base_weights":[2.4427019E5,-5.3463586E4,4.416697E7,-1.9580288E5,1.0048063E7,1.1774443E7,8.203169E6,-2.0334596E6,1.5582744E5,1.2485762E7,1.7340525E5,1.809189E6,1.2536029E6,-3.426726E5,3.6828633E4,8.28271E4,-8.09175E4,3.6214516E5,1.715636E6,-1.0141119E5,1.7459977E5,-6.2328668E4,2.0169598E5],"categories":[],"categories_nodes":[],"categories_segments":[],"categories_sizes":[],"default_left":[0,0,0,0,0,0,0,0,0,0,0,0,0,0,0,0,0,0,0,0,0,0,0],"id":58,"left_children":[1,3,5,7,9,11,-1,13,15,17,19,-1,21,-1,-1,-1,-1,-1,-1,-1,-1,-1,-1],"loss_changes":[3.3018839E16,3.6217016E15,1.6021688E16,1.6053927E15,8.3167505E14,8.835725E14,0E0,1.3414724E15,1.3582745E15,8.4859105E14,3.126295E13,0E0,2.2045828E13,0E0,0E0,0E0,0E0,0E0,0E0,0E0,0E0,0E0,0E0],"parents":[2147483647,0,0,1,1,2,2,3,3,4,4,5,5,7,7,8,8,9,9,10,10,12,12],"right_children":[2,4,6,8,10,12,-1,14,16,18,20,-1,22,-1,-1,-1,-1,-1,-1,-1,-1,-1,-1],"split_conditions":[4.7864122E0,3.3072417E0,4.7650127E0,-7.1254677E-1,1.1585813E0,5.993139E-1,8.203169E6,-4.6724007E-1,-1.6940796E-1,2.528999E0,6.9154644E-1,1.809189E6,1.2079849E0,-3.426726E5,3.6828633E4,8.28271E4,-8.09175E4,3.6214516E5,1.715636E6,-1.0141119E5,1.7459977E5,-6.2328668E4,2.0169598E5],"split_indices":[9,1,1,21,14,16,0,7,9,7,18,0,4,0,0,0,0,0,0,0,0,0,0],"split_type":[0,0,0,0,0,0,0,0,0,0,0,0,0,0,0,0,0,0,0,0,0,0,0],"sum_hessian":[2.519E3,2.507E3,1.2E1,2.477E3,3E1,1E1,2E0,3.94E2,2.083E3,2.3E1,7E0,4E0,6E0,2.48E2,1.46E2,1.228E3,8.55E2,1.1E1,1.2E1,5E0,2E0,2E0,4E0],"tree_param":{"num_deleted":"0","num_feature":"105","num_nodes":"23","size_leaf_vector":"1"}},{"base_weights":[5.915765E5,8.6848055E4,7.59784E7,-1.6132147E5,5.919429E6,1.0105821E7,1.07315336E8,6.3255254E4,-2.8295392E6,1.1056738E4,9.181436E6,4.6657816E5,1.1988665E7,9.262592E6,1.2395895E7,-4.7880844E4,1.9290348E5,6.0072756E5,-3.434886E5,7.29104E5,-2.486517E5,1.1694981E6,-9.095964E4,6.587945E4,-1.1445316E4,6.823678E4,1.2975472E6,4.424105E4,1.0363946E6],"categories":[],"categories_nodes":[],"categories_segments":[],"categories_sizes":[],"default_left":[0,0,0,0,0,0,0,0,0,0,0,0,0,0,0,0,0,0,0,0,0,0,0,0,0,0,0,0,0],"id":59,"left_children":[1,3,5,7,9,11,13,15,17,19,21,23,25,27,-1,-1,-1,-1,-1,-1,-1,-1,-1,-1,-1,-1,-1,-1,-1],"loss_changes":[9.726053E16,3.688583E15,2.9669617E16,1.4665861E15,2.0039002E15,1.716728E14,1.2210566E16,2.2913285E15,1.11954523E15,8.543028E14,1.7525947E15,1.1587921E12,5.6143947E13,4.5073467E13,0E0,0E0,0E0,0E0,0E0,0E0,0E0,0E0,0E0,0E0,0E0,0E0,0E0,0E0,0E0],"parents":[2147483647,0,0,1,1,2,2,3,3,4,4,5,5,6,6,7,7,8,8,9,9,10,10,11,11,12,12,13,13],"right_children":[2,4,6,8,10,12,14,16,18,20,22,24,26,28,-1,-1,-1,-1,-1,-1,-1,-1,-1,-1,-1,-1,-1,-1,-1],"split_conditions":[5.4454355E0,1.9888271E0,5.247316E0,9.055675E-1,1.8696053E-1,5.219448E-1,3.0526338E0,5.8483068E-2,-9.33745E-1,1.530414E0,2.8469186E0,1.5526545E0,8.03552E-1,-1.4437554E0,1.2395895E7,-4.7880844E4,1.9290348E5,6.0072756E5,-3.434886E5,7.29104E5,-2.486517E5,1.1694981E6,-9.095964E4,6.587945E4,-1.1445316E4,6.823678E4,1.2975472E6,4.424105E4,1.0363946E6],"split_indices":[11,11,2,9,23,18,9,11,24,9,3,0,0,0,0,0,0,0,0,0,0,0,0,0,0,0,0,0,0],"split_type":[0,0,0,0,0,0,0,0,0,0,0,0,0,0,0,0,0,0,0,0,0,0,0,0,0,0,0,0,0],"sum_hessian":[2.552E3,2.54E3,1.2E1,2.441E3,9.9E1,6E0,6E0,2.256E3,1.85E2,3.7E1,6.2E1,2E0,4E0,2E0,4E0,1.751E3,5.05E2,9E0,1.76E2,7E0,3E1,4.9E1,1.3E1,1E0,1E0,1E0,3E0,1E0,1E0],"tree_param":{"num_deleted":"0","num_feature":"105","num_nodes":"29","size_leaf_vector":"1"}},{"base_weights":[5.87304E5,1.2695233E5,7.036094E7,-3.8134144E5,2.9813938E6,6.0300975E6,1.0270954E8,-4.7780578E5,8.095043E6,2.3018465E6,1.1067147E7,7.569896E5,7.214879E5,4.3502918E4,1.1271947E7,2.627917E4,-1.3972852E5,8.993165E5,1.5021795E5,4.518093E5,9.456446E4,-2.898162E5,1.3881229E6,9.2103305E4,-1.125545E4],"categories":[],"categories_nodes":[],"categories_segments":[],"categories_sizes":[],"default_left":[0,0,0,0,0,0,0,0,0,0,0,0,0,0,0,0,0,0,0,0,0,0,0,0,0],"id":60,"left_children":[1,3,5,7,9,11,13,15,17,19,21,-1,23,-1,-1,-1,-1,-1,-1,-1,-1,-1,-1,-1,-1],"loss_changes":[8.33078E16,3.7533456E15,3.2280476E16,1.8157581E15,2.0210342E15,6.260814E13,1.1016187E16,1.4842947E15,8.048312E13,1.0817212E15,1.3408364E15,0E0,1.8497654E12,0E0,0E0,0E0,0E0,0E0,0E0,0E0,0E0,0E0,0E0,0E0,0E0],"parents":[2147483647,0,0,1,1,2,2,3,3,4,4,5,5,6,6,7,7,8,8,9,9,10,10,12,12],"right_children":[2,4,6,8,10,12,14,16,18,20,22,-1,24,-1,-1,-1,-1,-1,-1,-1,-1,-1,-1,-1,-1],"split_conditions":[5.4454355E0,4.3508202E-1,5.247316E0,1.3297551E0,4.0547915E0,1.3368732E0,-1.4437554E0,-3.3358818E-1,4.0475435E0,6.332128E-1,-3.7294075E-1,7.569896E5,1.5526545E0,4.3502918E4,1.1271947E7,2.627917E4,-1.3972852E5,8.993165E5,1.5021795E5,4.518093E5,9.456446E4,-2.898162E5,1.3881229E6,9.2103305E4,-1.125545E4],"split_indices":[11,12,2,11,12,13,0,12,38,2,23,0,0,0,0,0,0,0,0,0,0,0,0,0,0],"split_type":[0,0,0,0,0,0,0,0,0,0,0,0,0,0,0,0,0,0,0,0,0,0,0,0,0],"sum_hessian":[2.59E3,2.578E3,1.2E1,2.192E3,3.86E2,6E0,6E0,2.172E3,2E1,3.62E2,2.4E1,3E0,3E0,1E0,5E0,1.205E3,9.67E2,1.6E1,4E0,1.33E2,2.29E2,4E0,2E1,2E0,1E0],"tree_param":{"num_deleted":"0","num_feature":"105","num_nodes":"25","size_leaf_vector":"1"}},{"base_weights":[4.1157588E5,2.590951E4,5.4976172E7,-1.2386569E5,1.0814581E7,1.5168802E7,9.525488E6,-1.2092408E6,4.32508E5,1.4284414E7,5.0825594E5,2.013845E7,6.676763E5,7.5770244E3,-3.4397197E5,3.845662E5,-4.6677855E4,1.6082275E5,1.6223669E6,-4.096896E5,2.4382275E5,4.2771184E4,2.1895668E6,-4.9326918E4,1.1210879E5],"categories":[],"categories_nodes":[],"categories_segments":[],"categories_sizes":[],"default_left":[0,0,0,0,0,0,0,0,0,0,0,0,0,0,0,0,0,0,0,0,0,0,0,0,0],"id":61,"left_children":[1,3,5,7,9,11,-1,13,15,17,19,21,23,-1,-1,-1,-1,-1,-1,-1,-1,-1,-1,-1,-1],"loss_changes":[5.3970044E16,4.130412E15,2.1636495E16,1.5255857E15,1.2153415E15,1.01375214E15,0E0,2.4547614E15,5.137948E15,