{"learner":{"attributes":{"scikit_learn":"{\"_estimator_type\": \"regressor\"}"},"feature_names":[],"feature_types":[],"gradient_booster":{"model":{"gbtree_model_param":{"num_parallel_tree":"1","num_trees":"500"},"iteration_indptr":[0,1,2,3,4,5,6,7,8,9,10,11,12,13,14,15,16,17,18,19,20,21,22,23,24,25,26,27,28,29,30,31,32,33,34,35,36,37,38,39,40,41,42,43,44,45,46,47,48,49,50,51,52,53,54,55,56,57,58,59,60,61,62,63,64,65,66,67,68,69,70,71,72,73,74,75,76,77,78,79,80,81,82,83,84,85,86,87,88,89,90,91,92,93,94,95,96,97,98,99,100,101,102,103,104,105,106,107,108,109,110,111,112,113,114,115,116,117,118,119,120,121,122,123,124,125,126,127,128,129,130,131,132,133,134,135,136,137,138,139,140,141,142,143,144,145,146,147,148,149,150,151,152,153,154,155,156,157,158,159,160,161,162,163,164,165,166,167,168,169,170,171,172,173,174,175,176,177,178,179,180,181,182,183,184,185,186,187,188,189,190,191,192,193,194,195,196,197,198,199,200,201,202,203,204,205,206,207,208,209,210,211,212,213,214,215,216,217,218,219,220,221,222,223,224,225,226,227,228,229,230,231,232,233,234,235,236,237,238,239,240,241,242,243,244,245,246,247,248,249,250,251,252,253,254,255,256,257,258,259,260,261,262,263,264,265,266,267,268,269,270,271,272,273,274,275,276,277,278,279,280,281,282,283,284,285,286,287,288,289,290,291,292,293,294,295,296,297,298,299,300,301,302,303,304,305,306,307,308,309,310,311,312,313,314,315,316,317,318,319,320,321,322,323,324,325,326,327,328,329,330,331,332,333,334,335,336,337,338,339,340,341,342,343,344,345,346,347,348,349,350,351,352,353,354,355,356,357,358,359,360,361,362,363,364,365,366,367,368,369,370,371,372,373,374,375,376,377,378,379,380,381,382,383,384,385,386,387,388,389,390,391,392,393,394,395,396,397,398,399,400,401,402,403,404,405,406,407,408,409,410,411,412,413,414,415,416,417,418,419,420,421,422,423,424,425,426,427,428,429,430,431,432,433,434,435,436,437,438,439,440,441,442,443,444,445,446,447,448,449,450,451,452,453,454,455,456,457,458,459,460,461,462,463,464,465,466,467,468,469,470,471,472,473,474,475,476,477,478,479,480,481,482,483,484,485,486,487,488,489,490,491,492,493,494,495,496,497,498,499,500],"tree_info":[0,0,0,0,0,0,0,0,0,0,0,0,0,0,0,0,0,0,0,0,0,0,0,0,0,0,0,0,0,0,0,0,0,0,0,0,0,0,0,0,0,0,0,0,0,0,0,0,0,0,0,0,0,0,0,0,0,0,0,0,0,0,0,0,0,0,0,0,0,0,0,0,0,0,0,0,0,0,0,0,0,0,0,0,0,0,0,0,0,0,0,0,0,0,0,0,0,0,0,0,0,0,0,0,0,0,0,0,0,0,0,0,0,0,0,0,0,0,0,0,0,0,0,0,0,0,0,0,0,0,0,0,0,0,0,0,0,0,0,0,0,0,0,0,0,0,0,0,0,0,0,0,0,0,0,0,0,0,0,0,0,0,0,0,0,0,0,0,0,0,0,0,0,0,0,0,0,0,0,0,0,0,0,0,0,0,0,0,0,0,0,0,0,0,0,0,0,0,0,0,0,0,0,0,0,0,0,0,0,0,0,0,0,0,0,0,0,0,0,0,0,0,0,0,0,0,0,0,0,0,0,0,0,0,0,0,0,0,0,0,0,0,0,0,0,0,0,0,0,0,0,0,0,0,0,0,0,0,0,0,0,0,0,0,0,0,0,0,0,0,0,0,0,0,0,0,0,0,0,0,0,0,0,0,0,0,0,0,0,0,0,0,0,0,0,0,0,0,0,0,0,0,0,0,0,0,0,0,0,0,0,0,0,0,0,0,0,0,0,0,0,0,0,0,0,0,0,0,0,0,0,0,0,0,0,0,0,0,0,0,0,0,0,0,0,0,0,0,0,0,0,0,0,0,0,0,0,0,0,0,0,0,0,0,0,0,0,0,0,0,0,0,0,0,0,0,0,0,0,0,0,0,0,0,0,0,0,0,0,0,0,0,0,0,0,0,0,0,0,0,0,0,0,0,0,0,0,0,0,0,0,0,0,0,0,0,0,0,0,0,0,0,0,0,0,0,0,0,0,0,0,0,0,0,0,0,0,0,0,0,0,0,0,0,0,0,0,0,0,0,0,0,0,0,0,0,0,0,0,0,0,0,0,0,0,0,0,0,0,0,0,0,0,0,0,0,0,0,0,0,0,0,0,0,0,0,0,0,0,0,0,0,0,0,0,0,0,0,0,0],"trees":[{"base_weights":[4.0770378E6,-4.9020412E7,6.6421344E8,-9.80512E7,9.587646E7,4.771424E8,1.03289016E8,-1.1443546E8,-4.358343E7,4.4644428E7,1.9954187E8,3.3206878E7,5.328429E7,-1.3021986E7,-9.441172E6,-6.074192E6,-1.9343494E6,9.398602E5,7.5775545E6,1.4969315E7,2.2570634E7],"categories":[],"categories_nodes":[],"categories_segments":[],"categories_sizes":[],"default_left":[0,0,0,0,0,0,0,0,0,0,0,0,0,0,0,0,0,0,0,0,0],"id":0,"left_children":[1,3,5,7,9,11,-1,13,15,17,19,-1,-1,-1,-1,-1,-1,-1,-1,-1,-1],"loss_changes":[8.992984E19,1.6919973E19,1.0708856E19,1.5608821E18,3.1579843E18,2.1426843E17,0E0,3.6932266E17,1.6839598E17,4.4630826E17,8.931113E16,0E0,0E0,0E0,0E0,0E0,0E0,0E0,0E0,0E0,0E0],"parents":[2147483647,0,0,1,1,2,2,3,3,4,4,5,5,7,7,8,8,9,9,10,10],"right_children":[2,4,6,8,10,12,-1,14,16,18,20,-1,-1,-1,-1,-1,-1,-1,-1,-1,-1],"split_conditions":[1.3820777E0,-1.083666E-1,3.3218918E0,-3.3179262E-1,5.080775E-1,1.8785348E0,1.03289016E8,-5.2817655E-1,-2.1527094E-1,9.118269E-2,8.0264264E-1,3.3206878E7,5.328429E7,-1.3021986E7,-9.441172E6,-6.074192E6,-1.9343494E6,9.398602E5,7.5775545E6,1.4969315E7,2.2570634E7],"split_indices":[12,12,12,12,12,12,0,2,9,9,12,0,0,0,0,0,0,0,0,0,0],"split_type":[0,0,0,0,0,0,0,0,0,0,0,0,0,0,0,0,0,0,0,0,0],"sum_hessian":[2.556E3,2.37E3,1.86E2,1.772E3,5.98E2,1.31E2,5.5E1,1.358E3,4.14E2,4.05E2,1.93E2,4.6E1,8.5E1,7.44E2,6.14E2,2.38E2,1.76E2,1.93E2,2.12E2,7.8E1,1.15E2],"tree_param":{"num_deleted":"0","num_feature":"105","num_nodes":"21","size_leaf_vector":"1"}},{"base_weights":[-3.6111606E5,-4.4261476E7,6.137381E8,-8.863438E7,8.8856296E7,4.6171178E8,9.9661896E7,-1.07156216E8,-3.7268936E7,4.2969476E7,1.8452982E8,3.225016E7,5.2773644E7,-1.2182505E7,-8.889267E6,-4.79069E6,2.1656658E6,1.6777409E6,9.512197E6,9.543731E6,2.1253996E7],"categories":[],"categories_nodes":[],"categories_segments":[],"categories_sizes":[],"default_left":[0,0,0,0,0,0,0,0,0,0,0,0,0,0,0,0,0,0,0,0,0],"id":1,"left_children":[1,3,5,7,9,11,-1,13,15,17,19,-1,-1,-1,-1,-1,-1,-1,-1,-1,-1],"loss_changes":[6.8693014E19,1.4085802E19,7.594604E18,1.6792005E18,2.5812767E18,3.5307957E17,0E0,2.9680877E17,3.067015E17,5.5207297E17,3.7771358E17,0E0,0E0,0E0,0E0,0E0,0E0,0E0,0E0,0E0,0E0],"parents":[2147483647,0,0,1,1,2,2,3,3,4,4,5,5,7,7,8,8,9,9,10,10],"right_children":[2,4,6,8,10,12,-1,14,16,18,20,-1,-1,-1,-1,-1,-1,-1,-1,-1,-1],"split_conditions":[1.484226E0,-1.083666E-1,3.7046754E0,-2.886368E-1,5.080775E-1,1.750964E0,9.9661896E7,-5.697579E-1,3.4655464E-1,4.9946102E-1,4.3934044E-1,3.225016E7,5.2773644E7,-1.2182505E7,-8.889267E6,-4.79069E6,2.1656658E6,1.6777409E6,9.512197E6,9.543731E6,2.1253996E7],"split_indices":[12,12,12,11,12,11,0,11,11,11,11,0,0,0,0,0,0,0,0,0,0],"split_type":[0,0,0,0,0,0,0,0,0,0,0,0,0,0,0,0,0,0,0,0,0],"sum_hessian":[2.538E3,2.373E3,1.65E2,1.781E3,5.92E2,1.26E2,3.9E1,1.305E3,4.76E2,4.05E2,1.87E2,5E1,7.6E1,7.08E2,5.97E2,4.04E2,7.2E1,2.74E2,1.31E2,5E1,1.37E2],"tree_param":{"num_deleted":"0","num_feature":"105","num_nodes":"21","size_leaf_vector":"1"}},{"base_weights":[-1.7703594E4,-4.2005604E7,5.2316534E8,-8.234758E7,6.934891E7,3.6125427E8,8.1831656E7,-1.0344003E8,-5.1287596E7,2.4734356E7,1.3784725E8,2.1392752E7,4.018674E7,-1.0615423E7,-6.3095355E6,-5.9248695E6,1.4515347E5,-6.4270044E5,5.5900735E6,7.0687695E6,1.6618752E7],"categories":[],"categories_nodes":[],"categories_segments":[],"categories_sizes":[],"default_left":[0,0,0,0,0,0,0,0,0,0,0,0,0,0,0,0,0,0,0,0,0],"id":2,"left_children":[1,3,5,7,9,11,-1,13,15,17,19,-1,-1,-1,-1,-1,-1,-1,-1,-1,-1],"loss_changes":[5.5885E19,1.0607829E19,7.553878E18,1.1075062E18,1.9051909E18,3.5397238E17,0E0,7.886137E16,2.9853156E17,3.776456E17,4.1138283E17,0E0,0E0,0E0,0E0,0E0,0E0,0E0,0E0,0E0,0E0],"parents":[2147483647,0,0,1,1,2,2,3,3,4,4,5,5,7,7,8,8,9,9,10,10],"right_children":[2,4,6,8,10,12,-1,14,16,18,20,-1,-1,-1,-1,-1,-1,-1,-1,-1,-1],"split_conditions":[1.3097177E0,-1.3330889E-1,3.0036402E0,-4.314637E-1,3.1935945E-1,1.2280227E0,8.1831656E7,-3.3179262E-1,1.4549844E-1,1.90442E-1,3.857874E-1,2.1392752E7,4.018674E7,-1.0615423E7,-6.3095355E6,-5.9248695E6,1.4515347E5,-6.4270044E5,5.5900735E6,7.0687695E6,1.6618752E7],"split_indices":[12,12,12,11,12,11,0,12,11,11,11,0,0,0,0,0,0,0,0,0,0],"split_type":[0,0,0,0,0,0,0,0,0,0,0,0,0,0,0,0,0,0,0,0,0],"sum_hessian":[2.534E3,2.35E3,1.84E2,1.726E3,6.24E2,1.26E2,5.8E1,1.021E3,7.05E2,3.82E2,2.42E2,3.4E1,9.2E1,9.49E2,7.2E1,6.12E2,9.3E1,1.93E2,1.89E2,7.7E1,1.65E2],"tree_param":{"num_deleted":"0","num_feature":"105","num_nodes":"21","size_leaf_vector":"1"}},{"base_weights":[-1.5499711E6,-4.288033E7,3.92464E8,-7.5355864E7,4.593085E7,2.5650989E8,6.1788243E8,-9.052495E7,-4.9203636E7,1.1403003E7,9.729255E7,2.029272E8,3.1402516E7,5.197131E7,9.581778E7,-9.946995E6,-7.7154505E6,-6.463714E6,-3.0869832E6,-4.912923E5,3.663386E6,7.135773E6,1.3101852E7,1.1683274E6,2.0429656E7],"categories":[],"categories_nodes":[],"categories_segments":[],"categories_sizes":[],"default_left":[0,0,0,0,0,0,0,0,0,0,0,0,0,0,0,0,0,0,0,0,0,0,0,0,0],"id":3,"left_children":[1,3,5,7,9,11,13,15,17,19,21,23,-1,-1,-1,-1,-1,-1,-1,-1,-1,-1,-1,-1,-1],"loss_changes":[4.2196472E19,6.7807333E18,6.74659E18,6.596663E17,1.11347405E18,1.8063437E17,4.8329693E17,9.103297E16,1.7168022E17,1.5856751E17,1.7454747E17,1.3729602E16,0E0,0E0,0E0,0E0,0E0,0E0,0E0,0E0,0E0,0E0,0E0,0E0,0E0],"parents":[2147483647,0,0,1,1,2,2,3,3,4,4,5,5,6,6,7,7,8,8,9,9,10,10,11,11],"right_children":[2,4,6,8,10,12,14,16,18,20,22,24,-1,-1,-1,-1,-1,-1,-1,-1,-1,-1,-1,-1,-1],"split_conditions":[1.0073444E0,-1.6894063E-1,2.352771E0,-4.3602693E-1,2.217567E-1,1.6834439E0,5.38905E0,-5.6906456E-1,-3.3303115E-1,9.118269E-2,5.8706284E-1,-1.1033648E0,3.1402516E7,5.197131E7,9.581778E7,-9.946995E6,-7.7154505E6,-6.463714E6,-3.0869832E6,-4.912923E5,3.663386E6,7.135773E6,1.3101852E7,1.1683274E6,2.0429656E7],"split_indices":[12,12,12,2,12,12,12,9,9,9,12,19,0,0,0,0,0,0,0,0,0,0,0,0,0],"split_type":[0,0,0,0,0,0,0,0,0,0,0,0,0,0,0,0,0,0,0,0,0,0,0,0,0],"sum_hessian":[2.581E3,2.34E3,2.41E2,1.714E3,6.26E2,1.57E2,8.4E1,1.077E3,6.37E2,3.78E2,2.48E2,9.3E1,6.4E1,7.5E1,9E0,6.26E2,4.51E2,3.39E2,2.98E2,2.32E2,1.46E2,1.49E2,9.9E1,1E0,9.2E1],"tree_param":{"num_deleted":"0","num_feature":"105","num_nodes":"25","size_leaf_vector":"1"}},{"base_weights":[1.2856415E6,-3.612993E7,4.066201E8,-6.571192E7,5.0747788E7,3.1467293E8,7.983353E8,-7.6592584E7,-2.7001224E7,1.8824122E7,1.07475656E8,2.1236603E8,3.9934116E7,1.1003182E7,8.2129216E8,-8.90399E6,-6.4737915E6,-3.5740448E6,-1.1969281E6,1.828273E5,4.0995372E6,6.8542235E6,1.2982448E7,1.4974272E6,2.1368346E7,6.5338455E6,8.335568E7],"categories":[],"categories_nodes":[],"categories_segments":[],"categories_sizes":[],"default_left":[0,0,0,0,0,0,0,0,0,0,0,0,0,0,0,0,0,0,0,0,0,0,0,0,0,0,0],"id":4,"left_children":[1,3,5,7,9,11,13,15,17,19,21,23,-1,-1,25,-1,-1,-1,-1,-1,-1,-1,-1,-1,-1,-1,-1],"loss_changes":[3.8943453E19,6.058782E18,6.559638E18,7.292824E17,1.07646105E18,1.1698023E18,1.486056E17,1.7303949E17,4.9488503E16,1.4658474E17,1.4258274E17,8.4458986E15,0E0,0E0,6.1456103E16,0E0,0E0,0E0,0E0,0E0,0E0,0E0,0E0,0E0,0E0,0E0,0E0],"parents":[2147483647,0,0,1,1,2,2,3,3,4,4,5,5,6,6,7,7,8,8,9,9,10,10,11,11,14,14],"right_children":[2,4,6,8,10,12,14,16,18,20,22,24,-1,-1,26,-1,-1,-1,-1,-1,-1,-1,-1,-1,-1,-1,-1],"split_conditions":[1.1918246E0,-1.3330889E-1,4.0547915E0,-3.3179262E-1,3.1935945E-1,2.0123575E0,-3.49595E-1,-5.929792E-1,-2.0388816E-1,1.0386939E-1,5.8706284E-1,-7.4012864E-1,3.9934116E7,1.1003182E7,7.7825373E-1,-8.90399E6,-6.4737915E6,-3.5740448E6,-1.1969281E6,1.828273E5,4.0995372E6,6.8542235E6,1.2982448E7,1.4974272E6,2.1368346E7,6.5338455E6,8.335568E7],"split_indices":[12,12,12,12,12,12,10,8,7,8,12,4,0,0,8,0,0,0,0,0,0,0,0,0,0,0,0],"split_type":[0,0,0,0,0,0,0,0,0,0,0,0,0,0,0,0,0,0,0,0,0,0,0,0,0,0,0],"sum_hessian":[2.558E3,2.346E3,2.12E2,1.751E3,5.95E2,1.79E2,3.3E1,1.363E3,3.88E2,3.85E2,2.1E2,8.9E1,9E1,2E0,3.1E1,6.49E2,7.14E2,2.41E2,1.47E2,2.21E2,1.64E2,8.4E1,1.26E2,1E0,8.8E1,1E0,3E1],"tree_param":{"num_deleted":"0","num_feature":"105","num_nodes":"27","size_leaf_vector":"1"}},{"base_weights":[2.0502701E6,-2.7101252E7,4.3303923E8,-5.620156E7,7.1454744E7,3.478054E8,9.919804E7,-7.043855E7,-1.6237026E7,4.008144E7,1.4632698E8,2.3419792E8,4.1251404E7,-8.0662595E6,-5.2947495E6,-2.8058518E6,2.2268282E6,2.3807095E6,8.378968E6,1.0433562E7,1.749078E7,3.6088825E6,2.375694E7],"categories":[],"categories_nodes":[],"categories_segments":[],"categories_sizes":[],"default_left":[0,0,0,0,0,0,0,0,0,0,0,0,0,0,0,0,0,0,0,0,0,0,0],"id":5,"left_children":[1,3,5,7,9,11,-1,13,15,17,19,21,-1,-1,-1,-1,-1,-1,-1,-1,-1,-1,-1],"loss_changes":[3.2524018E19,6.9750027E18,6.0879915E18,1.0611101E18,1.2743642E18,6.1965946E17,0E0,2.2560824E17,2.3026392E17,2.7313264E17,1.0317845E17,1.2146855E15,0E0,0E0,0E0,0E0,0E0,0E0,0E0,0E0,0E0,0E0,0E0],"parents":[2147483647,0,0,1,1,2,2,3,3,4,4,5,5,7,7,8,8,9,9,10,10,11,11],"right_children":[2,4,6,8,10,12,-1,14,16,18,20,22,-1,-1,-1,-1,-1,-1,-1,-1,-1,-1,-1],"split_conditions":[1.602785E0,1.3487132E-1,5.38905E0,-3.1488687E-1,5.8706284E-1,1.9888271E0,9.919804E7,-4.9332365E-1,7.410613E-2,7.736964E-1,8.938037E-1,2.0292524E-1,4.1251404E7,-8.0662595E6,-5.2947495E6,-2.8058518E6,2.2268282E6,2.3807095E6,8.378968E6,1.0433562E7,1.749078E7,3.6088825E6,2.375694E7],"split_indices":[12,11,12,12,12,11,0,11,12,11,11,11,0,0,0,0,0,0,0,0,0,0,0],"split_type":[0,0,0,0,0,0,0,0,0,0,0,0,0,0,0,0,0,0,0,0,0,0,0],"sum_hessian":[2.579E3,2.42E3,1.59E2,1.87E3,5.5E2,1.45E2,1.4E1,1.376E3,4.94E2,3.93E2,1.57E2,6.1E1,8.4E1,8.57E2,5.19E2,3.79E2,1.15E2,2.92E2,1.01E2,7.3E1,8.4E1,2E0,5.9E1],"tree_param":{"num_deleted":"0","num_feature":"105","num_nodes":"23","size_leaf_vector":"1"}},{"base_weights":[1.9344466E6,-2.5020314E7,3.9005738E8,-5.18187E7,6.2913948E7,2.6308795E8,6.120082E8,-6.3587548E7,-1.2561551E7,3.627626E7,1.3021471E8,1.9481546E6,2.643704E7,4.489414E7,8.895725E7,-7.7202E6,-5.393764E6,-2.1180078E6,1.7497739E6,2.441386E6,8.864869E6,9.348318E6,1.6102959E7],"categories":[],"categories_nodes":[],"categories_segments":[],"categories_sizes":[],"default_left":[0,0,0,0,0,0,0,0,0,0,0,0,0,0,0,0,0,0,0,0,0,0,0],"id":6,"left_children":[1,3,5,7,9,11,13,15,17,19,21,-1,-1,-1,-1,-1,-1,-1,-1,-1,-1,-1,-1],"loss_changes":[2.6904135E19,5.683674E18,3.9011618E18,8.488796E17,9.8748514E17,1.017598E16,5.830754E17,1.6560514E17,1.1376985E17,2.4451771E17,1.0356877E17,0E0,0E0,0E0,0E0,0E0,0E0,0E0,0E0,0E0,0E0,0E0,0E0],"parents":[2147483647,0,0,1,1,2,2,3,3,4,4,5,5,6,6,7,7,8,8,9,9,10,10],"right_children":[2,4,6,8,10,12,14,16,18,20,22,-1,-1,-1,-1,-1,-1,-1,-1,-1,-1,-1,-1],"split_conditions":[1.602785E0,-4.763921E-2,3.2134762E0,-2.1456447E-1,8.404308E-1,-7.739191E-1,5.38905E0,-6.206533E-1,3.4655464E-1,7.04258E-1,7.04258E-1,1.9481546E6,2.643704E7,4.489414E7,8.895725E7,-7.7202E6,-5.393764E6,-2.1180078E6,1.7497739E6,2.441386E6,8.864869E6,9.348318E6,1.6102959E7],"split_indices":[12,12,11,11,11,15,12,11,11,12,12,0,0,0,0,0,0,0,0,0,0,0,0],"split_type":[0,0,0,0,0,0,0,0,0,0,0,0,0,0,0,0,0,0,0,0,0,0,0],"sum_hessian":[2.562E3,2.4E3,1.62E2,1.841E3,5.59E2,1.1E2,5.2E1,1.414E3,4.27E2,4.06E2,1.53E2,1E0,1.09E2,4.1E1,1.1E1,5.72E2,8.42E2,3.33E2,9.4E1,3.37E2,6.9E1,7.9E1,7.4E1],"tree_param":{"num_deleted":"0","num_feature":"105","num_nodes":"23","size_leaf_vector":"1"}},{"base_weights":[2.1415488E6,-2.6102862E7,3.0954192E8,-4.6405184E7,4.704933E7,2.3724336E8,5.9272796E7,-5.650825E7,-1.5222015E7,1.9335924E7,8.21503E7,1.682827E8,3.0936014E7,-6.513424E6,-4.5531815E6,-2.6530238E6,-4.393666E5,2.272662E5,3.5645925E6,6.011439E6,1.017213E7,1.2876085E6,1.6916646E7],"categories":[],"categories_nodes":[],"categories_segments":[],"categories_sizes":[],"default_left":[0,0,0,0,0,0,0,0,0,0,0,0,0,0,0,0,0,0,0,0,0,0,0],"id":7,"left_children":[1,3,5,7,9,11,-1,13,15,17,19,21,-1,-1,-1,-1,-1,-1,-1,-1,-1,-1,-1],"loss_changes":[2.2492936E19,3.5351998E18,3.7602132E18,5.816837E17,4.9595114E17,6.448262E17,0E0,1.1801113E17,5.59888E16,8.197226E16,6.7322685E16,3.392543E15,0E0,0E0,0E0,0E0,0E0,0E0,0E0,0E0,0E0,0E0,0E0],"parents":[2147483647,0,0,1,1,2,2,3,3,4,4,5,5,7,7,8,8,9,9,10,10,11,11],"right_children":[2,4,6,8,10,12,-1,14,16,18,20,22,-1,-1,-1,-1,-1,-1,-1,-1,-1,-1,-1],"split_conditions":[1.1918246E0,-6.538982E-2,4.0547915E0,-3.2903105E-1,3.1935945E-1,2.0989826E0,5.9272796E7,-5.4394597E-1,-2.4432479E-1,1.09918386E-1,5.7919526E-1,1.3719265E-1,3.0936014E7,-6.513424E6,-4.5531815E6,-2.6530238E6,-4.393666E5,2.272662E5,3.5645925E6,6.011439E6,1.017213E7,1.2876085E6,1.6916646E7],"split_indices":[12,12,12,12,12,12,0,9,9,9,9,2,0,0,0,0,0,0,0,0,0,0,0],"split_type":[0,0,0,0,0,0,0,0,0,0,0,0,0,0,0,0,0,0,0,0,0,0,0],"sum_hessian":[2.581E3,2.368E3,2.13E2,1.855E3,5.13E2,1.77E2,3.6E1,1.398E3,4.57E2,2.91E2,2.22E2,9.9E1,7.8E1,7.69E2,6.29E2,2.2E2,2.37E2,1.45E2,1.46E2,1.14E2,1.08E2,1E0,9.8E1],"tree_param":{"num_deleted":"0","num_feature":"105","num_nodes":"23","size_leaf_vector":"1"}},{"base_weights":[4.1942118E6,-2.0090936E7,3.3042512E8,-3.994922E7,6.2633056E7,2.6604134E8,8.2882504E7,-5.0940124E7,-4.1228522E6,4.0962268E7,1.23921144E8,1.9583406E8,3.4733452E7,-6.208427E6,-4.1718408E6,-1.1484644E6,2.0334664E6,1.2238004E6,5.8631645E6,8.5793694E5,1.2552616E7,2.5220798E6,1.980292E7],"categories":[],"categories_nodes":[],"categories_segments":[],"categories_sizes":[],"default_left":[0,0,0,0,0,0,0,0,0,0,0,0,0,0,0,0,0,0,0,0,0,0,0],"id":8,"left_children":[1,3,5,7,9,11,-1,13,15,17,19,21,-1,-1,-1,-1,-1,-1,-1,-1,-1,-1,-1],"loss_changes":[2.0354575E19,3.9419837E18,4.609311E18,7.597026E17,5.9221455E17,6.016165E17,0E0,1.3894089E17,8.381115E16,1.7455888E17,1.6645232E16,1.2480007E16,0E0,0E0,0E0,0E0,0E0,0E0,0E0,0E0,0E0,0E0,0E0],"parents":[2147483647,0,0,1,1,2,2,3,3,4,4,5,5,7,7,8,8,9,9,10,10,11,11],"right_children":[2,4,6,8,10,12,-1,14,16,18,20,22,-1,-1,-1,-1,-1,-1,-1,-1,-1,-1,-1],"split_conditions":[1.5775328E0,5.764708E-2,5.4454355E0,-1.6709712E-1,9.892665E-1,2.8519657E0,8.2882504E7,-5.8992535E-1,4.1457325E-1,2.2817978E-1,-7.617454E-1,-2.645684E-1,3.4733452E7,-6.208427E6,-4.1718408E6,-1.1484644E6,2.0334664E6,1.2238004E6,5.8631645E6,8.5793694E5,1.2552616E7,2.5220798E6,1.980292E7],"split_indices":[11,12,11,11,12,11,0,11,11,11,11,3,0,0,0,0,0,0,0,0,0,0,0],"split_type":[0,0,0,0,0,0,0,0,0,0,0,0,0,0,0,0,0,0,0,0,0,0,0],"sum_hessian":[2.56E3,2.387E3,1.73E2,1.927E3,4.6E2,1.6E2,1.3E1,1.473E3,4.54E2,3.46E2,1.14E2,9.5E1,6.5E1,6.54E2,8.19E2,3.51E2,1.03E2,1.35E2,2.11E2,2E0,1.12E2,2E0,9.3E1],"tree_param":{"num_deleted":"0","num_feature":"105","num_nodes":"23","size_leaf_vector":"1"}},{"base_weights":[4.774323E5,-1.8217944E7,3.0021072E8,-3.483258E7,5.915422E7,2.2107838E8,5.1200963E8,-4.613159E7,-7.3702885E6,3.4876384E7,9.702427E7,1.5686664E7,2.553109E8,7.778196E6,5.2571094E8,-5.3820975E6,-3.7620398E6,-1.6021484E6,4.6736984E5,1.7004622E6,4.3735355E6,7.479069E6,1.1519012E7,5.357502E6,2.6042198E7,4.3912915E6,5.334237E7],"categories":[],"categories_nodes":[],"categories_segments":[],"categories_sizes":[],"default_left":[0,0,0,0,0,0,0,0,0,0,0,0,0,0,0,0,0,0,0,0,0,0,0,0,0,0,0],"id":9,"left_children":[1,3,5,7,9,11,13,15,17,19,21,-1,23,-1,25,-1,-1,-1,-1,-1,-1,-1,-1,-1,-1,-1,-1],"loss_changes":[1.4316592E19,3.1019548E18,1.9480509E18,6.1361875E17,3.7566574E17,5.9130086E16,1.5675737E16,8.176188E16,6.12242E16,3.871267E16,2.3162587E16,0E0,1.3848349E15,0E0,1.2939053E16,0E0,0E0,0E0,0E0,0E0,0E0,0E0,0E0,0E0,0E0,0E0,0E0],"parents":[2147483647,0,0,1,1,2,2,3,3,4,4,5,5,6,6,7,7,8,8,9,9,10,10,12,12,14,14],"right_children":[2,4,6,8,10,12,14,16,18,20,22,-1,24,-1,26,-1,-1,-1,-1,-1,-1,-1,-1,-1,-1,-1,-1],"split_conditions":[1.6834439E0,9.6131735E-2,4.0547915E0,-3.2002604E-1,7.04258E-1,2.2191687E0,1.0763233E-1,-5.453075E-1,-1.3800737E-1,9.296046E-2,9.7571874E-1,1.5686664E7,4.3660346E-1,7.778196E6,7.7825373E-1,-5.3820975E6,-3.7620398E6,-1.6021484E6,4.6736984E5,1.7004622E6,4.3735355E6,7.479069E6,1.1519012E7,5.357502E6,2.6042198E7,4.3912915E6,5.334237E7],"split_indices":[12,12,12,12,12,12,4,2,9,2,9,0,3,0,8,0,0,0,0,0,0,0,0,0,0,0,0],"split_type":[0,0,0,0,0,0,0,0,0,0,0,0,0,0,0,0,0,0,0,0,0,0,0,0,0,0,0],"sum_hessian":[2.545E3,2.4E3,1.45E2,1.978E3,4.22E2,1.13E2,3.2E1,1.399E3,5.79E2,2.63E2,1.59E2,4.9E1,6.4E1,2E0,3E1,7.21E2,6.78E2,3.36E2,2.43E2,9.2E1,1.71E2,8.3E1,7.6E1,3E0,6.1E1,1E0,2.9E1],"tree_param":{"num_deleted":"0","num_feature":"105","num_nodes":"27","size_leaf_vector":"1"}},{"base_weights":[1.2415695E6,-1.674567E7,2.6262538E8,-3.638656E7,3.7640704E7,1.8906626E8,5.1391356E7,-4.379486E7,-1.6380163E7,1.7931146E7,7.562776E7,1.1860103E7,2.1175192E7,-5.169364E6,-3.796598E6,-2.2729965E6,-4.0601162E5,7.992653E5,3.5872392E6,5.4848395E6,9.831238E6],"categories":[],"categories_nodes":[],"categories_segments":[],"categories_sizes":[],"default_left":[0,0,0,0,0,0,0,0,0,0,0,0,0,0,0,0,0,0,0,0,0],"id":10,"left_children":[1,3,5,7,9,11,-1,13,15,17,19,-1,-1,-1,-1,-1,-1,-1,-1,-1,-1],"loss_changes":[1.1902863E19,2.5374065E18,2.5271626E18,2.5474887E17,4.656543E17,8.863548E16,0E0,4.8613257E16,3.7010652E16,7.3812775E16,7.3912195E16,0E0,0E0,0E0,0E0,0E0,0E0,0E0,0E0,0E0,0E0],"parents":[2147483647,0,0,1,1,2,2,3,3,4,4,5,5,7,7,8,8,9,9,10,10],"right_children":[2,4,6,8,10,12,-1,14,16,18,20,-1,-1,-1,-1,-1,-1,-1,-1,-1,-1],"split_conditions":[1.4824064E0,1.1577332E-2,4.0625725E0,-3.2974094E-1,6.7860544E-1,1.8238941E0,5.1391356E7,-6.34228E-1,-2.0306486E-1,1.5465376E-1,7.031401E-1,1.1860103E7,2.1175192E7,-5.169364E6,-3.796598E6,-2.2729965E6,-4.0601162E5,7.992653E5,3.5872392E6,5.4848395E6,9.831238E6],"split_indices":[11,11,11,11,11,11,0,11,8,8,8,0,0,0,0,0,0,0,0,0,0],"split_type":[0,0,0,0,0,0,0,0,0,0,0,0,0,0,0,0,0,0,0,0,0],"sum_hessian":[2.522E3,2.364E3,1.58E2,1.738E3,6.26E2,1.29E2,2.9E1,1.264E3,4.74E2,4.17E2,2.09E2,3.9E1,9E1,5.2E2,7.44E2,3.1E2,1.64E2,2.73E2,1.44E2,1.18E2,9.1E1],"tree_param":{"num_deleted":"0","num_feature":"105","num_nodes":"21","size_leaf_vector":"1"}},{"base_weights":[3.413178E5,-1.9698794E7,1.9063326E8,-3.618535E7,1.895873E7,1.336417E8,3.6588266E8,-4.108881E7,-1.7985808E7,5.995855E6,5.3075344E7,8.5222664E7,1.7392606E7,2.6300458E7,5.473187E7,-4.8206535E6,-3.5337065E6,-2.7727195E6,-1.4036024E6,-2.3299748E5,2.7445012E6,4.0948788E6,7.556236E6,5.525012E6,9.701339E6],"categories":[],"categories_nodes":[],"categories_segments":[],"categories_sizes":[],"default_left":[0,0,0,0,0,0,0,0,0,0,0,0,0,0,0,0,0,0,0,0,0,0,0,0,0],"id":11,"left_children":[1,3,5,7,9,11,13,15,17,19,21,23,-1,-1,-1,-1,-1,-1,-1,-1,-1,-1,-1,-1,-1],"loss_changes":[9.766011E18,1.4801227E18,2.1925218E18,1.4141025E17,3.0621444E17,3.0038988E17,3.4421366E17,4.376221E16,1.1674743E16,9.139658E16,3.6612844E16,7.4795653E15,0E0,0E0,0E0,0E0,0E0,0E0,0E0,0E0,0E0,0E0,0E0,0E0,0E0],"parents":[2147483647,0,0,1,1,2,2,3,3,4,4,5,5,6,6,7,7,8,8,9,9,10,10,11,11],"right_children":[2,4,6,8,10,12,14,16,18,20,22,24,-1,-1,-1,-1,-1,-1,-1,-1,-1,-1,-1,-1,-1],"split_conditions":[1.0073444E0,-1.2352336E-1,3.3218918E0,-3.3179262E-1,6.422342E-1,1.4824064E0,5.38905E0,-6.264413E-1,-4.5543653E-1,1.3063315E-1,1.1783572E0,6.422342E-1,1.7392606E7,2.6300458E7,5.473187E7,-4.8206535E6,-3.5337065E6,-2.7727195E6,-1.4036024E6,-2.3299748E5,2.7445012E6,4.0948788E6,7.556236E6,5.525012E6,9.701339E6],"split_indices":[12,11,12,12,11,11,12,11,11,12,11,11,0,0,0,0,0,0,0,0,0,0,0,0,0],"split_type":[0,0,0,0,0,0,0,0,0,0,0,0,0,0,0,0,0,0,0,0,0,0,0,0,0],"sum_hessian":[2.551E3,2.312E3,2.39E2,1.621E3,6.91E2,1.87E2,5.2E1,1.272E3,3.49E2,5.05E2,1.86E2,9.2E1,9.5E1,4.1E1,1.1E1,5.52E2,7.2E2,9.2E1,2.57E2,3.67E2,1.38E2,1.3E2,5.6E1,3.4E1,5.8E1],"tree_param":{"num_deleted":"0","num_feature":"105","num_nodes":"25","size_leaf_vector":"1"}},{"base_weights":[2.3459075E6,-1.0979654E7,2.7869542E8,-2.6349326E7,5.0548236E7,2.1116915E8,6.177725E7,-3.3605656E7,-1.5946559E6,2.3285662E7,8.200024E7,1.5069986E7,2.4822134E7,-4.0023545E6,-2.3971765E6,-1.1490861E6,9.887085E5,1.467527E6,4.1478005E6,6.3860525E6,1.1564511E7],"categories":[],"categories_nodes":[],"categories_segments":[],"categories_sizes":[],"default_left":[0,0,0,0,0,0,0,0,0,0,0,0,0,0,0,0,0,0,0,0,0],"id":12,"left_children":[1,3,5,7,9,11,-1,13,15,17,19,-1,-1,-1,-1,-1,-1,-1,-1,-1,-1],"loss_changes":[9.446216E18,2.3216435E18,2.0495282E18,3.521623E17,4.1146694E17,5.0460437E16,0E0,8.899777E16,5.1699612E16,3.9250177E16,1.01004024E17,0E0,0E0,0E0,0E0,0E0,0E0,0E0,0E0,0E0,0E0],"parents":[2147483647,0,0,1,1,2,2,3,3,4,4,5,5,7,7,8,8,9,9,10,10],"right_children":[2,4,6,8,10,12,-1,14,16,18,20,-1,-1,-1,-1,-1,-1,-1,-1,-1,-1],"split_conditions":[2.0989826E0,2.9054156E-1,5.38905E0,-2.586927E-1,4.3508202E-1,2.8519657E0,6.177725E7,-4.760539E-1,-1.0860435E-1,7.736964E-1,1.4224784E0,1.5069986E7,2.4822134E7,-4.0023545E6,-2.3971765E6,-1.1490861E6,9.887085E5,1.467527E6,4.1478005E6,6.3860525E6,1.1564511E7],"split_indices":[12,11,12,12,12,11,0,11,11,11,11,0,0,0,0,0,0,0,0,0,0],"split_type":[0,0,0,0,0,0,0,0,0,0,0,0,0,0,0,0,0,0,0,0,0],"sum_hessian":[2.556E3,2.443E3,1.13E2,1.957E3,4.86E2,1.01E2,1.2E1,1.512E3,4.45E2,2.65E2,2.21E2,4.8E1,5.3E1,8.98E2,6.14E2,2.39E2,2.06E2,1.86E2,7.9E1,1.53E2,6.8E1],"tree_param":{"num_deleted":"0","num_feature":"105","num_nodes":"21","size_leaf_vector":"1"}},{"base_weights":[2.703138E6,-9.136298E6,2.8857427E8,-2.21105E7,5.6707644E7,2.0585618E7,6.416188E8,-3.0635264E7,1.7801648E6,3.757478E7,9.986333E7,1.5992602E7,7.28322E7,-3.6572778E6,-2.320865E6,-4.3280434E5,2.153988E6,2.5595165E6,6.1965955E6,6.3764375E6,1.1018767E7],"categories":[],"categories_nodes":[],"categories_segments":[],"categories_sizes":[],"default_left":[0,0,0,0,0,0,0,0,0,0,0,0,0,0,0,0,0,0,0,0,0],"id":13,"left_children":[1,3,5,7,9,-1,11,13,15,17,19,-1,-1,-1,-1,-1,-1,-1,-1,-1,-1],"loss_changes":[8.681022E18,2.1111967E18,2.318318E18,4.202242E17,3.1729473E17,0E0,1.2760492E17,6.2781427E16,6.6487086E16,7.6806935E16,1.0338983E16,0E0,0E0,0E0,0E0,0E0,0E0,0E0,0E0,0E0,0E0],"parents":[2147483647,0,0,1,1,2,2,3,3,4,4,6,6,7,7,8,8,9,9,10,10],"right_children":[2,4,6,8,10,-1,12,14,16,18,20,-1,-1,-1,-1,-1,-1,-1,-1,-1,-1],"split_conditions":[2.3868282E0,1.955792E-1,5.4454355E0,-1.6045232E-1,1.1402673E0,2.0585618E7,4.365899E0,-5.273779E-1,4.8231113E-1,9.2473364E-1,8.661202E-1,1.5992602E7,7.28322E7,-3.6572778E6,-2.320865E6,-4.3280434E5,2.153988E6,2.5595165E6,6.1965955E6,6.3764375E6,1.1018767E7],"split_indices":[11,12,11,11,11,0,2,11,11,12,12,0,0,0,0,0,0,0,0,0,0],"split_type":[0,0,0,0,0,0,0,0,0,0,0,0,0,0,0,0,0,0,0,0,0],"sum_hessian":[2.556E3,2.459E3,9.7E1,2.057E3,4.02E2,8.5E1,1.2E1,1.515E3,5.42E2,2.85E2,1.17E2,4E0,8E0,8.31E2,6.84E2,4.17E2,1.25E2,1.98E2,8.7E1,3.4E1,8.3E1],"tree_param":{"num_deleted":"0","num_feature":"105","num_nodes":"21","size_leaf_vector":"1"}},{"base_weights":[1.4666695E6,-1.1768657E7,1.6756626E8,-2.4080352E7,2.5472244E7,1.4043147E8,4.8300452E7,-2.9649196E7,-8.946501E6,7.4485605E6,4.7929052E7,9.991831E7,1.9811554E7,-3.8847318E6,-2.6467365E6,-1.1113506E6,2.1751198E6,2.8369534E5,1.7889062E6,3.7661912E6,7.084896E6,7.8390625E6,1.2009231E7],"categories":[],"categories_nodes":[],"categories_segments":[],"categories_sizes":[],"default_left":[0,0,0,0,0,0,0,0,0,0,0,0,0,0,0,0,0,0,0,0,0,0,0],"id":14,"left_children":[1,3,5,7,9,11,-1,13,15,17,19,21,-1,-1,-1,-1,-1,-1,-1,-1,-1,-1,-1],"loss_changes":[5.6597026E18,1.09658624E18,1.2871301E18,1.4995284E17,2.3904376E17,3.2635072E17,0E0,3.3198654E16,3.3804468E16,1.5923808E16,4.8783544E16,3.7424627E15,0E0,0E0,0E0,0E0,0E0,0E0,0E0,0E0,0E0,0E0,0E0],"parents":[2147483647,0,0,1,1,2,2,3,3,4,4,5,5,7,7,8,8,9,9,10,10,11,11],"right_children":[2,4,6,8,10,12,-1,14,16,18,20,22,-1,-1,-1,-1,-1,-1,-1,-1,-1,-1,-1],"split_conditions":[1.4224784E0,3.388167E-2,5.4454355E0,-3.3179262E-1,2.1382993E-1,2.490446E0,4.8300452E7,-7.1806294E-1,4.794422E-1,5.563488E-1,1.1140726E0,2.241194E0,1.9811554E7,-3.8847318E6,-2.6467365E6,-1.1113506E6,2.1751198E6,2.8369534E5,1.7889062E6,3.7661912E6,7.084896E6,7.8390625E6,1.2009231E7],"split_indices":[11,11,11,12,12,12,0,11,12,11,12,11,0,0,0,0,0,0,0,0,0,0,0],"split_type":[0,0,0,0,0,0,0,0,0,0,0,0,0,0,0,0,0,0,0,0,0,0,0],"sum_hessian":[2.565E3,2.38E3,1.85E2,1.79E3,5.9E2,1.77E2,8E0,1.305E3,4.85E2,3.31E2,2.59E2,1.12E2,6.5E1,3.21E2,9.84E2,4.56E2,2.9E1,2.34E2,9.7E1,1.88E2,7.1E1,6.6E1,4.6E1],"tree_param":{"num_deleted":"0","num_feature":"105","num_nodes":"23","size_leaf_vector":"1"}},{"base_weights":[1.7001316E6,-6.5540115E6,2.4981869E8,-1.8641586E7,4.644185E7,1.9292683E8,5.686658E8,-2.502011E7,5.0202445E4,3.1078546E7,8.883509E7,4.4065375E6,1.9799602E8,4.1098005E6,6.0445224E7,-2.8040815E6,-1.3086281E6,-8.437231E5,8.931427E5,1.3121941E6,4.49232E6,7.0198655E6,1.0827897E7,1.6479936E6,1.9935378E7],"categories":[],"categories_nodes":[],"categories_segments":[],"categories_sizes":[],"default_left":[0,0,0,0,0,0,0,0,0,0,0,0,0,0,0,0,0,0,0,0,0,0,0,0,0],"id":15,"left_children":[1,3,5,7,9,11,13,15,17,19,21,-1,23,-1,-1,-1,-1,-1,-1,-1,-1,-1,-1,-1,-1],"loss_changes":[5.2797537E18,1.6032449E18,9.5704956E17,2.4275052E17,2.8905027E17,1.5235383E16,6.458861E16,5.288692E16,3.9799894E16,8.3815015E16,5.8408806E15,0E0,1.8111705E15,0E0,0E0,0E0,0E0,0E0,0E0,0E0,0E0,0E0,0E0,0E0,0E0],"parents":[2147483647,0,0,1,1,2,2,3,3,4,4,5,5,6,6,7,7,8,8,9,9,10,10,12,12],"right_children":[2,4,6,8,10,12,14,16,18,20,22,-1,24,-1,-1,-1,-1,-1,-1,-1,-1,-1,-1,-1,-1],"split_conditions":[2.490446E0,4.1457325E-1,5.624752E0,-2.7003956E-1,1.3566629E0,7.09126E-1,4.7650127E0,-3.0552334E-1,-1.1759431E-1,2.1382993E-1,2.241194E0,4.4065375E6,3.2715824E-1,4.1098005E6,6.0445224E7,-2.8040815E6,-1.3086281E6,-8.437231E5,8.931427E5,1.3121941E6,4.49232E6,7.0198655E6,1.0827897E7,1.6479936E6,1.9935378E7],"split_indices":[12,11,8,12,11,7,1,11,11,12,11,0,2,0,0,0,0,0,0,0,0,0,0,0,0],"split_type":[0,0,0,0,0,0,0,0,0,0,0,0,0,0,0,0,0,0,0,0,0,0,0,0,0],"sum_hessian":[2.569E3,2.491E3,7.8E1,2.031E3,4.6E2,7.3E1,5E0,1.513E3,5.18E2,3.44E2,1.16E2,4E0,6.9E1,1E0,4E0,1.202E3,3.11E2,2.65E2,2.53E2,1.54E2,1.9E2,7.1E1,4.5E1,1E0,6.8E1],"tree_param":{"num_deleted":"0","num_feature":"105","num_nodes":"25","size_leaf_vector":"1"}},{"base_weights":[-1.8614878E5,-1.1699018E7,1.1273251E8,-2.0677096E7,1.4243772E7,8.272045E7,2.3642323E8,-2.4369968E7,-8.923856E6,5.8024535E6,3.6148124E7,6.376169E7,1.160249E7,9.210613E6,2.5625198E7,-3.2397425E6,-2.1493845E6,-1.6253574E6,-4.7867956E5,-2.562884E4,1.82703E6,2.7164958E6,4.9089785E6,3.4238425E6,7.3066425E6],"categories":[],"categories_nodes":[],"categories_segments":[],"categories_sizes":[],"default_left":[0,0,0,0,0,0,0,0,0,0,0,0,0,0,0,0,0,0,0,0,0,0,0,0,0],"id":16,"left_children":[1,3,5,7,9,11,13,15,17,19,21,23,-1,-1,-1,-1,-1,-1,-1,-1,-1,-1,-1,-1,-1],"loss_changes":[3.2878394E18,5.3601573E17,7.708723E17,7.300194E16,1.085979E17,8.676686E16,5.038237E15,2.64403E16,1.222556E16,3.2807541E16,1.2398574E16,2.4851608E16,0E0,0E0,0E0,0E0,0E0,0E0,0E0,0E0,0E0,0E0,0E0,0E0,0E0],"parents":[2147483647,0,0,1,1,2,2,3,3,4,4,5,5,6,6,7,7,8,8,9,9,10,10,11,11],"right_children":[2,4,6,8,10,12,14,16,18,20,22,24,-1,-1,-1,-1,-1,-1,-1,-1,-1,-1,-1,-1,-1],"split_conditions":[1.0073444E0,-3.3347264E-2,3.607508E0,-3.3179262E-1,7.321865E-1,2.2191687E0,2.490446E0,-7.149629E-1,-3.644642E-1,8.3365105E-2,1.1783572E0,7.5104815E-1,1.160249E7,9.210613E6,2.5625198E7,-3.2397425E6,-2.1493845E6,-1.6253574E6,-4.7867956E5,-2.562884E4,1.82703E6,2.7164958E6,4.9089785E6,3.4238425E6,7.3066425E6],"split_indices":[12,11,11,12,11,12,12,11,11,12,11,11,0,0,0,0,0,0,0,0,0,0,0,0,0],"split_type":[0,0,0,0,0,0,0,0,0,0,0,0,0,0,0,0,0,0,0,0,0,0,0,0,0],"sum_hessian":[2.519E3,2.29E3,2.29E2,1.702E3,5.88E2,1.91E2,3.8E1,1.291E3,4.11E2,4.29E2,1.59E2,1.31E2,6E1,8E0,3E1,3.27E2,9.64E2,1.43E2,2.68E2,2.92E2,1.37E2,1.03E2,5.6E1,3.7E1,9.4E1],"tree_param":{"num_deleted":"0","num_feature":"105","num_nodes":"25","size_leaf_vector":"1"}},{"base_weights":[2.0826342E6,-6.1760765E6,1.6581762E8,-1.5247867E7,3.3599076E7,1.31445624E8,4.0345744E7,-2.0912372E7,-1.6195589E6,2.347324E7,6.2502944E7,9.170971E6,1.5633426E7,-2.6913545E6,-1.674584E6,-4.9074016E5,1.0929388E6,1.2483762E6,3.6025058E6,4.8594645E6,7.392621E6],"categories":[],"categories_nodes":[],"categories_segments":[],"categories_sizes":[],"default_left":[0,0,0,0,0,0,0,0,0,0,0,0,0,0,0,0,0,0,0,0,0],"id":17,"left_children":[1,3,5,7,9,11,-1,13,15,17,19,-1,-1,-1,-1,-1,-1,-1,-1,-1,-1],"loss_changes":[3.435753E18,8.757746E17,7.313509E17,1.5221876E17,1.2466105E17,4.1056176E16,0E0,3.2602238E16,2.4404666E16,4.4926114E16,1.5001462E14,0E0,0E0,0E0,0E0,0E0,0E0,0E0,0E0,0E0,0E0],"parents":[2147483647,0,0,1,1,2,2,3,3,4,4,5,5,7,7,8,8,9,9,10,10],"right_children":[2,4,6,8,10,12,-1,14,16,18,20,-1,-1,-1,-1,-1,-1,-1,-1,-1,-1],"split_conditions":[1.9888271E0,1.3063315E-1,5.38905E0,-2.3441769E-1,1.1918246E0,2.490446E0,4.0345744E7,-5.121259E-1,4.3934044E-1,6.0770565E-1,1.7483202E0,9.170971E6,1.5633426E7,-2.6913545E6,-1.674584E6,-4.9074016E5,1.0929388E6,1.2483762E6,3.6025058E6,4.8594645E6,7.392621E6],"split_indices":[11,12,12,11,12,12,0,12,11,11,12,0,0,0,0,0,0,0,0,0,0],"split_type":[0,0,0,0,0,0,0,0,0,0,0,0,0,0,0,0,0,0,0,0,0],"sum_hessian":[2.532E3,2.415E3,1.17E2,1.969E3,4.46E2,1.09E2,8E0,1.389E3,5.8E2,3.37E2,1.09E2,5.1E1,5.8E1,5.58E2,8.31E2,4.62E2,1.18E2,1.85E2,1.52E2,6.1E1,4.8E1],"tree_param":{"num_deleted":"0","num_feature":"105","num_nodes":"21","size_leaf_vector":"1"}},{"base_weights":[1.5401165E6,-5.144762E6,1.9531205E8,-1.3689761E7,3.2990754E7,1.2945866E8,4.429648E8,-1.8062926E7,5.266487E5,1.6967424E7,5.341892E7,1.3109971E7,1.9874396E6,1.2023497E7,5.3500794E8,-2.3551338E6,-1.3825505E6,-2.0074497E5,1.6486206E6,1.085868E6,3.2206835E6,3.4884845E6,6.3452785E6,4.22445E6,5.6316204E7],"categories":[],"categories_nodes":[],"categories_segments":[],"categories_sizes":[],"default_left":[0,0,0,0,0,0,0,0,0,0,0,0,0,0,0,0,0,0,0,0,0,0,0,0,0],"id":18,"left_children":[1,3,5,7,9,11,13,15,17,19,21,-1,-1,-1,23,-1,-1,-1,-1,-1,-1,-1,-1,-1,-1],"loss_changes":[3.3405296E18,8.149728E17,1.11582646E18,1.26937965E17,1.4538399E17,4.5987074E14,1.5364768E17,3.4675676E16,1.9780373E16,2.2828103E16,2.5940022E16,0E0,0E0,0E0,3.3653852E16,0E0,0E0,0E0,0E0,0E0,0E0,0E0,0E0,0E0,0E0],"parents":[2147483647,0,0,1,1,2,2,3,3,4,4,5,5,6,6,7,7,8,8,9,9,10,10,14,14],"right_children":[2,4,6,8,10,12,14,16,18,20,22,-1,-1,-1,24,-1,-1,-1,-1,-1,-1,-1,-1,-1,-1],"split_conditions":[2.622964E0,3.857874E-1,5.38905E0,-2.5219843E-1,6.6396964E-1,6.2433963E0,5.247316E0,-5.057055E-1,3.7876362E-1,1.0142308E0,1.0142308E0,1.3109971E7,1.9874396E6,1.2023497E7,2.3701081E0,-2.3551338E6,-1.3825505E6,-2.0074497E5,1.6486206E6,1.085868E6,3.2206835E6,3.4884845E6,6.3452785E6,4.22445E6,5.6316204E7],"split_indices":[11,11,12,12,12,40,2,12,12,11,11,0,0,0,3,0,0,0,0,0,0,0,0,0,0],"split_type":[0,0,0,0,0,0,0,0,0,0,0,0,0,0,0,0,0,0,0,0,0,0,0,0,0],"sum_hessian":[2.57E3,2.489E3,8.1E1,2.036E3,4.53E2,7E1,1.1E1,1.556E3,4.8E2,2.59E2,1.94E2,6.8E1,2E0,5E0,6E0,6.68E2,8.88E2,4.18E2,6.2E1,1.91E2,6.8E1,7.6E1,1.18E2,1E0,5E0],"tree_param":{"num_deleted":"0","num_feature":"105","num_nodes":"25","size_leaf_vector":"1"}},{"base_weights":[2.353509E6,-4.2818185E6,1.8614661E8,-1.2685695E7,3.118728E7,1.21688024E8,4.065977E8,-1.6905942E7,-1.9383068E6,1.9687752E7,5.272687E7,1.0605558E6,1.2246209E7,1.4328968E7,5.0902563E8,-2.182407E6,-1.3143204E6,-7.1874125E5,2.9446443E4,1.4387828E6,2.6479085E6,4.322348E6,6.565454E6,4.1540418E6,5.3500396E7],"categories":[],"categories_nodes":[],"categories_segments":[],"categories_sizes":[],"default_left":[0,0,0,0,0,0,0,0,0,0,0,0,0,0,0,0,0,0,0,0,0,0,0,0,0],"id":19,"left_children":[1,3,5,7,9,11,13,15,17,19,21,-1,-1,-1,23,-1,-1,-1,-1,-1,-1,-1,-1,-1,-1],"loss_changes":[3.1149997E18,7.3733635E17,1.0172962E18,9.045875E16,1.1221715E17,4.095681E13,1.2077146E17,2.5102847E16,6.6792915E15,9.505072E15,5.713681E15,0E0,0E0,0E0,2.246742E16,0E0,0E0,0E0,0E0,0E0,0E0,0E0,0E0,0E0,0E0],"parents":[2147483647,0,0,1,1,2,2,3,3,4,4,5,5,6,6,7,7,8,8,9,9,10,10,14,14],"right_children":[2,4,6,8,10,12,14,16,18,20,22,-1,-1,-1,24,-1,-1,-1,-1,-1,-1,-1,-1,-1,-1],"split_conditions":[2.490446E0,1.3063315E-1,5.38905E0,-3.0336353E-1,1.0073444E0,3.5293418E-1,5.247316E0,-5.166253E-1,-2.2939187E-1,2.927829E-1,1.4725683E0,1.0605558E6,1.2246209E7,1.4328968E7,2.3701081E0,-2.182407E6,-1.3143204E6,-7.1874125E5,2.9446443E4,1.4387828E6,2.6479085E6,4.322348E6,6.565454E6,4.1540418E6,5.3500396E7],"split_indices":[12,12,12,12,12,7,2,12,12,7,7,0,0,0,3,0,0,0,0,0,0,0,0,0,0],"split_type":[0,0,0,0,0,0,0,0,0,0,0,0,0,0,0,0,0,0,0,0,0,0,0,0,0],"sum_hessian":[2.546E3,2.462E3,8.4E1,1.993E3,4.69E2,7.1E1,1.3E1,1.429E3,5.64E2,3.12E2,1.57E2,1E0,7E1,7E0,6E0,6.09E2,8.2E2,1.65E2,3.99E2,1.84E2,1.28E2,1.03E2,5.4E1,1E0,5E0],"tree_param":{"num_deleted":"0","num_feature":"105","num_nodes":"25","size_leaf_vector":"1"}},{"base_weights":[2.0018192E6,-1.7714274E6,2.532551E8,-8.610677E6,5.4312772E7,1.4078032E8,3.9579034E8,-1.4710158E7,6.337759E6,4.0435404E7,9.082398E6,1.4354362E7,1.0567946E6,1.1316316E7,4.8993704E7,-2.1242202E6,-1.1786109E6,6.970178E4,1.7350666E6,2.7580098E6,4.9180595E6],"categories":[],"categories_nodes":[],"categories_segments":[],"categories_sizes":[],"default_left":[0,0,0,0,0,0,0,0,0,0,0,0,0,0,0,0,0,0,0,0,0],"id":20,"left_children":[1,3,5,7,9,11,13,15,17,19,-1,-1,-1,-1,-1,-1,-1,-1,-1,-1,-1],"loss_changes":[2.4349152E18,9.739309E17,3.3060418E17,2.0671011E17,1.21480985E17,2.8498998E15,9.530347E16,2.946107E16,4.087725E16,1.6714226E16,0E0,0E0,0E0,0E0,0E0,0E0,0E0,0E0,0E0,0E0,0E0],"parents":[2147483647,0,0,1,1,2,2,3,3,4,4,5,5,6,6,7,7,8,8,9,9],"right_children":[2,4,6,8,10,12,14,16,18,20,-1,-1,-1,-1,-1,-1,-1,-1,-1,-1,-1],"split_conditions":[4.0547915E0,8.938037E-1,5.4454355E0,-1.3009608E-1,2.3868282E0,5.543479E0,5.247316E0,-6.546912E-1,1.802183E-1,8.0264264E-1,9.082398E6,1.4354362E7,1.0567946E6,1.1316316E7,4.8993704E7,-2.1242202E6,-1.1786109E6,6.970178E4,1.7350666E6,2.7580098E6,4.9180595E6],"split_indices":[12,11,11,11,11,32,2,11,12,12,0,0,0,0,0,0,0,0,0,0,0],"split_type":[0,0,0,0,0,0,0,0,0,0,0,0,0,0,0,0,0,0,0,0,0],"sum_hessian":[2.561E3,2.528E3,3.3E1,2.257E3,2.71E2,2.4E1,9E0,1.603E3,6.54E2,2.04E2,6.7E1,2.3E1,1E0,5E0,4E0,4.86E2,1.117E3,4.36E2,2.18E2,9.1E1,1.13E2],"tree_param":{"num_deleted":"0","num_feature":"105","num_nodes":"21","size_leaf_vector":"1"}},{"base_weights":[1.9945255E6,-3.2705382E6,1.6469197E8,-8.955337E6,3.3160986E7,1.1653856E8,4.4349648E8,-1.4974832E7,-1.05791516E5,2.1968332E7,5.2299144E7,7.9395745E6,1.3911406E8,2.2633408E6,4.7768492E7,-2.0270322E6,-1.2766606E6,-3.8554884E5,9.421781E5,1.6177671E6,3.3984492E6,3.9928468E6,6.372178E6,1.4108235E7,1.0391818E6],"categories":[],"categories_nodes":[],"categories_segments":[],"categories_sizes":[],"default_left":[0,0,0,0,0,0,0,0,0,0,0,0,0,0,0,0,0,0,0,0,0,0,0,0,0],"id":21,"left_children":[1,3,5,7,9,11,13,15,17,19,21,-1,23,-1,-1,-1,-1,-1,-1,-1,-1,-1,-1,-1,-1],"loss_changes":[2.1861981E18,5.1386477E17,8.1560865E17,1.1420251E17,6.6014644E16,7.6634586E15,8.982845E16,1.3627192E16,3.1369997E16,1.2558983E16,4.235147E15,0E0,2.8040295E15,0E0,0E0,0E0,0E0,0E0,0E0,0E0,0E0,0E0,0E0,0E0,0E0],"parents":[2147483647,0,0,1,1,2,2,3,3,4,4,5,5,6,6,7,7,8,8,9,9,10,10,12,12],"right_children":[2,4,6,8,10,12,14,16,18,20,22,-1,24,-1,-1,-1,-1,-1,-1,-1,-1,-1,-1,-1,-1],"split_conditions":[2.6729598E0,6.236935E-1,5.624752E0,-3.2974094E-1,1.3566629E0,3.2134762E0,1.2079849E0,-7.05083E-1,4.619748E-2,8.661202E-1,2.241194E0,7.9395745E6,1.212741E1,2.2633408E6,4.7768492E7,-2.0270322E6,-1.2766606E6,-3.8554884E5,9.421781E5,1.6177671E6,3.3984492E6,3.9928468E6,6.372178E6,1.4108235E7,1.0391818E6],"split_indices":[12,11,8,11,11,11,4,11,12,12,11,0,75,0,0,0,0,0,0,0,0,0,0,0,0],"split_type":[0,0,0,0,0,0,0,0,0,0,0,0,0,0,0,0,0,0,0,0,0,0,0,0,0],"sum_hessian":[2.544E3,2.469E3,7.5E1,2.139E3,3.3E2,7E1,5E0,1.271E3,8.68E2,2.15E2,1.15E2,3.5E1,3.5E1,1E0,4E0,3.62E2,9.09E2,6.25E2,2.43E2,1.53E2,6.2E1,6.6E1,4.9E1,3.4E1,1E0],"tree_param":{"num_deleted":"0","num_feature":"105","num_nodes":"25","size_leaf_vector":"1"}},{"base_weights":[2.1247648E6,-1.4920261E6,2.4007749E8,-6.8070265E6,4.4490976E7,1.467449E8,4.280363E8,-1.1124345E7,7.223312E6,3.516663E7,7.461393E7,1.1381174E6,1.4919671E7,2.8712055E6,4.5645452E7,-1.6230419E6,-7.628377E5,3.479681E5,1.8435842E6,2.4817175E6,4.261193E6,7.650628E6,1.5206889E6],"categories":[],"categories_nodes":[],"categories_segments":[],"categories_sizes":[],"default_left":[0,0,0,0,0,0,0,0,0,0,0,0,0,0,0,0,0,0,0,0,0,0,0],"id":22,"left_children":[1,3,5,7,9,11,13,15,17,19,21,-1,-1,-1,-1,-1,-1,-1,-1,-1,-1,-1,-1],"loss_changes":[2.1843367E18,6.132466E17,3.5256115E17,1.3657085E17,5.990837E16,2.4620127E15,4.7952176E16,3.0101965E16,2.2010251E16,1.0739841E16,5.9078134E14,0E0,0E0,0E0,0E0,0E0,0E0,0E0,0E0,0E0,0E0,0E0,0E0],"parents":[2147483647,0,0,1,1,2,2,3,3,4,4,5,5,6,6,7,7,8,8,9,9,10,10],"right_children":[2,4,6,8,10,12,14,16,18,20,22,-1,-1,-1,-1,-1,-1,-1,-1,-1,-1,-1,-1],"split_conditions":[4.0625725E0,9.3214715E-1,2.3637147E0,-4.848402E-3,2.490446E0,-1.001725E0,3.149442E0,-4.8863056E-1,3.583342E-1,8.661202E-1,1.4913731E0,1.1381174E6,1.4919671E7,2.8712055E6,4.5645452E7,-1.6230419E6,-7.628377E5,3.479681E5,1.8435842E6,2.4817175E6,4.261193E6,7.650628E6,1.5206889E6],"split_indices":[11,11,13,11,12,18,1,12,12,12,64,0,0,0,0,0,0,0,0,0,0,0,0],"split_type":[0,0,0,0,0,0,0,0,0,0,0,0,0,0,0,0,0,0,0,0,0,0,0],"sum_hessian":[2.531E3,2.498E3,3.3E1,2.243E3,2.55E2,2.8E1,5E0,1.716E3,5.27E2,2.03E2,5.2E1,1E0,2.7E1,1E0,4E0,6.9E2,1.026E3,4E2,1.27E2,9.4E1,1.09E2,4.9E1,3E0],"tree_param":{"num_deleted":"0","num_feature":"105","num_nodes":"23","size_leaf_vector":"1"}},{"base_weights":[2.6510092E6,1.259441E4,2.4359256E8,-6.2208235E6,3.3190804E7,9.5795144E7,5.0238984E7,-1.1586623E7,4.0249862E5,2.1261002E7,8.047594E7,-5.623545E6,1.4826184E7,-1.5321581E6,-8.670338E5,-4.5421934E5,6.141328E5,-1.1395749E4,3.0919732E6,1.5459295E6,8.76288E6,-2.1291758E4,-6.5105144E5],"categories":[],"categories_nodes":[],"categories_segments":[],"categories_sizes":[],"default_left":[0,0,0,0,0,0,0,0,0,0,0,0,0,0,0,0,0,0,0,0,0,0,0],"id":23,"left_children":[1,3,5,7,9,11,-1,13,15,17,19,21,-1,-1,-1,-1,-1,-1,-1,-1,-1,-1,-1],"loss_changes":[1.643279E18,5.3088895E17,8.303552E17,7.682401E16,2.2047053E17,1.3187529E17,0E0,1.2341073E16,2.772167E16,6.8354233E16,3.0430943E16,5.545675E13,0E0,0E0,0E0,0E0,0E0,0E0,0E0,0E0,0E0,0E0,0E0],"parents":[2147483647,0,0,1,1,2,2,3,3,4,4,5,5,7,7,8,8,9,9,10,10,11,11],"right_children":[2,4,6,8,10,12,-1,14,16,18,20,22,-1,-1,-1,-1,-1,-1,-1,-1,-1,-1,-1],"split_conditions":[5.02514E0,1.9333684E-1,5.624752E0,-3.521842E-1,2.0740657E0,-2.871075E-1,5.0238984E7,-5.8791184E-1,-1.8343908E-1,1.12166464E-1,6.271152E-1,-6.023722E-1,1.4826184E7,-1.5321581E6,-8.670338E5,-4.5421934E5,6.141328E5,-1.1395749E4,3.0919732E6,1.5459295E6,8.76288E6,-2.1291758E4,-6.5105144E5],"split_indices":[7,3,8,7,8,1,0,1,1,8,7,6,0,0,0,0,0,0,0,0,0,0,0],"split_type":[0,0,0,0,0,0,0,0,0,0,0,0,0,0,0,0,0,0,0,0,0,0,0],"sum_hessian":[2.58E3,2.557E3,2.3E1,2.156E3,4.01E2,1.9E1,4E0,1.189E3,9.67E2,3.26E2,7.5E1,8E0,1.1E1,5.12E2,6.77E2,5.2E2,4.47E2,1.03E2,2.23E2,9E0,6.6E1,2E0,6E0],"tree_param":{"num_deleted":"0","num_feature":"105","num_nodes":"23","size_leaf_vector":"1"}},{"base_weights":[2.5804512E6,-8.611089E4,3.5753654E8,-5.6575375E6,4.363265E7,1.0577313E7,4.603264E8,-9.68286E6,5.380677E6,3.0071058E7,8.132887E7,3.1146668E6,4.851852E7,-1.5648894E6,-7.6439525E5,3.0509988E5,2.0699106E6,1.9553656E6,3.856696E6,2.0979015E6,8.516775E6],"categories":[],"categories_nodes":[],"categories_segments":[],"categories_sizes":[],"default_left":[0,0,0,0,0,0,0,0,0,0,0,0,0,0,0,0,0,0,0,0,0],"id":24,"left_children":[1,3,5,7,9,-1,11,13,15,17,19,-1,-1,-1,-1,-1,-1,-1,-1,-1,-1],"loss_changes":[2.4118675E18,6.184556E17,2.4824499E17,1.003222E17,1.3449206E17,0E0,5.246732E16,1.9497141E16,2.127488E16,1.5798092E16,7.978606E15,0E0,0E0,0E0,0E0,0E0,0E0,0E0,0E0,0E0,0E0],"parents":[2147483647,0,0,1,1,2,2,3,3,4,4,6,6,7,7,8,8,9,9,10,10],"right_children":[2,4,6,8,10,-1,12,14,16,18,20,-1,-1,-1,-1,-1,-1,-1,-1,-1,-1],"split_conditions":[5.38905E0,8.0264264E-1,5.247316E0,-7.324635E-2,2.490446E0,1.0577313E7,-7.3777795E-1,-6.8368816E-1,1.0142308E0,1.0901031E0,1.6003745E0,3.1146668E6,4.851852E7,-1.5648894E6,-7.6439525E5,3.0509988E5,2.0699106E6,1.9553656E6,3.856696E6,2.0979015E6,8.516775E6],"split_indices":[12,12,2,11,12,0,4,11,11,11,2,0,0,0,0,0,0,0,0,0,0],"split_type":[0,0,0,0,0,0,0,0,0,0,0,0,0,0,0,0,0,0,0,0,0],"sum_hessian":[2.543E3,2.529E3,1.4E1,2.247E3,2.82E2,7E0,7E0,1.647E3,6E2,2.14E2,6.8E1,1E0,6E0,4.11E2,1.236E3,5.26E2,7.4E1,1.03E2,1.11E2,6E0,6.2E1],"tree_param":{"num_deleted":"0","num_feature":"105","num_nodes":"21","size_leaf_vector":"1"}},{"base_weights":[2.0355015E6,-1.3489602E5,3.51376E8,-4.98353E6,3.9151656E7,9.292022E6,4.599894E7,-8.2097365E6,7.3738765E6,2.9017568E7,7.870835E7,-1.140321E6,-4.1207725E5,5.027056E5,2.0505812E6,2.2261588E6,4.0183438E6,3.750026E6,8.699892E6],"categories":[],"categories_nodes":[],"categories_segments":[],"categories_sizes":[],"default_left":[0,0,0,0,0,0,0,0,0,0,0,0,0,0,0,0,0,0,0],"id":25,"left_children":[1,3,5,7,9,-1,-1,11,13,15,17,-1,-1,-1,-1,-1,-1,-1,-1],"loss_changes":[1.9647533E18,4.924297E17,2.3543636E17,9.203791E16,1.0242772E17,0E0,0E0,2.362201E16,1.4246544E16,1.3179382E16,2.4776807E15,0E0,0E0,0E0,0E0,0E0,0E0,0E0,0E0],"parents":[2147483647,0,0,1,1,2,2,3,3,4,4,7,7,8,8,9,9,10,10],"right_children":[2,4,6,8,10,-1,-1,12,14,16,18,-1,-1,-1,-1,-1,-1,-1,-1],"split_conditions":[5.4454355E0,8.0264264E-1,5.247316E0,7.941981E-2,3.0488822E0,9.292022E6,4.599894E7,-4.5155266E-1,1.0378526E0,1.7483202E0,1.7945502E0,-1.140321E6,-4.1207725E5,5.027056E5,2.0505812E6,2.2261588E6,4.0183438E6,3.750026E6,8.699892E6],"split_indices":[11,12,2,11,11,0,0,11,11,12,2,0,0,0,0,0,0,0,0],"split_type":[0,0,0,0,0,0,0,0,0,0,0,0,0,0,0,0,0,0,0],"sum_hessian":[2.586E3,2.575E3,1.1E1,2.296E3,2.79E2,6E0,5E0,1.822E3,4.74E2,2.29E2,5E1,1.018E3,8.04E2,4.08E2,6.6E1,1.52E2,7.7E1,1.3E1,3.7E1],"tree_param":{"num_deleted":"0","num_feature":"105","num_nodes":"19","size_leaf_vector":"1"}},{"base_weights":[1.3423314E6,-8.634421E5,2.2288646E8,-4.4799595E6,3.4304396E7,1.1904456E7,3.6914764E7,-8.665448E6,3.7736498E6,2.5545536E7,6.064744E7,-1.2601705E6,-6.537072E5,1.1664619E5,1.2634558E6,1.7486084E6,2.8990742E6,4.2964584E5,6.1293155E6],"categories":[],"categories_nodes":[],"categories_segments":[],"categories_sizes":[],"default_left":[0,0,0,0,0,0,0,0,0,0,0,0,0,0,0,0,0,0,0],"id":26,"left_children":[1,3,5,7,9,-1,-1,11,13,15,17,-1,-1,-1,-1,-1,-1,-1,-1],"loss_changes":[1.2392678E18,3.2051176E17,1.5997578E17,7.906517E16,4.6476374E16,0E0,0E0,1.2297282E16,1.7761093E16,2.602123E15,6.8456625E14,0E0,0E0,0E0,0E0,0E0,0E0,0E0,0E0],"parents":[2147483647,0,0,1,1,2,2,3,3,4,4,7,7,8,8,9,9,10,10],"right_children":[2,4,6,8,10,-1,-1,12,14,16,18,-1,-1,-1,-1,-1,-1,-1,-1],"split_conditions":[4.781239E0,1.0378526E0,5.624752E0,-2.7003956E-1,2.8519657E0,1.1904456E7,3.6914764E7,-5.303884E-1,3.7876362E-1,5.735715E-1,-1.8274613E-1,-1.2601705E6,-6.537072E5,1.1664619E5,1.2634558E6,1.7486084E6,2.8990742E6,4.2964584E5,6.1293155E6],"split_indices":[12,11,8,12,11,0,0,12,12,2,4,0,0,0,0,0,0,0,0],"split_type":[0,0,0,0,0,0,0,0,0,0,0,0,0,0,0,0,0,0,0],"sum_hessian":[2.529E3,2.509E3,2E1,2.279E3,2.3E2,1.7E1,3E0,1.512E3,7.67E2,1.8E2,5E1,5.22E2,9.9E2,5.97E2,1.7E2,6.3E1,1.17E2,1E0,4.9E1],"tree_param":{"num_deleted":"0","num_feature":"105","num_nodes":"19","size_leaf_vector":"1"}},{"base_weights":[1.5202361E6,-3.3391747E5,2.6706598E8,-4.038245E6,3.2826236E7,9.067381E6,3.6284284E7,-8.06821E6,2.9213695E6,2.4551988E7,6.4327372E7,-1.3980612E6,-6.727563E5,6.3143664E4,1.2578481E6,1.9263954E6,3.9970345E6,6.537019E6,2.0310825E5],"categories":[],"categories_nodes":[],"categories_segments":[],"categories_sizes":[],"default_left":[0,0,0,0,0,0,0,0,0,0,0,0,0,0,0,0,0,0,0],"id":27,"left_children":[1,3,5,7,9,-1,-1,11,13,15,17,-1,-1,-1,-1,-1,-1,-1,-1],"loss_changes":[1.278127E18,3.1782552E17,1.3959537E17,6.5383228E16,5.9871724E16,0E0,0E0,1.1221229E16,1.8912103E16,1.359809E16,2.6492904E15,0E0,0E0,0E0,0E0,0E0,0E0,0E0,0E0],"parents":[2147483647,0,0,1,1,2,2,3,3,4,4,7,7,8,8,9,9,10,10],"right_children":[2,4,6,8,10,-1,-1,12,14,16,18,-1,-1,-1,-1,-1,-1,-1,-1],"split_conditions":[5.4454355E0,8.661202E-1,5.247316E0,-2.3441769E-1,3.0036402E0,9.067381E6,3.6284284E7,-7.407454E-1,6.7860544E-1,2.3868282E0,6.5615587E0,-1.3980612E6,-6.727563E5,6.3143664E4,1.2578481E6,1.9263954E6,3.9970345E6,6.537019E6,2.0310825E5],"split_indices":[11,12,2,11,12,0,0,11,11,11,6,0,0,0,0,0,0,0,0],"split_type":[0,0,0,0,0,0,0,0,0,0,0,0,0,0,0,0,0,0,0],"sum_hessian":[2.59E3,2.577E3,1.3E1,2.322E3,2.55E2,8E0,5E0,1.47E3,8.52E2,2.09E2,4.6E1,2.63E2,1.207E3,6.93E2,1.59E2,1.64E2,4.5E1,4.5E1,1E0],"tree_param":{"num_deleted":"0","num_feature":"105","num_nodes":"19","size_leaf_vector":"1"}},{"base_weights":[2.1417355E6,1.9641214E5,3.1065725E8,-3.5747875E6,3.1879214E7,6.1476855E6,3.9597708E7,-6.08554E6,5.548896E6,2.3984056E7,6.988559E7,-8.820605E5,-3.2196975E5,1.1393421E5,9.692976E5,2.0077642E6,3.9265728E6,1.3232455E6,7.389685E6],"categories":[],"categories_nodes":[],"categories_segments":[],"categories_sizes":[],"default_left":[0,0,0,0,0,0,0,0,0,0,0,0,0,0,0,0,0,0,0],"id":28,"left_children":[1,3,5,7,9,-1,-1,11,13,15,17,-1,-1,-1,-1,-1,-1,-1,-1],"loss_changes":[1.5325098E18,3.0441295E17,2.1844327E17,5.232879E16,7.293729E16,0E0,0E0,1.3872817E16,8.971913E15,9.907777E15,5.109843E15,0E0,0E0,0E0,0E0,0E0,0E0,0E0,0E0],"parents":[2147483647,0,0,1,1,2,2,3,3,4,4,7,7,8,8,9,9,10,10],"right_children":[2,4,6,8,10,-1,-1,12,14,16,18,-1,-1,-1,-1,-1,-1,-1,-1],"split_conditions":[5.4454355E0,8.661202E-1,5.247316E0,6.9144405E-2,3.2134762E0,6.1476855E6,3.9597708E7,-4.9332365E-1,5.764708E-2,2.6729598E0,1.7945502E0,-8.820605E5,-3.2196975E5,1.1393421E5,9.692976E5,2.0077642E6,3.9265728E6,1.3232455E6,7.389685E6],"split_indices":[11,12,2,11,11,0,0,11,12,12,2,0,0,0,0,0,0,0,0],"split_type":[0,0,0,0,0,0,0,0,0,0,0,0,0,0,0,0,0,0,0],"sum_hessian":[2.549E3,2.538E3,1.1E1,2.272E3,2.66E2,5E0,6E0,1.783E3,4.89E2,2.27E2,3.9E1,9.07E2,8.76E2,2.4E2,2.49E2,1.9E2,3.7E1,4E0,3.5E1],"tree_param":{"num_deleted":"0","num_feature":"105","num_nodes":"19","size_leaf_vector":"1"}},{"base_weights":[1.0208219E6,-5.3885944E5,1.5977938E8,-3.313088E6,2.6208994E7,7.962286E7,2.4020272E7,-6.2158185E6,3.351692E6,1.8564846E7,4.0612584E7,8.575419E6,6.983113E5,-1.3185084E6,-5.238949E5,-4.408237E4,6.473718E5,1.0750929E6,2.054113E6,3.015987E6,5.1932935E6],"categories":[],"categories_nodes":[],"categories_segments":[],"categories_sizes":[],"default_left":[0,0,0,0,0,0,0,0,0,0,0,0,0,0,0,0,0,0,0,0,0],"id":29,"left_children":[1,3,5,7,9,11,-1,13,15,17,19,-1,-1,-1,-1,-1,-1,-1,-1,-1,-1],"loss_changes":[6.363E17,1.8950763E17,6.55333E16,4.4851605E16,2.2654939E16,5.9134055E15,0E0,1.0636023E16,8.361704E15,1.4592753E15,1.5164928E15,0E0,0E0,0E0,0E0,0E0,0E0,0E0,0E0,0E0,0E0],"parents":[2147483647,0,0,1,1,2,2,3,3,4,4,5,5,7,7,8,8,9,9,10,10],"right_children":[2,4,6,8,10,12,-1,14,16,18,20,-1,-1,-1,-1,-1,-1,-1,-1,-1,-1],"split_conditions":[4.781239E0,1.0378526E0,4.7650127E0,-2.2939187E-1,2.3868282E0,1.7276015E0,2.4020272E7,-1.1441145E0,6.9144405E-2,3.2715824E-1,3.607508E0,8.575419E6,6.983113E5,-1.3185084E6,-5.238949E5,-4.408237E4,6.473718E5,1.0750929E6,2.054113E6,3.015987E6,5.1932935E6],"split_indices":[12,11,1,12,11,24,0,0,11,2,11,0,0,0,0,0,0,0,0,0,0],"split_type":[0,0,0,0,0,0,0,0,0,0,0,0,0,0,0,0,0,0,0,0,0],"sum_hessian":[2.563E3,2.543E3,2E1,2.308E3,2.35E2,1.5E1,5E0,1.608E3,7E2,1.61E2,7.4E1,1.3E1,2E0,1.9E2,1.418E3,3.18E2,3.82E2,3.9E1,1.22E2,4.8E1,2.6E1],"tree_param":{"num_deleted":"0","num_feature":"105","num_nodes":"21","size_leaf_vector":"1"}},{"base_weights":[1.4935509E6,-3.3043422E5,1.7442798E8,-3.1303702E6,2.2292554E7,9.028441E7,3.1784126E7,-5.733688E6,2.2076838E6,1.6242312E7,4.133473E7,9.4040456E7,6.4921582E4,-9.120186E5,-3.959052E5,5.282678E4,6.0875575E5,1.1514959E6,2.0033122E6,1.8167566E6,4.827454E6,7.2649706E5,9.633367E6],"categories":[],"categories_nodes":[],"categories_segments":[],"categories_sizes":[],"default_left":[0,0,0,0,0,0,0,0,0,0,0,0,0,0,0,0,0,0,0,0,0,0,0],"id":30,"left_children":[1,3,5,7,9,11,-1,13,15,17,19,21,-1,-1,-1,-1,-1,-1,-1,-1,-1,-1,-1],"loss_changes":[8.159898E17,1.6276016E17,1.8233669E17,3.1831038E16,2.9247508E16,7.774887E15,0E0,9.062536E15,4.89041E15,2.842869E15,6.065267E15,1.07757293E15,0E0,0E0,0E0,0E0,0E0,0E0,0E0,0E0,0E0,0E0,0E0],"parents":[2147483647,0,0,1,1,2,2,3,3,4,4,5,5,7,7,8,8,9,9,10,10,11,11],"right_children":[2,4,6,8,10,12,-1,14,16,18,20,22,-1,-1,-1,-1,-1,-1,-1,-1,-1,-1,-1],"split_conditions":[4.781239E0,8.0264264E-1,6.119012E0,-2.7003956E-1,2.490446E0,5.624752E0,3.1784126E7,-5.303884E-1,1.955792E-1,8.1079847E-1,7.0298684E-1,6.537315E-1,6.4921582E4,-9.120186E5,-3.959052E5,5.282678E4,6.0875575E5,1.1514959E6,2.0033122E6,1.8167566E6,4.827454E6,7.2649706E5,9.633367E6],"split_indices":[12,12,79,12,12,8,0,12,12,1,4,0,0,0,0,0,0,0,0,0,0,0,0],"split_type":[0,0,0,0,0,0,0,0,0,0,0,0,0,0,0,0,0,0,0,0,0,0,0],"sum_hessian":[2.581E3,2.559E3,2.2E1,2.281E3,2.78E2,1.9E1,3E0,1.533E3,7.48E2,2.18E2,6E1,1.8E1,1E0,5.2E2,1.013E3,5.26E2,2.22E2,1.06E2,1.12E2,1.8E1,4.2E1,1E0,1.7E1],"tree_param":{"num_deleted":"0","num_feature":"105","num_nodes":"23","size_leaf_vector":"1"}},{"base_weights":[1.2976328E6,-3.0238688E5,1.1182634E8,-2.9423528E6,1.7458324E7,7.152958E7,2.3343414E7,-5.4791635E6,1.3540822E6,1.2085574E7,2.8498192E7,8.062143E7,2.0511274E7,-1.0988689E6,-4.4595206E5,-1.6067736E5,2.531064E5,6.3224256E5,1.4139422E6,2.9290968E6,5.789279E4,2.332162E6,8.8008E6,2.2027718E6,6.383998E4],"categories":[],"categories_nodes":[],"categories_segments":[],"categories_sizes":[],"default_left":[0,0,0,0,0,0,0,0,0,0,0,0,0,0,0,0,0,0,0,0,0,0,0,0,0],"id":31,"left_children":[1,3,5,7,9,11,-1,13,15,17,19,21,23,-1,-1,-1,-1,-1,-1,-1,-1,-1,-1,-1,-1],"loss_changes":[4.5855933E17,1.2028928E17,9.7827535E16,2.4375103E16,1.7970306E16,7.966546E15,0E0,7.6479065E15,2.9232337E15,2.2991196E15,2.2392499E15,1.5885194E15,2.9132065E14,0E0,0E0,0E0,0E0,0E0,0E0,0E0,0E0,0E0,0E0,0E0,0E0],"parents":[2147483647,0,0,1,1,2,2,3,3,4,4,5,5,7,7,8,8,9,9,10,10,11,11,12,12],"right_children":[2,4,6,8,10,12,-1,14,16,18,20,22,24,-1,-1,-1,-1,-1,-1,-1,-1,-1,-1,-1,-1],"split_conditions":[4.0625725E0,7.736964E-1,2.3637147E0,-2.6905042E-1,1.8238941E0,1.7276015E0,2.3343414E7,-7.5418824E-1,-3.8954645E-1,-1.644785E-1,3.399618E0,2.13141E0,3.7793121E0,-1.0988689E6,-4.4595206E5,-1.6067736E5,2.531064E5,6.3224256E5,1.4139422E6,2.9290968E6,5.789279E4,2.332162E6,8.8008E6,2.2027718E6,6.383998E4],"split_indices":[11,11,13,11,11,24,0,11,6,4,15,10,1,0,0,0,0,0,0,0,0,0,0,0,0],"split_type":[0,0,0,0,0,0,0,0,0,0,0,0,0,0,0,0,0,0,0,0,0,0,0,0,0],"sum_hessian":[2.587E3,2.555E3,3.2E1,2.228E3,3.27E2,3E1,2E0,1.4E3,8.28E2,2.27E2,1E2,2.3E1,7E0,2.11E2,1.189E3,2.35E2,5.93E2,6.5E1,1.62E2,9.7E1,3E0,5E0,1.8E1,6E0,1E0],"tree_param":{"num_deleted":"0","num_feature":"105","num_nodes":"25","size_leaf_vector":"1"}},{"base_weights":[1.6370224E6,2.1092862E5,2.1431461E8,-2.172079E6,2.3103266E7,5.8850915E6,2.9371374E7,-3.8444148E6,5.725038E6,1.742839E7,4.778145E7,-6.672939E5,-1.7682994E5,4.8097934E5,2.3053218E6,1.3487244E6,2.181243E6,1.0523149E6,5.139431E6],"categories":[],"categories_nodes":[],"categories_segments":[],"categories_sizes":[],"default_left":[0,0,0,0,0,0,0,0,0,0,0,0,0,0,0,0,0,0,0],"id":32,"left_children":[1,3,5,7,9,-1,-1,11,13,15,17,-1,-1,-1,-1,-1,-1,-1,-1],"loss_changes":[7.740942E17,1.388691E17,1.2341599E17,3.0564536E16,2.9447198E16,0E0,0E0,1.1133687E16,5.8687013E15,2.0365103E15,2.9494314E15,0E0,0E0,0E0,0E0,0E0,0E0,0E0,0E0],"parents":[2147483647,0,0,1,1,2,2,3,3,4,4,7,7,8,8,9,9,10,10],"right_children":[2,4,6,8,10,-1,-1,12,14,16,18,-1,-1,-1,-1,-1,-1,-1,-1],"split_conditions":[5.4454355E0,1.1402673E0,5.247316E0,5.764708E-2,3.2134762E0,5.8850915E6,2.9371374E7,-4.6667048E-1,1.8785348E0,1.8238941E0,1.7945502E0,-6.672939E5,-1.7682994E5,4.8097934E5,2.3053218E6,1.3487244E6,2.181243E6,1.0523149E6,5.139431E6],"split_indices":[11,11,2,12,11,0,0,12,12,11,2,0,0,0,0,0,0,0,0],"split_type":[0,0,0,0,0,0,0,0,0,0,0,0,0,0,0,0,0,0,0],"sum_hessian":[2.548E3,2.536E3,1.2E1,2.301E3,2.35E2,7E0,5E0,1.901E3,4E2,1.98E2,3.7E1,8E2,1.101E3,3.86E2,1.4E1,1.15E2,8.3E1,5E0,3.2E1],"tree_param":{"num_deleted":"0","num_feature":"105","num_nodes":"19","size_leaf_vector":"1"}},{"base_weights":[5.856772E5,-4.1513484E5,1.0323192E8,-2.676648E6,1.3178087E7,2.2393702E7,1.1784305E8,-6.083203E6,-6.495795E5,9.611768E6,2.3466496E7,2.503444E6,-2.2882117E4,1.3044063E8,1.7421289E6,-4.611009E5,-8.9914094E5,-8.436E5,4.2092387E4,6.4334425E5,1.1747901E6,7.69936E5,2.5600802E6,6.404373E5,1.3619152E7],"categories":[],"categories_nodes":[],"categories_segments":[],"categories_sizes":[],"default_left":[0,0,0,0,0,0,0,0,0,0,0,0,0,0,0,0,0,0,0,0,0,0,0,0,0],"id":33,"left_children":[1,3,5,7,9,11,13,15,17,19,21,-1,-1,23,-1,-1,-1,-1,-1,-1,-1,-1,-1,-1,-1],"loss_changes":[2.6597571E17,7.908915E16,1.6333761E16,1.5206472E16,1.2338097E16,6.26043E14,1.3939196E16,3.3120469E15,1.1587276E16,1.5299039E15,2.0767756E15,0E0,0E0,7.765301E15,0E0,0E0,0E0,0E0,0E0,0E0,0E0,0E0,0E0,0E0,0E0],"parents":[2147483647,0,0,1,1,2,2,3,3,4,4,5,5,6,6,7,7,8,8,9,9,10,10,13,13],"right_children":[2,4,6,8,10,12,14,16,18,20,22,-1,-1,24,-1,-1,-1,-1,-1,-1,-1,-1,-1,-1,-1],"split_conditions":[4.781239E0,4.3508202E-1,1.3039927E0,-4.6667048E-1,2.0989826E0,3.7793121E0,9.6208286E-1,-5.2817655E-1,-6.173641E-1,8.661202E-1,3.5519788E-1,2.503444E6,-2.2882117E4,6.54243E-1,1.7421289E6,-4.611009E5,-8.9914094E5,-8.436E5,4.2092387E4,6.4334425E5,1.1747901E6,7.69936E5,2.5600802E6,6.404373E5,1.3619152E7],"split_indices":[12,12,4,12,12,1,19,2,9,12,4,0,0,1,0,0,0,0,0,0,0,0,0,0,0],"split_type":[0,0,0,0,0,0,0,0,0,0,0,0,0,0,0,0,0,0,0,0,0,0,0,0,0],"sum_hessian":[2.582E3,2.562E3,2E1,2.2E3,3.62E2,5E0,1.5E1,8.17E2,1.383E3,2.76E2,8.6E1,4E0,1E0,1.2E1,3E0,5.51E2,2.66E2,1.63E2,1.22E3,1.19E2,1.57E2,1.3E1,7.3E1,1E0,1.1E1],"tree_param":{"num_deleted":"0","num_feature":"105","num_nodes":"25","size_leaf_vector":"1"}},{"base_weights":[1.561409E6,6.835644E4,2.1314115E8,-2.0527262E6,1.806487E7,5.9557028E7,3.3363802E7,-3.9268008E6,1.7784091E6,1.219339E7,3.8474984E7,7.0537465E6,7.235792E6,-1.0292441E6,-3.003574E5,3.7312043E4,4.7554872E5,9.5962594E5,1.6292312E6,4.042488E5,3.9985625E6,8.462336E5,-2.250025E4],"categories":[],"categories_nodes":[],"categories_segments":[],"categories_sizes":[],"default_left":[0,0,0,0,0,0,0,0,0,0,0,0,0,0,0,0,0,0,0,0,0,0,0],"id":34,"left_children":[1,3,5,7,9,11,-1,13,15,17,19,-1,21,-1,-1,-1,-1,-1,-1,-1,-1,-1,-1],"loss_changes":[8.114734E17,9.7753275E16,2.337629E17,1.6483914E16,3.0010448E16,5.491167E15,0E0,8.8958995E15,3.153971E15,1.5283362E15,2.2086526E15,0E0,8.272822E13,0E0,0E0,0E0,0E0,0E0,0E0,0E0,0E0,0E0,0E0],"parents":[2147483647,0,0,1,1,2,2,3,3,4,4,5,5,7,7,8,8,9,9,10,10,12,12],"right_children":[2,4,6,8,10,12,-1,14,16,18,20,-1,22,-1,-1,-1,-1,-1,-1,-1,-1,-1,-1],"split_conditions":[5.38905E0,8.661202E-1,1.8773161E0,-2.7003956E-1,3.0036402E0,9.123006E0,3.3363802E7,-1.1441145E0,1.802183E-1,1.4725683E0,1.6003745E0,7.0537465E6,8.03552E-1,-1.0292441E6,-3.003574E5,3.7312043E4,4.7554872E5,9.5962594E5,1.6292312E6,4.042488E5,3.9985625E6,8.462336E5,-2.250025E4],"split_indices":[12,12,13,12,12,3,0,0,12,7,2,0,0,0,0,0,0,0,0,0,0,0,0],"split_type":[0,0,0,0,0,0,0,0,0,0,0,0,0,0,0,0,0,0,0,0,0,0,0],"sum_hessian":[2.564E3,2.551E3,1.3E1,2.286E3,2.65E2,9E0,4E0,1.535E3,7.51E2,2.12E2,5.3E1,6E0,3E0,1.88E2,1.347E3,5.14E2,2.37E2,1.4E2,7.2E1,3E0,5E1,2E0,1E0],"tree_param":{"num_deleted":"0","num_feature":"105","num_nodes":"23","size_leaf_vector":"1"}},{"base_weights":[1.1091745E6,1.0248685E4,1.7837643E8,-1.6660096E6,1.6815412E7,4.2295025E6,2.607203E7,-4.1530122E6,1.4578116E6,1.3704762E7,3.263273E7,-2.8113E5,-7.471598E5,-5.304295E5,2.4612173E5,1.053598E6,1.8288192E6,-1.5677011E5,3.3869168E6],"categories":[],"categories_nodes":[],"categories_segments":[],"categories_sizes":[],"default_left":[0,0,0,0,0,0,0,0,0,0,0,0,0,0,0,0,0,0,0],"id":35,"left_children":[1,3,5,7,9,-1,-1,11,13,15,17,-1,-1,-1,-1,-1,-1,-1,-1],"loss_changes":[5.058957E17,7.298715E16,1.241517E17,1.833392E16,9.326384E15,0E0,0E0,5.7412245E15,7.176097E15,2.0139789E15,1.7455177E15,0E0,0E0,0E0,0E0,0E0,0E0,0E0,0E0],"parents":[2147483647,0,0,1,1,2,2,3,3,4,4,7,7,8,8,9,9,10,10],"right_children":[2,4,6,8,10,-1,-1,12,14,16,18,-1,-1,-1,-1,-1,-1,-1,-1],"split_conditions":[5.4454355E0,1.1783572E0,5.247316E0,-3.2974094E-1,3.607508E0,4.2295025E6,2.607203E7,-3.3358818E-1,-4.3987092E-1,1.9888271E0,-1.001725E0,-2.8113E5,-7.471598E5,-5.304295E5,2.4612173E5,1.053598E6,1.8288192E6,-1.5677011E5,3.3869168E6],"split_indices":[11,11,2,11,11,0,0,12,12,11,18,0,0,0,0,0,0,0,0],"split_type":[0,0,0,0,0,0,0,0,0,0,0,0,0,0,0,0,0,0,0],"sum_hessian":[2.592E3,2.581E3,1.1E1,2.351E3,2.3E2,7E0,4E0,1.308E3,1.043E3,2E2,3E1,9.38E2,3.7E2,1.32E2,9.11E2,1.28E2,7.2E1,1E0,2.9E1],"tree_param":{"num_deleted":"0","num_feature":"105","num_nodes":"19","size_leaf_vector":"1"}},{"base_weights":[1.5597386E6,9.9184945E4,1.9670973E8,-1.6446594E6,1.4517388E7,6.483242E7,3.0722208E7,-5.007143E6,1.9936602E4,1.1746736E7,4.3710172E7,7.734298E7,5.54632E6,-3.4498072E5,-8.562306E5,-6.4454944E5,9.857933E4,8.452566E5,1.7735704E6,5.1753395E6,3.3403094E5,4.9464322E5,8.1676105E6,7.0121325E5,-7.857278E4],"categories":[],"categories_nodes":[],"categories_segments":[],"categories_sizes":[],"default_left":[0,0,0,0,0,0,0,0,0,0,0,0,0,0,0,0,0,0,0,0,0,0,0,0,0],"id":36,"left_children":[1,3,5,7,9,11,-1,13,15,17,19,21,23,-1,-1,-1,-1,-1,-1,-1,-1,-1,-1,-1,-1],"loss_changes":[7.2900164E17,6.408343E16,1.7731762E17,1.2728476E16,1.9675584E16,8.9806907E15,0E0,4.0213564E15,9.56115E15,4.340436E15,6.2791133E15,1.7444181E15,1.0180091E14,0E0,0E0,0E0,0E0,0E0,0E0,0E0,0E0,0E0,0E0,0E0,0E0],"parents":[2147483647,0,0,1,1,2,2,3,3,4,4,5,5,7,7,8,8,9,9,10,10,11,11,12,12],"right_children":[2,4,6,8,10,12,-1,14,16,18,20,22,24,-1,-1,-1,-1,-1,-1,-1,-1,-1,-1,-1,-1],"split_conditions":[5.38905E0,8.3114713E-1,6.119012E0,-4.7986197E-1,4.0547915E0,9.123006E0,3.0722208E7,-5.2817655E-1,-7.739191E-1,2.0989826E0,1.702475E0,6.54243E-1,8.03552E-1,-3.4498072E5,-8.562306E5,-6.4454944E5,9.857933E4,8.452566E5,1.7735704E6,5.1753395E6,3.3403094E5,4.9464322E5,8.1676105E6,7.0121325E5,-7.857278E4],"split_indices":[12,12,79,12,12,3,0,2,15,12,0,1,0,0,0,0,0,0,0,0,0,0,0,0,0],"split_type":[0,0,0,0,0,0,0,0,0,0,0,0,0,0,0,0,0,0,0,0,0,0,0,0,0],"sum_hessian":[2.553E3,2.539E3,1.4E1,2.269E3,2.7E2,1E1,4E0,7.48E2,1.521E3,2.53E2,1.7E1,7E0,3E0,5.27E2,2.21E2,1.94E2,1.327E3,1.71E2,8.2E1,1.3E1,4E0,1E0,6E0,2E0,1E0],"tree_param":{"num_deleted":"0","num_feature":"105","num_nodes":"25","size_leaf_vector":"1"}},{"base_weights":[1.4167336E6,7.501105E4,1.919205E8,-1.5421662E6,1.5188889E7,4.703892E7,2.843063E7,-2.9841605E6,2.0875364E6,1.2105409E7,3.9189104E7,6.8117944E5,5.1256675E6,-8.409875E5,-2.2921986E5,-4.1301247E5,2.7301447E5,8.508496E5,1.8063519E6,4.714588E6,6.9090094E5],"categories":[],"categories_nodes":[],"categories_segments":[],"categories_sizes":[],"default_left":[0,0,0,0,0,0,0,0,0,0,0,0,0,0,0,0,0,0,0,0,0],"id":37,"left_children":[1,3,5,7,9,11,-1,13,15,17,19,-1,-1,-1,-1,-1,-1,-1,-1,-1,-1],"loss_changes":[6.578507E17,6.271262E16,1.7406272E17,1.2163583E16,1.5981041E16,4.5993516E14,0E0,6.139656E15,2.7014123E15,4.0963272E15,5.049327E15,0E0,0E0,0E0,0E0,0E0,0E0,0E0,0E0,0E0,0E0],"parents":[2147483647,0,0,1,1,2,2,3,3,4,4,5,5,7,7,8,8,9,9,10,10],"right_children":[2,4,6,8,10,12,-1,14,16,18,20,-1,-1,-1,-1,-1,-1,-1,-1,-1,-1],"split_conditions":[5.4454355E0,1.0901031E0,5.247316E0,-8.118058E-2,4.0547915E0,8.03552E-1,2.843063E7,-1.1441145E0,-4.249601E-1,2.241194E0,9.3763393E-1,6.8117944E5,5.1256675E6,-8.409875E5,-2.2921986E5,-4.1301247E5,2.7301447E5,8.508496E5,1.8063519E6,4.714588E6,6.9090094E5],"split_indices":[11,11,2,11,12,0,0,0,12,11,21,0,0,0,0,0,0,0,0,0,0],"split_type":[0,0,0,0,0,0,0,0,0,0,0,0,0,0,0,0,0,0,0,0,0],"sum_hessian":[2.569E3,2.556E3,1.3E1,2.313E3,2.43E2,8E0,5E0,1.656E3,6.57E2,2.22E2,2.1E1,2E0,6E0,1.81E2,1.475E3,5.9E1,5.98E2,1.46E2,7.6E1,1.5E1,6E0],"tree_param":{"num_deleted":"0","num_feature":"105","num_nodes":"21","size_leaf_vector":"1"}},{"base_weights":[1.1236538E6,1.0812155E5,1.6274989E8,-5.624761E5,3.2402478E7,3.7336338E6,2.1932986E7,-1.9465628E6,7.037597E6,3.794698E7,9.826451E6,-5.6520044E5,-1.0458711E5,5.406663E5,1.442365E6,1.4194009E6,4.800743E6,1.2176721E6,-2.2287358E5],"categories":[],"categories_nodes":[],"categories_segments":[],"categories_sizes":[],"default_left":[0,0,0,0,0,0,0,0,0,0,0,0,0,0,0,0,0,0,0],"id":38,"left_children":[1,3,5,7,9,-1,-1,11,13,15,17,-1,-1,-1,-1,-1,-1,-1,-1],"loss_changes":[4.2059422E17,5.5358572E16,7.258945E16,2.641899E16,4.644565E15,0E0,0E0,7.0558727E15,4.2719484E15,6.1515313E15,6.173535E14,0E0,0E0,0E0,0E0,0E0,0E0,0E0,0E0],"parents":[2147483647,0,0,1,1,2,2,3,3,4,4,7,7,8,8,9,9,10,10],"right_children":[2,4,6,8,10,-1,-1,12,14,16,18,-1,-1,-1,-1,-1,-1,-1,-1],"split_conditions":[5.4454355E0,3.3218918E0,4.365899E0,5.4346937E-1,9.3763393E-1,3.7336338E6,2.1932986E7,-6.904095E-1,2.241194E0,6.537315E-1,4.0625725E0,-5.6520044E5,-1.0458711E5,5.406663E5,1.442365E6,1.4194009E6,4.800743E6,1.2176721E6,-2.2287358E5],"split_indices":[11,12,2,11,21,0,0,11,11,0,11,0,0,0,0,0,0,0,0],"split_type":[0,0,0,0,0,0,0,0,0,0,0,0,0,0,0,0,0,0,0],"sum_hessian":[2.558E3,2.547E3,1.1E1,2.5E3,4.7E1,6E0,5E0,2.118E3,3.82E2,3.5E1,1.2E1,4.09E2,1.709E3,3.2E2,6.2E1,1.4E1,2.1E1,1E1,2E0],"tree_param":{"num_deleted":"0","num_feature":"105","num_nodes":"19","size_leaf_vector":"1"}},{"base_weights":[8.4916075E5,1.1171421E5,1.14980184E8,-1.5561526E6,9.837876E6,3.192217E6,1.6184634E8,-6.7667695E6,-8.989888E5,7.123937E6,2.7825112E7,1.4186112E6,1.7143754E7,-4.4625697E5,-9.700395E5,-3.5990572E5,4.6102582E4,2.5309195E5,8.1881894E5,-1.6746422E5,2.935631E6],"categories":[],"categories_nodes":[],"categories_segments":[],"categories_sizes":[],"default_left":[0,0,0,0,0,0,0,0,0,0,0,0,0,0,0,0,0,0,0,0,0],"id":39,"left_children":[1,3,5,7,9,-1,11,13,15,17,19,-1,-1,-1,-1,-1,-1,-1,-1,-1,-1],"loss_changes":[2.0976045E17,4.033941E16,3.644931E16,7.2392216E15,1.6777991E16,0E0,5.8598816E14,1.3855962E15,6.9522985E15,1.4752483E15,2.3236267E15,0E0,0E0,0E0,0E0,0E0,0E0,0E0,0E0,0E0,0E0],"parents":[2147483647,0,0,1,1,2,2,3,3,4,4,6,6,7,7,8,8,9,9,10,10],"right_children":[2,4,6,8,10,-1,12,14,16,18,20,-1,-1,-1,-1,-1,-1,-1,-1,-1,-1],"split_conditions":[5.4454355E0,6.7860544E-1,4.7864122E0,-7.5187355E-1,3.2134762E0,3.192217E6,2.025671E0,-4.6066037E-1,-4.6667048E-1,1.802183E-1,-5.4384774E-1,1.4186112E6,1.7143754E7,-4.4625697E5,-9.700395E5,-3.5990572E5,4.6102582E4,2.5309195E5,8.1881894E5,-1.6746422E5,2.935631E6],"split_indices":[11,11,9,11,11,0,1,12,12,12,16,0,0,0,0,0,0,0,0,0,0],"split_type":[0,0,0,0,0,0,0,0,0,0,0,0,0,0,0,0,0,0,0,0,0],"sum_hessian":[2.488E3,2.477E3,1.1E1,2.118E3,3.59E2,7E0,4E0,2.32E2,1.886E3,3.18E2,4.1E1,1E0,3E0,1.37E2,9.5E1,6.29E2,1.257E3,6.3E1,2.55E2,2E0,3.9E1],"tree_param":{"num_deleted":"0","num_feature":"105","num_nodes":"21","size_leaf_vector":"1"}},{"base_weights":[9.92114E5,2.4360822E5,1.1847817E8,-7.529377E5,1.6578561E7,3.8264348E7,1.5960874E7,-2.0460594E6,3.0704805E6,1.020563E7,2.7666568E7,2.7057066E5,4.0267085E6,-7.733669E5,-1.5632905E5,1.10641305E5,4.790165E5,1.5729009E6,6.311354E5,3.6010468E6,8.86286E5],"categories":[],"categories_nodes":[],"categories_segments":[],"categories_sizes":[],"default_left":[0,0,0,0,0,0,0,0,0,0,0,0,0,0,0,0,0,0,0,0,0],"id":40,"left_children":[1,3,5,7,9,11,-1,13,15,17,19,-1,-1,-1,-1,-1,-1,-1,-1,-1,-1],"loss_changes":[2.2225339E17,4.1051757E16,2.2251212E16,1.1788588E16,8.8343784E15,3.098207E14,0E0,4.827075E15,2.0101789E15,1.6545986E15,6.2490314E15,0E0,0E0,0E0,0E0,0E0,0E0,0E0,0E0,0E0,0E0],"parents":[2147483647,0,0,1,1,2,2,3,3,4,4,5,5,7,7,8,8,9,9,10,10],"right_children":[2,4,6,8,10,12,-1,14,16,18,20,-1,-1,-1,-1,-1,-1,-1,-1,-1,-1],"split_conditions":[5.4454355E0,1.6513362E0,5.247316E0,6.9144405E-2,3.2134762E0,8.03552E-1,1.5960874E7,-1.293935E0,1.3063315E-1,1.602785E0,2.7173352E0,2.7057066E5,4.0267085E6,-7.733669E5,-1.5632905E5,1.10641305E5,4.790165E5,1.5729009E6,6.311354E5,3.6010468E6,8.86286E5],"split_indices":[11,11,2,11,11,0,0,0,12,12,3,0,0,0,0,0,0,0,0,0,0],"split_type":[0,0,0,0,0,0,0,0,0,0,0,0,0,0,0,0,0,0,0,0,0],"sum_hessian":[2.524E3,2.513E3,1.1E1,2.373E3,1.4E2,7E0,4E0,1.775E3,5.98E2,9.5E1,4.5E1,1E0,6E0,1.33E2,1.642E3,2.83E2,3.15E2,3.3E1,6.2E1,2.8E1,1.7E1],"tree_param":{"num_deleted":"0","num_feature":"105","num_nodes":"21","size_leaf_vector":"1"}},{"base_weights":[1.227988E6,6.558434E4,1.6452747E8,-9.107549E5,1.173515E7,4.3552132E7,2.3953168E8,-4.351853E6,6.0948367E4,8.738529E6,3.0484332E7,2.6606078E5,4.5851175E6,1.4513429E6,2.564707E7,-3.2023856E5,-7.7826494E5,-4.8894497E5,7.904856E4,-2.3080961E5,9.062523E5,4.2101515E6,8.705707E5],"categories":[],"categories_nodes":[],"categories_segments":[],"categories_sizes":[],"default_left":[0,0,0,0,0,0,0,0,0,0,0,0,0,0,0,0,0,0,0,0,0,0,0],"id":41,"left_children":[1,3,5,7,9,11,13,15,17,19,21,-1,-1,-1,-1,-1,-1,-1,-1,-1,-1,-1,-1],"loss_changes":[4.8341736E17,2.8924453E16,1.1116533E17,7.835676E15,9.68016E15,6.1218746E14,1.9504443E16,1.9102769E15,6.635592E15,7.344974E14,4.4925358E15,0E0,0E0,0E0,0E0,0E0,0E0,0E0,0E0,0E0,0E0,0E0,0E0],"parents":[2147483647,0,0,1,1,2,2,3,3,4,4,5,5,6,6,7,7,8,8,9,9,10,10],"right_children":[2,4,6,8,10,12,14,16,18,20,22,-1,-1,-1,-1,-1,-1,-1,-1,-1,-1,-1,-1],"split_conditions":[5.4454355E0,1.3297551E0,2.3637147E0,-5.303884E-1,4.0625725E0,8.03552E-1,-1.4437554E0,-5.2817655E-1,-7.739191E-1,-1.4437554E0,6.8317705E-1,2.6606078E5,4.5851175E6,1.4513429E6,2.564707E7,-3.2023856E5,-7.7826494E5,-4.8894497E5,7.904856E4,-2.3080961E5,9.062523E5,4.2101515E6,8.705707E5],"split_indices":[11,11,13,12,11,0,0,2,15,0,22,0,0,0,0,0,0,0,0,0,0,0,0],"split_type":[0,0,0,0,0,0,0,0,0,0,0,0,0,0,0,0,0,0,0,0,0,0,0],"sum_hessian":[2.542E3,2.529E3,1.3E1,2.338E3,1.91E2,8E0,5E0,5.11E2,1.827E3,1.71E2,2E1,1E0,7E0,1E0,4E0,3.9E2,1.21E2,2.31E2,1.596E3,4E0,1.67E2,1E1,1E1],"tree_param":{"num_deleted":"0","num_feature":"105","num_nodes":"23","size_leaf_vector":"1"}},{"base_weights":[9.0112275E5,2.3561623E4,1.31908904E8,-8.770713E5,9.056673E6,3.1004506E7,1.8703973E8,-2.435967E6,7.2645975E5,6.677862E6,2.2806488E7,4.48501E5,3.40659E6,1.427153E6,1.9830758E7,-6.3697094E5,-1.7986303E5,-1.8682892E5,1.3599833E5,1.9836811E5,7.658499E5,3.0692925E6,6.820537E5],"categories":[],"categories_nodes":[],"categories_segments":[],"categories_sizes":[],"default_left":[0,0,0,0,0,0,0,0,0,0,0,0,0,0,0,0,0,0,0,0,0,0,0],"id":42,"left_children":[1,3,5,7,9,11,13,15,17,19,21,-1,-1,-1,-1,-1,-1,-1,-1,-1,-1,-1,-1],"loss_changes":[2.93726E17,2.072834E16,6.5574633E16,5.80074E15,6.7941035E15,2.1030952E14,5.3165167E15,2.891088E15,1.8965386E15,8.631102E14,2.9875986E15,0E0,0E0,0E0,0E0,0E0,0E0,0E0,0E0,0E0,0E0,0E0,0E0],"parents":[2147483647,0,0,1,1,2,2,3,3,4,4,5,5,6,6,7,7,8,8,9,9,10,10],"right_children":[2,4,6,8,10,12,14,16,18,20,22,-1,-1,-1,-1,-1,-1,-1,-1,-1,-1,-1,-1],"split_conditions":[5.4454355E0,1.1402673E0,5.247316E0,-3.703372E-1,3.607508E0,8.03552E-1,-1.4437554E0,-7.670745E-1,-4.4361508E-1,4.2909524E-1,2.7173352E0,4.48501E5,3.40659E6,1.427153E6,1.9830758E7,-6.3697094E5,-1.7986303E5,-1.8682892E5,1.3599833E5,1.9836811E5,7.658499E5,3.0692925E6,6.820537E5],"split_indices":[11,11,2,11,11,0,0,11,7,1,3,0,0,0,0,0,0,0,0,0,0,0,0],"split_type":[0,0,0,0,0,0,0,0,0,0,0,0,0,0,0,0,0,0,0,0,0,0,0],"sum_hessian":[2.55E3,2.538E3,1.2E1,2.312E3,2.26E2,7E0,5E0,1.171E3,1.141E3,1.99E2,2.7E1,2E0,5E0,1E0,4E0,1.57E2,1.014E3,2.22E2,9.19E2,3.7E1,1.62E2,1.5E1,1.2E1],"tree_param":{"num_deleted":"0","num_feature":"105","num_nodes":"23","size_leaf_vector":"1"}},{"base_weights":[1.2081091E6,1.295619E5,1.5372664E8,-4.1323256E5,1.8326428E7,4.57682E7,2.362583E7,-1.4868599E6,3.507864E6,3.4930372E7,1.0310306E7,4.8115835E6,2.5415038E5,-4.5729997E5,-8.3797195E4,1.5725381E5,4.2624247E5,4.2685005E6,4.2823166E5,-1.0368456E5,1.2545901E6],"categories":[],"categories_nodes":[],"categories_segments":[],"categories_sizes":[],"default_left":[0,0,0,0,0,0,0,0,0,0,0,0,0,0,0,0,0,0,0,0,0],"id":43,"left_children":[1,3,5,7,9,11,-1,13,15,17,19,-1,-1,-1,-1,-1,-1,-1,-1,-1,-1],"loss_changes":[4.2167443E17,2.5234498E16,1.0631425E17,1.0474793E16,8.0486313E15,8.0928995E14,0E0,3.889834E15,7.477565E14,4.3146597E15,1.5109963E15,0E0,0E0,0E0,0E0,0E0,0E0,0E0,0E0,0E0,0E0],"parents":[2147483647,0,0,1,1,2,2,3,3,4,4,5,5,7,7,8,8,9,9,10,10],"right_children":[2,4,6,8,10,12,-1,14,16,18,20,-1,-1,-1,-1,-1,-1,-1,-1,-1,-1],"split_conditions":[5.38905E0,2.490446E0,6.119012E0,5.764708E-2,-1.6200763E-1,6.5615587E0,2.362583E7,-5.5762696E-1,-1.8274613E-1,1.3604292E0,5.1211727E-1,4.8115835E6,2.5415038E5,-4.5729997E5,-8.3797195E4,1.5725381E5,4.2624247E5,4.2685005E6,4.2823166E5,-1.0368456E5,1.2545901E6],"split_indices":[12,12,79,12,24,6,0,12,4,16,4,0,0,0,0,0,0,0,0,0,0],"split_type":[0,0,0,0,0,0,0,0,0,0,0,0,0,0,0,0,0,0,0,0,0],"sum_hessian":[2.559E3,2.546E3,1.3E1,2.477E3,6.9E1,9E0,4E0,1.947E3,5.3E2,1.7E1,5.2E1,8E0,1E0,3.33E2,1.614E3,1.53E2,3.77E2,1.2E1,5E0,9E0,4.3E1],"tree_param":{"num_deleted":"0","num_feature":"105","num_nodes":"21","size_leaf_vector":"1"}},{"base_weights":[6.016269E5,-9.220607E3,9.608761E7,-7.681476E5,7.2728305E6,2.672977E7,1.3518272E7,-3.8103532E6,-1.9355067E5,5.286343E6,2.3060976E7,3.6220658E6,3.4435555E6,-3.050704E5,-8.0310856E5,-4.1183312E5,3.2970695E4,5.7596694E5,-1.16191664E5,2.9058478E6,-4.645119E4,-1.7887786E5,5.215584E5],"categories":[],"categories_nodes":[],"categories_segments":[],"categories_sizes":[],"default_left":[0,0,0,0,0,0,0,0,0,0,0,0,0,0,0,0,0,0,0,0,0,0,0],"id":44,"left_children":[1,3,5,7,9,11,-1,13,15,17,19,-1,21,-1,-1,-1,-1,-1,-1,-1,-1,-1,-1],"loss_changes":[1.4681442E17,1.3877457E16,2.5317819E16,3.9713598E15,6.823478E15,2.0284417E15,0E0,1.0349631E15,3.945731E15,6.957734E14,3.5948425E15,0E0,1.3009423E14,0E0,0E0,0E0,0E0,0E0,0E0,0E0,0E0,0E0,0E0],"parents":[2147483647,0,0,1,1,2,2,3,3,4,4,5,5,7,7,8,8,9,9,10,10,12,12],"right_children":[2,4,6,8,10,12,-1,14,16,18,20,-1,22,-1,-1,-1,-1,-1,-1,-1,-1,-1,-1],"split_conditions":[5.38905E0,9.892665E-1,9.795737E-1,-5.5268866E-1,4.0547915E0,2.8521163E0,1.3518272E7,-4.7742605E-1,-1.1441145E0,6.2433963E0,1.5526545E0,3.6220658E6,1.2079849E0,-3.050704E5,-8.0310856E5,-4.1183312E5,3.2970695E4,5.7596694E5,-1.16191664E5,2.9058478E6,-4.645119E4,-1.7887786E5,5.215584E5],"split_indices":[12,12,16,12,12,8,0,2,0,40,0,0,4,0,0,0,0,0,0,0,0,0,0],"split_type":[0,0,0,0,0,0,0,0,0,0,0,0,0,0,0,0,0,0,0,0,0,0,0],"sum_hessian":[2.512E3,2.501E3,1.1E1,2.269E3,2.32E2,7E0,4E0,3.56E2,1.913E3,2.12E2,2E1,3E0,4E0,3.09E2,4.7E1,2.21E2,1.692E3,1.98E2,1.4E1,1.5E1,5E0,1E0,3E0],"tree_param":{"num_deleted":"0","num_feature":"105","num_nodes":"23","size_leaf_vector":"1"}},{"base_weights":[9.361567E5,1.4764202E5,1.1155004E8,-1.4800723E5,2.4819604E7,2.6937526E7,1.657713E8,-1.036088E6,4.757966E6,3.2634816E7,4.23264E6,2.9203765E6,4.1352047E5,1.0750869E6,1.7702308E7,-4.900238E5,-6.198826E4,3.5315703E5,9.5118944E5,5.307898E5,4.1796285E6,7.223467E5,-3.9178056E5],"categories":[],"categories_nodes":[],"categories_segments":[],"categories_sizes":[],"default_left":[0,0,0,0,0,0,0,0,0,0,0,0,0,0,0,0,0,0,0,0,0,0,0],"id":45,"left_children":[1,3,5,7,9,11,13,15,17,19,21,-1,-1,-1,-1,-1,-1,-1,-1,-1,-1,-1,-1],"loss_changes":[2.2180704E17,1.8480106E16,6.0252997E16,1.0943041E16,4.136088E15,6.7964636E13,7.926809E15,3.404015E15,2.0766666E15,4.1481954E15,4.827726E14,0E0,0E0,0E0,0E0,0E0,0E0,0E0,0E0,0E0,0E0,0E0,0E0],"parents":[2147483647,0,0,1,1,2,2,3,3,4,4,5,5,6,6,7,7,8,8,9,9,10,10],"right_children":[2,4,6,8,10,12,14,16,18,20,22,-1,-1,-1,-1,-1,-1,-1,-1,-1,-1,-1,-1],"split_conditions":[5.4454355E0,4.0547915E0,4.7864122E0,6.236935E-1,2.8179069E0,9.123006E0,2.025671E0,-7.582396E-1,2.241194E0,1.3687906E0,4.335338E0,2.9203765E6,4.1352047E5,1.0750869E6,1.7702308E7,-4.900238E5,-6.198826E4,3.5315703E5,9.5118944E5,5.307898E5,4.1796285E6,7.223467E5,-3.9178056E5],"split_indices":[11,12,9,11,3,3,1,11,11,1,11,0,0,0,0,0,0,0,0,0,0,0,0],"split_type":[0,0,0,0,0,0,0,0,0,0,0,0,0,0,0,0,0,0,0,0,0,0,0],"sum_hessian":[2.539E3,2.526E3,1.3E1,2.501E3,2.5E1,8E0,5E0,2.121E3,3.8E2,1.6E1,9E0,6E0,2E0,1E0,4E0,2.01E2,1.92E3,3.09E2,7.1E1,6E0,1E1,7E0,2E0],"tree_param":{"num_deleted":"0","num_feature":"105","num_nodes":"23","size_leaf_vector":"1"}},{"base_weights":[1.0683594E6,1.5356766E5,1.306212E8,-9.601422E4,2.444867E7,2.9330072E7,1.9698907E8,-8.3067806E5,3.8105942E6,3.1083142E7,1.2729599E6,4.0170422E5,3.2106515E6,1.0491969E6,2.118821E7,-4.1484006E5,-3.2132035E4,3.3172456E5,1.1218984E6,8.0435256E5,3.8084578E6,-3.37984E5,5.13016E5],"categories":[],"categories_nodes":[],"categories_segments":[],"categories_sizes":[],"default_left":[0,0,0,0,0,0,0,0,0,0,0,0,0,0,0,0,0,0,0,0,0,0,0],"id":46,"left_children":[1,3,5,7,9,11,13,15,17,19,21,-1,-1,-1,-1,-1,-1,-1,-1,-1,-1,-1,-1],"loss_changes":[3.0424335E17,1.550428E16,9.211605E16,7.288518E15,3.7998843E15,2.6877476E14,1.6659766E16,3.6046673E15,1.2831972E15,1.6945342E15,2.8411017E14,0E0,0E0,0E0,0E0,0E0,0E0,0E0,0E0,0E0,0E0,0E0,0E0],"parents":[2147483647,0,0,1,1,2,2,3,3,4,4,5,5,6,6,7,7,8,8,9,9,10,10],"right_children":[2,4,6,8,10,12,14,16,18,20,22,-1,-1,-1,-1,-1,-1,-1,-1,-1,-1,-1,-1],"split_conditions":[5.4454355E0,4.0547915E0,5.624752E0,6.0770565E-1,9.3763393E-1,8.03552E-1,-1.4437554E0,-8.3526E-1,3.607508E0,1.8622339E0,1.4184968E0,4.0170422E5,3.2106515E6,1.0491969E6,2.118821E7,-4.1484006E5,-3.2132035E4,3.3172456E5,1.1218984E6,8.0435256E5,3.8084578E6,-3.37984E5,5.13016E5],"split_indices":[11,12,8,11,21,0,0,20,11,7,4,0,0,0,0,0,0,0,0,0,0,0,0],"split_type":[0,0,0,0,0,0,0,0,0,0,0,0,0,0,0,0,0,0,0,0,0,0,0],"sum_hessian":[2.563E3,2.55E3,1.3E1,2.529E3,2.1E1,8E0,5E0,2.132E3,3.97E2,1.5E1,6E0,2E0,6E0,1E0,4E0,2.79E2,1.853E3,3.79E2,1.8E1,6E0,9E0,3E0,3E0],"tree_param":{"num_deleted":"0","num_feature":"105","num_nodes":"23","size_leaf_vector":"1"}},{"base_weights":[8.528551E5,1.3247426E4,1.4291006E8,-3.358047E5,1.6766475E7,2.5956192E7,1.8840891E8,-1.7527234E6,1.0881361E6,2.2832506E7,3.305408E6,2.2763305E5,2.732266E6,1.0317098E6,2.0246518E7,-5.231721E5,-1.2121587E5,4.781061E4,3.538296E5,-1.0473315E5,2.60827E6,5.253484E5,-3.3871522E5],"categories":[],"categories_nodes":[],"categories_segments":[],"categories_sizes":[],"default_left":[0,0,0,0,0,0,0,0,0,0,0,0,0,0,0,0,0,0,0,0,0,0,0],"id":47,"left_children":[1,3,5,7,9,11,13,15,17,19,21,-1,-1,-1,-1,-1,-1,-1,-1,-1,-1,-1,-1],"loss_changes":[3.0449277E17,1.4898977E16,5.536711E16,5.0454865E15,3.8687186E15,1.260036E13,1.4588733E16,2.3247133E15,1.8568911E15,2.8530802E15,3.7579927E14,0E0,0E0,0E0,0E0,0E0,0E0,0E0,0E0,0E0,0E0,0E0,0E0],"parents":[2147483647,0,0,1,1,2,2,3,3,4,4,5,5,6,6,7,7,8,8,9,9,10,10],"right_children":[2,4,6,8,10,12,14,16,18,20,22,-1,-1,-1,-1,-1,-1,-1,-1,-1,-1,-1,-1],"split_conditions":[5.4454355E0,3.0488822E0,1.3604292E0,-3.5506073E-1,2.7173352E0,8.03552E-1,-1.4437554E0,-1.1441145E0,8.5995424E-1,1.6003745E0,2.275332E0,2.2763305E5,2.732266E6,1.0317098E6,2.0246518E7,-5.231721E5,-1.2121587E5,4.781061E4,3.538296E5,-1.0473315E5,2.60827E6,5.253484E5,-3.3871522E5],"split_indices":[11,11,16,11,3,0,0,0,11,2,22,0,0,0,0,0,0,0,0,0,0,0,0],"split_type":[0,0,0,0,0,0,0,0,0,0,0,0,0,0,0,0,0,0,0,0,0,0,0],"sum_hessian":[2.548E3,2.538E3,1E1,2.491E3,4.7E1,5E0,5E0,1.248E3,1.243E3,3E1,1.7E1,1E0,4E0,1E0,4E0,1.62E2,1.086E3,1E3,2.43E2,4E0,2.6E1,1.4E1,3E0],"tree_param":{"num_deleted":"0","num_feature":"105","num_nodes":"23","size_leaf_vector":"1"}},{"base_weights":[7.828478E5,-1.6042511E4,1.2950906E8,-2.205101E5,2.6241606E7,2.7578714E7,1.934667E7,-9.9431694E5,2.4944878E6,3.6315278E6,6.84991E6,2.2383998E5,2.8864924E7,-5.834428E4,-4.601348E5,2.1019025E5,9.732498E5,8.2111894E5,-1.5809066E5,2.3935038E5,3.0315318E6],"categories":[],"categories_nodes":[],"categories_segments":[],"categories_sizes":[],"default_left":[0,0,0,0,0,0,0,0,0,0,0,0,0,0,0,0,0,0,0,0,0],"id":48,"left_children":[1,3,5,7,9,11,-1,13,15,-1,17,-1,19,-1,-1,-1,-1,-1,-1,-1,-1],"loss_changes":[2.6677248E17,1.3896642E16,7.762978E16,5.407472E15,2.6631288E15,6.80602E13,0E0,2.9536122E15,1.5202337E15,0E0,2.1410264E14,0E0,5.9533615E13,0E0,0E0,0E0,0E0,0E0,0E0,0E0,0E0],"parents":[2147483647,0,0,1,1,2,2,3,3,4,4,5,5,7,7,8,8,10,10,12,12],"right_children":[2,4,6,8,10,12,-1,14,16,-1,18,-1,20,-1,-1,-1,-1,-1,-1,-1,-1],"split_conditions":[5.4454355E0,4.781239E0,5.624752E0,9.6131735E-2,3.173849E0,8.03552E-1,1.934667E7,1.1693953E-1,3.607508E0,3.6315278E6,3.3853052E0,2.2383998E5,2.57312E0,-5.834428E4,-4.601348E5,2.1019025E5,9.732498E5,8.2111894E5,-1.5809066E5,2.3935038E5,3.0315318E6],"split_indices":[11,12,8,12,10,0,0,9,11,0,7,0,6,0,0,0,0,0,0,0,0],"split_type":[0,0,0,0,0,0,0,0,0,0,0,0,0,0,0,0,0,0,0,0,0],"sum_hessian":[2.589E3,2.578E3,1.1E1,2.563E3,1.5E1,7E0,4E0,1.997E3,5.66E2,7E0,8E0,1E0,6E0,1.798E3,1.99E2,5.43E2,2.3E1,7E0,1E0,1E0,5E0],"tree_param":{"num_deleted":"0","num_feature":"105","num_nodes":"21","size_leaf_vector":"1"}},{"base_weights":[6.9205775E5,7.625391E4,9.896591E7,-5.871629E5,3.7291298E6,2.6098092E7,1.5552243E7,-3.585151E6,-9.4749695E4,2.9763148E6,1.381199E7,2.8442012E7,3.7732934E5,-4.8066956E5,1.3137067E5,-2.6265266E5,5.860825E4,2.5464698E5,8.696461E5,2.5269878E6,4.0571553E5,2.3536105E5,2.9874048E6],"categories":[],"categories_nodes":[],"categories_segments":[],"categories_sizes":[],"default_left":[0,0,0,0,0,0,0,0,0,0,0,0,0,0,0,0,0,0,0,0,0,0,0],"id":49,"left_children":[1,3,5,7,9,11,-1,13,15,17,19,21,-1,-1,-1,-1,-1,-1,-1,-1,-1,-1,-1],"loss_changes":[1.5549202E17,6.2123744E15,4.5644215E16,3.2017612E15,2.7851247E15,1.4365753E14,0E0,1.86273E15,3.2293204E15,8.0639675E14,2.3933958E15,5.939564E13,0E0,0E0,0E0,0E0,0E0,0E0,0E0,0E0,0E0,0E0,0E0],"parents":[2147483647,0,0,1,1,2,2,3,3,4,4,5,5,7,7,8,8,9,9,10,10,11,11],"right_children":[2,4,6,8,10,12,-1,14,16,18,20,22,-1,-1,-1,-1,-1,-1,-1,-1,-1,-1,-1],"split_conditions":[5.4454355E0,3.7876362E-1,5.624752E0,-7.739191E-1,4.0547915E0,9.123006E0,1.5552243E7,-4.306406E-1,-5.399772E-1,3.607508E0,-2.4789895E-1,-7.1254677E-1,3.7732934E5,-4.8066956E5,1.3137067E5,-2.6265266E5,5.860825E4,2.5464698E5,8.696461E5,2.5269878E6,4.0571553E5,2.3536105E5,2.9874048E6],"split_indices":[11,12,8,15,12,3,0,1,12,11,24,21,0,0,0,0,0,0,0,0,0,0,0],"split_type":[0,0,0,0,0,0,0,0,0,0,0,0,0,0,0,0,0,0,0,0,0,0,0],"sum_hessian":[2.565E3,2.554E3,1.1E1,2.165E3,3.89E2,8E0,3E0,3.01E2,1.864E3,3.68E2,2.1E1,6E0,2E0,2.41E2,6E1,3.92E2,1.472E3,3.49E2,1.9E1,6E0,1.5E1,1E0,5E0],"tree_param":{"num_deleted":"0","num_feature":"105","num_nodes":"23","size_leaf_vector":"1"}},{"base_weights":[6.4879956E5,4.2884016E4,8.15113E7,-4.3434253E5,6.096864E6,2.14894E7,1.5061053E7,-3.191367E6,-2.9692473E4,3.1214238E6,1.3081141E7,3.1416378E6,-1.749759E5,-4.709138E5,2.820745E5,-2.1866011E5,1.5740073E4,3.48389E4,6.4478056E5,1.4674349E6,-3.0373184E5,3.7145784E5,-3.468976E5],"categories":[],"categories_nodes":[],"categories_segments":[],"categories_sizes":[],"default_left":[0,0,0,0,0,0,0,0,0,0,0,0,0,0,0,0,0,0,0,0,0,0,0],"id":50,"left_children":[1,3,5,7,9,11,-1,13,15,17,19,-1,21,-1,-1,-1,-1,-1,-1,-1,-1,-1,-1],"loss_changes":[1.2516691E17,7.354494E15,6.2619206E16,2.632413E15,3.6611622E15,3.4684744E15,0E0,2.822169E15,8.3422995E14,1.2524798E15,1.6095776E15,0E0,1.9255082E14,0E0,0E0,0E0,0E0,0E0,0E0,0E0,0E0,0E0,0E0],"parents":[2147483647,0,0,1,1,2,2,3,3,4,4,5,5,7,7,8,8,9,9,10,10,12,12],"right_children":[2,4,6,8,10,12,-1,14,16,18,20,-1,22,-1,-1,-1,-1,-1,-1,-1,-1,-1,-1],"split_conditions":[4.7864122E0,1.3671098E0,4.7650127E0,-8.3526E-1,2.6825535E0,-2.660234E-1,1.5061053E7,-4.221718E-1,-7.739191E-1,1.3024529E0,2.7564197E0,3.1416378E6,1.1613919E0,-4.709138E5,2.820745E5,-2.1866011E5,1.5740073E4,3.48389E4,6.4478056E5,1.4674349E6,-3.0373184E5,3.7145784E5,-3.468976E5],"split_indices":[9,2,1,20,1,20,0,6,15,8,81,0,7,0,0,0,0,0,0,0,0,0,0],"split_type":[0,0,0,0,0,0,0,0,0,0,0,0,0,0,0,0,0,0,0,0,0,0,0],"sum_hessian":[2.55E3,2.536E3,1.4E1,2.355E3,1.81E2,1.1E1,3E0,2.97E2,2.058E3,1.32E2,4.9E1,6E0,5E0,2.38E2,5.9E1,1.6E2,1.898E3,7.5E1,5.7E1,4.5E1,4E0,2E0,3E0],"tree_param":{"num_deleted":"0","num_feature":"105","num_nodes":"23","size_leaf_vector":"1"}},{"base_weights":[7.6691406E5,7.458893E4,1.0917902E8,-3.6105606E5,4.6194435E6,1.7125319E6,1.712623E7,-3.968557E6,-7.059225E4,3.3787515E6,1.4511727E7,-5.4016044E5,1.9513447E5,-3.5569988E5,1.81741E4,7.0203075E5,1.435555E5,2.2712782E6,1.1279131E5],"categories":[],"categories_nodes":[],"categories_segments":[],"categories_sizes":[],"default_left":[0,0,0,0,0,0,0,0,0,0,0,0,0,0,0,0,0,0,0],"id":51,"left_children":[1,3,5,7,9,-1,-1,11,13,15,17,-1,-1,-1,-1,-1,-1,-1,-1],"loss_changes":[1.892516E17,4.9799765E15,7.677531E16,2.4044596E15,2.454963E15,0E0,0E0,1.5033803E15,1.8770705E15,1.3790141E15,2.3964216E15,0E0,0E0,0E0,0E0,0E0,0E0,0E0,0E0],"parents":[2147483647,0,0,1,1,2,2,3,3,4,4,7,7,8,8,9,9,10,10],"right_children":[2,4,6,8,10,-1,-1,12,14,16,18,-1,-1,-1,-1,-1,-1,-1,-1],"split_conditions":[5.4454355E0,1.1783572E0,5.624752E0,-1.293935E0,4.0625725E0,1.7125319E6,1.712623E7,-4.848402E-3,-7.670745E-1,8.6921597E-1,1.1263623E0,-5.4016044E5,1.9513447E5,-3.5569988E5,1.81741E4,7.0203075E5,1.435555E5,2.2712782E6,1.1279131E5],"split_indices":[11,11,8,0,11,0,0,11,11,8,24,0,0,0,0,0,0,0,0],"split_type":[0,0,0,0,0,0,0,0,0,0,0,0,0,0,0,0,0,0,0],"sum_hessian":[2.517E3,2.506E3,1.1E1,2.291E3,2.15E2,7E0,4E0,1.66E2,2.125E3,1.97E2,1.8E1,1.34E2,3.2E1,1.39E2,1.986E3,6.4E1,1.33E2,9E0,9E0],"tree_param":{"num_deleted":"0","num_feature":"105","num_nodes":"19","size_leaf_vector":"1"}},{"base_weights":[6.623352E5,1.1551672E5,8.300495E7,-3.832136E4,1.5759283E7,1.4757371E7,1.23399576E8,-1.7621148E6,7.594383E5,1.9020072E7,-3.05744E6,1.2297385E5,1.5428184E6,7.7690244E5,1.319313E7,-3.9316902E4,-4.523406E5,4.936904E5,-3.680196E4,2.1753525E6,-2.3755517E5,1.1372371E5,-4.4689922E5],"categories":[],"categories_nodes":[],"categories_segments":[],"categories_sizes":[],"default_left":[0,0,0,0,0,0,0,0,0,0,0,0,0,0,0,0,0,0,0,0,0,0,0],"id":52,"left_children":[1,3,5,7,9,11,13,15,17,19,21,-1,-1,-1,-1,-1,-1,-1,-1,-1,-1,-1,-1],"loss_changes":[1.16030285E17,6.178373E15,3.776095E16,3.5078813E15,1.824698E15,1.4031121E13,4.74039E15,3.0416148E15,8.22318E15,1.545028E15,7.2779555E13,0E0,0E0,0E0,0E0,0E0,0E0,0E0,0E0,0E0,0E0,0E0,0E0],"parents":[2147483647,0,0,1,1,2,2,3,3,4,4,5,5,6,6,7,7,8,8,9,9,10,10],"right_children":[2,4,6,8,10,12,14,16,18,20,22,-1,-1,-1,-1,-1,-1,-1,-1,-1,-1,-1,-1],"split_conditions":[5.4454355E0,4.0547915E0,4.7864122E0,-4.6667048E-1,9.3763393E-1,-1.4437554E0,2.1929138E0,-5.326631E-1,-3.3358818E-1,4.369262E0,3.212073E0,1.2297385E5,1.5428184E6,7.7690244E5,1.319313E7,-3.9316902E4,-4.523406E5,4.936904E5,-3.680196E4,2.1753525E6,-2.3755517E5,1.1372371E5,-4.4689922E5],"split_indices":[11,12,9,12,21,0,2,2,12,53,2,0,0,0,0,0,0,0,0,0,0,0,0],"split_type":[0,0,0,0,0,0,0,0,0,0,0,0,0,0,0,0,0,0,0,0,0,0,0],"sum_hessian":[2.573E3,2.561E3,1.2E1,2.541E3,2E1,7E0,5E0,8.02E2,1.739E3,1.7E1,3E0,1E0,6E0,1E0,4E0,5.4E2,2.62E2,3.66E2,1.373E3,1.5E1,2E0,1E0,2E0],"tree_param":{"num_deleted":"0","num_feature":"105","num_nodes":"23","size_leaf_vector":"1"}},{"base_weights":[5.0730994E5,-1.5095301E4,7.9640776E7,-4.3201634E5,5.123738E6,9.256948E5,1.1382426E8,-2.815651E6,-1.0790277E5,3.901135E6,1.2608307E7,1.5957559E6,1.2670711E7,-3.9635372E5,2.4830017E5,3.3549242E4,-1.4565561E5,6.6384975E5,7.141537E4,1.7853104E6,2.1112867E5],"categories":[],"categories_nodes":[],"categories_segments":[],"categories_sizes":[],"default_left":[0,0,0,0,0,0,0,0,0,0,0,0,0,0,0,0,0,0,0,0,0],"id":53,"left_children":[1,3,5,7,9,-1,11,13,15,17,19,-1,-1,-1,-1,-1,-1,-1,-1,-1,-1],"loss_changes":[1.0715861E17,5.538686E15,3.5633059E16,1.8456919E15,1.5292934E15,0E0,3.7591272E15,1.7887307E15,1.2641945E15,1.494258E15,1.1879031E15,0E0,0E0,0E0,0E0,0E0,0E0,0E0,0E0,0E0,0E0],"parents":[2147483647,0,0,1,1,2,2,3,3,4,4,6,6,7,7,8,8,9,9,10,10],"right_children":[2,4,6,8,10,-1,12,14,16,18,20,-1,-1,-1,-1,-1,-1,-1,-1,-1,-1],"split_conditions":[5.4454355E0,1.3297551E0,3.6950686E0,-8.3526E-1,4.0625725E0,9.256948E5,2.9597895E0,-4.0641817E-1,9.118269E-2,1.0482545E0,2.0507922E0,1.5957559E6,1.2670711E7,-3.9635372E5,2.4830017E5,3.3549242E4,-1.4565561E5,6.6384975E5,7.141537E4,1.7853104E6,2.1112867E5],"split_indices":[11,11,10,20,11,0,2,6,9,5,6,0,0,0,0,0,0,0,0,0,0],"split_type":[0,0,0,0,0,0,0,0,0,0,0,0,0,0,0,0,0,0,0,0,0],"sum_hessian":[2.587E3,2.575E3,1.2E1,2.386E3,1.89E2,6E0,6E0,2.81E2,2.105E3,1.69E2,2E1,2E0,4E0,2.32E2,4.9E1,1.587E3,5.18E2,8.8E1,8.1E1,1.1E1,9E0],"tree_param":{"num_deleted":"0","num_feature":"105","num_nodes":"21","size_leaf_vector":"1"}},{"base_weights":[5.782141E5,9.9955125E4,7.71581E7,-7.066485E5,2.6131775E6,9.476538E6,1.1302876E8,-4.462763E6,-3.7860888E5,2.0541982E6,1.0977649E7,1.4927296E6,1.4678142E6,1.527402E6,1.2792119E7,-5.4743056E5,1.6476994E5,-1.6819308E5,8.400425E4,-2.7288428E5,2.342823E5,1.4842689E6,1.0248799E5,2.6601528E5,-1.5438719E5],"categories":[],"categories_nodes":[],"categories_segments":[],"categories_sizes":[],"default_left":[0,0,0,0,0,0,0,0,0,0,0,0,0,0,0,0,0,0,0,0,0,0,0,0,0],"id":54,"left_children":[1,3,5,7,9,11,13,15,17,19,21,-1,23,-1,-1,-1,-1,-1,-1,-1,-1,-1,-1,-1,-1],"loss_changes":[9.4417366E16,5.2150164E15,3.3488908E16,2.3917884E15,2.809478E15,3.7063716E14,4.7886996E15,1.00933476E15,2.8612304E15,8.49224E14,1.385718E15,0E0,5.6444167E13,0E0,0E0,0E0,0E0,0E0,0E0,0E0,0E0,0E0,0E0,0E0,0E0],"parents":[2147483647,0,0,1,1,2,2,3,3,4,4,5,5,6,6,7,7,8,8,9,9,10,10,12,12],"right_children":[2,4,6,8,10,12,14,16,18,20,22,-1,24,-1,-1,-1,-1,-1,-1,-1,-1,-1,-1,-1,-1],"split_conditions":[5.38905E0,5.764708E-2,2.075164E0,-1.293935E0,3.607508E0,8.906669E-1,2.8521163E0,-3.0336353E-1,-4.4956532E-1,-2.9950577E-1,2.7173352E0,1.4927296E6,1.8221705E0,1.527402E6,1.2792119E7,-5.4743056E5,1.6476994E5,-1.6819308E5,8.400425E4,-2.7288428E5,2.342823E5,1.4842689E6,1.0248799E5,2.6601528E5,-1.5438719E5],"split_indices":[12,12,5,0,11,5,8,12,12,11,3,0,5,0,0,0,0,0,0,0,0,0,0,0,0],"split_type":[0,0,0,0,0,0,0,0,0,0,0,0,0,0,0,0,0,0,0,0,0,0,0,0,0],"sum_hessian":[2.574E3,2.563E3,1.1E1,1.943E3,6.2E2,6E0,5E0,1.51E2,1.792E3,5.87E2,3.3E1,1E0,5E0,2E0,3E0,1.3E2,2.1E1,8.65E2,9.27E2,3.1E1,5.56E2,2.2E1,1.1E1,4E0,1E0],"tree_param":{"num_deleted":"0","num_feature":"105","num_nodes":"25","size_leaf_vector":"1"}},{"base_weights":[5.7892494E5,1.1226411E5,7.878497E7,-5.095234E4,1.5778287E7,1.6398432E7,1.2312416E7,-4.5741625E5,2.173179E6,2.734918E6,1.6086438E6,2.1434596E7,4.8372788E5,4.6628566E4,-1.5335186E5,1.4328548E5,6.60584E5,-1.7889745E5,4.2750606E5,4.973225E4,2.3740928E6,-1.5181439E5,1.8540981E5],"categories":[],"categories_nodes":[],"categories_segments":[],"categories_sizes":[],"default_left":[0,0,0,0,0,0,0,0,0,0,0,0,0,0,0,0,0,0,0,0,0,0,0],"id":55,"left_children":[1,3,5,7,9,11,-1,13,15,-1,17,19,21,-1,-1,-1,-1,-1,-1,-1,-1,-1,-1],"loss_changes":[9.228988E16,6.44754E15,3.139731E16,2.264139E15,4.042865E15,9.099463E14,0E0,2.1078685E15,1.2226555E15,0E0,1.9225079E14,3.7556026E14,3.602038E13,0E0,0E0,0E0,0E0,0E0,0E0,0E0,0E0,0E0,0E0],"parents":[2147483647,0,0,1,1,2,2,3,3,4,4,5,5,7,7,8,8,10,10,11,11,12,12],"right_children":[2,4,6,8,10,12,-1,14,16,-1,18,20,22,-1,-1,-1,-1,-1,-1,-1,-1,-1,-1],"split_conditions":[5.38905E0,4.0547915E0,6.119012E0,6.236935E-1,-1.6200763E-1,2.7173352E0,1.2312416E7,-3.3358818E-1,3.8802352E0,2.734918E6,4.781239E0,1.9888271E0,1.2079849E0,4.6628566E4,-1.5335186E5,1.4328548E5,6.60584E5,-1.7889745E5,4.2750606E5,4.973225E4,2.3740928E6,-1.5181439E5,1.8540981E5],"split_indices":[12,12,79,11,24,3,0,12,61,0,12,11,4,0,0,0,0,0,0,0,0,0,0],"split_type":[0,0,0,0,0,0,0,0,0,0,0,0,0,0,0,0,0,0,0,0,0,0,0],"sum_hessian":[2.525E3,2.515E3,1E1,2.494E3,2.1E1,7E0,3E0,2.112E3,3.82E2,9E0,1.2E1,4E0,3E0,1.138E3,9.74E2,3.33E2,4.9E1,6E0,6E0,1E0,3E0,1E0,2E0],"tree_param":{"num_deleted":"0","num_feature":"105","num_nodes":"23","size_leaf_vector":"1"}},{"base_weights":[6.9589256E5,1.0817493E5,7.861734E7,-5.4236704E3,1.5931442E7,1.4983117E7,1.4099808E7,-2.6375802E6,3.973099E5,2.3464705E6,5.3988294E5,-2.43976E6,2.0355402E6,-1.9165455E5,-5.973439E5,1.5612542E5,-3.436013E4,-3.2074606E5,4.8902387E4],"categories":[],"categories_nodes":[],"categories_segments":[],"categories_sizes":[],"default_left":[0,0,0,0,0,0,0,0,0,0,0,0,0,0,0,0,0,0,0],"id":56,"left_children":[1,3,5,7,9,11,-1,13,15,-1,-1,17,-1,-1,-1,-1,-1,-1,-1],"loss_changes":[1.1623304E17,4.5391217E15,6.4858507E16,2.668105E15,7.947993E14,1.652322E15,0E0,7.461185E14,1.8852563E15,0E0,0E0,2.583005E13,0E0,0E0,0E0,0E0,0E0,0E0,0E0],"parents":[2147483647,0,0,1,1,2,2,3,3,4,4,5,5,7,7,8,8,11,11],"right_children":[2,4,6,8,10,12,-1,14,16,-1,-1,18,-1,-1,-1,-1,-1,-1,-1],"split_conditions":[4.7864122E0,4.781239E0,4.7650127E0,-5.5762696E-1,-1.6200763E-1,1.3400028E0,1.4099808E7,-4.314637E-1,-3.3358818E-1,2.3464705E6,5.3988294E5,1.2530135E0,2.0355402E6,-1.9165455E5,-5.973439E5,1.5612542E5,-3.436013E4,-3.2074606E5,4.8902387E4],"split_indices":[9,12,1,12,24,4,0,11,12,0,0,0,0,0,0,0,0,0,0],"split_type":[0,0,0,0,0,0,0,0,0,0,0,0,0,0,0,0,0,0,0],"sum_hessian":[2.534E3,2.52E3,1.4E1,2.507E3,1.3E1,1E1,4E0,3.29E2,2.178E3,4E0,9E0,3E0,7E0,2.77E2,5.2E1,8.45E2,1.333E3,2E0,1E0],"tree_param":{"num_deleted":"0","num_feature":"105","num_nodes":"19","size_leaf_vector":"1"}},{"base_weights":[6.605677E5,1.3553705E5,8.357305E7,2.6422673E3,1.2024402E7,1.0382069E7,1.3473155E7,-1.4471645E6,6.9642794E5,2.2909652E6,1.9428895E6,1.4129755E6,2.5676542E5,-2.546393E4,-3.342035E5,4.4836266E5,-2.7664072E4,-4.910408E5,4.5965325E5],"categories":[],"categories_nodes":[],"categories_segments":[],"categories_sizes":[],"default_left":[0,0,0,0,0,0,0,0,0,0,0,0,0,0,0,0,0,0,0],"id":57,"left_children":[1,3,5,7,9,11,-1,13,15,-1,17,-1,-1,-1,-1,-1,-1,-1,-1],"loss_changes":[1.1068772E17,4.0019005E15,5.291551E16,2.529736E15,2.8501588E15,1.700301E14,0E0,1.835125E15,6.2747346E15,0E0,4.7657836E14,0E0,0E0,0E0,0E0,0E0,0E0,0E0,0E0],"parents":[2147483647,0,0,1,1,2,2,3,3,4,4,5,5,7,7,8,8,10,10],"right_children":[2,4,6,8,10,12,-1,14,16,-1,18,-1,-1,-1,-1,-1,-1,-1,-1],"split_conditions":[5.38905E0,4.0547915E0,6.119012E0,-4.6400455E-1,-1.6200763E-1,2.17863E-1,1.3473155E7,-5.654856E-1,-3.3358818E-1,2.2909652E6,-5.2755845E-1,1.4129755E6,2.5676542E5,-2.546393E4,-3.342035E5,4.4836266E5,-2.7664072E4,-4.910408E5,4.5965325E5],"split_indices":[12,12,79,12,24,16,0,9,12,0,18,0,0,0,0,0,0,0,0],"split_type":[0,0,0,0,0,0,0,0,0,0,0,0,0,0,0,0,0,0,0],"sum_hessian":[2.539E3,2.528E3,1.1E1,2.505E3,2.3E1,7E0,4E0,8.09E2,1.696E3,8E0,1.5E1,2E0,5E0,5E2,3.09E2,3.43E2,1.353E3,3E0,1.2E1],"tree_param":{"num_deleted":"0","num_feature":"105","num_nodes":"19","size_leaf_vector":"1"}},{"base_weights":[2.9387528E5,-1.9004957E3,4.665732E7,-1.4149255E5,1.39186E7,6.432469E6,7.436972E7,-7.801285E5,1.4152224E6,1.8262568E7,1.6032319E6,8.3454206E5,-8.949393E5,8.4697586E4,8.3030705E6,1.7894545E4,-2.2768562E5,3.0353694E5,6.49322E4,2.3638538E6,2.1425216E5,2.5562048E5,-9.0332336E4,-1.482176E5,4.3807984E4],"categories":[],"categories_nodes":[],"categories_segments":[],"categories_sizes":[],"default_left":[0,0,0,0,0,0,0,0,0,0,0,0,0,0,0,0,0,0,0,0,0,0,0,0,0],"id":58,"left_children":[1,3,5,7,9,11,13,15,17,19,21,-1,23,-1,-1,-1,-1,-1,-1,-1,-1,-1,-1,-1,-1],"loss_changes":[3.4612517E16,4.8930866E15,1.5443727E16,2.4839965E15,1.1910433E15,2.0554697E14,5.3793907E15,2.5442592E15,8.9225865E14,1.306666E15,4.020955E13,0E0,8.7261404E12,0E0,0E0,0E0,0E0,0E0,0E0,0E0,0E0,0E0,0E0,0E0,0E0],"parents":[2147483647,0,0,1,1,2,2,3,3,4,4,5,5,6,6,7,7,8,8,9,9,10,10,12,12],"right_children":[2,4,6,8,10,12,14,16,18,20,22,-1,24,-1,-1,-1,-1,-1,-1,-1,-1,-1,-1,-1,-1],"split_conditions":[5.38905E0,4.0625725E0,9.795737E-1,6.9144405E-2,5.3676975E-1,4.009676E0,-1.4437554E0,-3.3358818E-1,1.1693953E-1,1.0812157E0,3.3072417E0,8.3454206E5,1.2530135E0,8.4697586E4,8.3030705E6,1.7894545E4,-2.2768562E5,3.0353694E5,6.49322E4,2.3638538E6,2.1425216E5,2.5562048E5,-9.0332336E4,-1.482176E5,4.3807984E4],"split_indices":[12,11,16,11,17,9,0,12,9,22,1,0,0,0,0,0,0,0,0,0,0,0,0,0,0],"split_type":[0,0,0,0,0,0,0,0,0,0,0,0,0,0,0,0,0,0,0,0,0,0,0,0,0],"sum_hessian":[2.519E3,2.508E3,1.1E1,2.488E3,2E1,7E0,4E0,1.766E3,7.22E2,1.3E1,7E0,5E0,2E0,1E0,3E0,1.079E3,6.87E2,2.27E2,4.95E2,8E0,5E0,5E0,2E0,1E0,1E0],"tree_param":{"num_deleted":"0","num_feature":"105","num_nodes":"25","size_leaf_vector":"1"}},{"base_weights":[6.581945E5,1.24695734E5,7.587652E7,-5.8376416E3,1.2294388E7,1.0794515E8,6.403235E6,-1.2290685E6,7.3106694E5,2.1905675E6,1.4038364E6,1.3323759E6,1.2020755E7,-1.4574719E5,7.9180415E6,2.6657166E4,-3.5158512E5,5.680013E5,-2.3160053E4,-5.249582E5,3.876008E5,1.0000768E6,2.1306453E5],"categories":[],"categories_nodes":[],"categories_segments":[],"categories_sizes":[],"default_left":[0,0,0,0,0,0,0,0,0,0,0,0,0,0,0,0,0,0,0,0,0,0,0],"id":59,"left_children":[1,3,5,7,9,11,13,15,17,-1,19,-1,-1,-1,21,-1,-1,-1,-1,-1,-1,-1,-1],"loss_changes":[1.02562256E17,4.0416327E15,3.664644E16,2.2778346E15,2.6723896E15,5.915347E15,1.8868355E14,3.25388E15,7.5197044E15,0E0,3.9780813E14,0E0,0E0,0E0,1.3995151E13,0E0,0E0,0E0,0E0,0E0,0E0,0E0,0E0],"parents":[2147483647,0,0,1,1,2,2,3,3,4,4,5,5,6,6,7,7,8,8,10,10,14,14],"right_children":[2,4,6,8,10,12,14,16,18,-1,20,-1,-1,-1,22,-1,-1,-1,-1,-1,-1,-1,-1],"split_conditions":[5.38905E0,4.0547915E0,7.4135846E-1,-4.3336737E-1,-1.6200763E-1,2.8521163E0,1.2079849E0,-5.326631E-1,-3.3358818E-1,2.1905675E6,-5.2755845E-1,1.3323759E6,1.2020755E7,-1.4574719E5,3.7793121E0,2.6657166E4,-3.5158512E5,5.680013E5,-2.3160053E4,-5.249582E5,3.876008E5,1.0000768E6,2.1306453E5],"split_indices":[12,12,82,12,24,8,4,2,12,0,18,0,0,0,1,0,0,0,0,0,0,0,0],"split_type":[0,0,0,0,0,0,0,0,0,0,0,0,0,0,0,0,0,0,0,0,0,0,0],"sum_hessian":[2.552E3,2.539E3,1.3E1,2.517E3,2.2E1,7E0,6E0,9.45E2,1.572E3,9E0,1.3E1,2E0,5E0,1E0,5E0,5.74E2,3.71E2,2.52E2,1.32E3,2E0,1.1E1,1E0,4E0],"tree_param":{"num_deleted":"0","num_feature":"105","num_nodes":"23","size_leaf_vector":"1"}},{"base_weights":[5.862652E5,1.2024361E5,7.12217E7,-3.4893222E5,2.5475495E6,8.51936E6,1.10853656E8,-3.002806E6,-1.1572935E5,1.9077635E6,8.711225E6,1.0682297E7,7.614559E5,5.1901866E5,1.1971061E7,-4.167338E5,-1.6147267E5,2.5715814E4,-1.9008994E5,5.011806E5,1.2011535E5,1.2097378E6,-1.4140983E5,1.2498049E6,1.2363337E5,1.3813028E5,-5.962452E4],"categories":[],"categories_nodes":[],"categories_segments":[],"categories_sizes":[],"default_left":[0,0,0,0,0,0,0,0,0,0,0,0,0,0,0,0,0,0,0,0,0,0,0,0,0,0,0],"id":60,"left_children":[1,3,5,7,9,11,13,15,17,19,21,23,25,-1,-1,-1,-1,-1,-1,-1,-1,-1,-1,-1,-1,-1,-1],"loss_changes":[8.537844E16,2.9460512E15,3.7523274E16,1.340637E15,1.5692042E15,1.6068775E14,6.251952E15,2.4923548E14,1.3331136E15,8.165325E14,1.3883978E15,7.710486E13,1.0850509E13,0E0,0E0,0E0,0E0,0E0,0E0,0E0,0E0,0E0,0E0,0E0,0E0,0E0,0E0],"parents":[2147483647,0,0,1,1,2,2,3,3,4,4,5,5,6,6,7,7,8,8,9,9,10,10,11,11,12,12],"right_children":[2,4,6,8,10,12,14,16,18,20,22,24,26,-1,-1,-1,-1,-1,-1,-1,-1,-1,-1,-1,-1,-1,-1],"split_conditions":[5.4454355E0,6.0770565E-1,4.7864122E0,-7.6588434E-1,3.607508E0,1.6070946E0,2.025671E0,-6.3302886E-1,9.118269E-2,1.8500091E-1,1.5558189E0,3.7793121E0,8.03552E-1,5.1901866E5,1.1971061E7,-4.167338E5,-1.6147267E5,2.5715814E4,-1.9008994E5,5.011806E5,1.2011535E5,1.2097378E6,-1.4140983E5,1.2498049E6,1.2363337E5,1.3813028E5,-5.962452E4],"split_indices":[11,11,9,11,11,13,1,14,9,9,24,1,0,0,0,0,0,0,0,0,0,0,0,0,0,0,0],"split_type":[0,0,0,0,0,0,0,0,0,0,0,0,0,0,0,0,0,0,0,0,0,0,0,0,0,0,0],"sum_hessian":[2.59E3,2.578E3,1.2E1,2.164E3,4.14E2,7E0,5E0,1.7E2,1.994E3,3.81E2,3.3E1,4E0,3E0,1E0,4E0,8.7E1,8.3E1,1.653E3,3.41E2,6.5E1,3.16E2,2.4E1,9E0,2E0,2E0,2E0,1E0],"tree_param":{"num_deleted":"0","num_feature":"105","num_nodes":"27","size_leaf_vector":"1"}},{"base_weights":[4.5618022E5,8.567593E4,5.596304E7,-9.0741125E4,9.110207E6,4.525335E5,8.1963E7,-6.051903E5,1.2510205E6,1.1751291E7,-7.933482E5,1.0769371E6,9.180082E6,-1.0376799E4,-2.7662403E5,-3.0003366E5,1.5395988E5,-1.6210186E5,1.4929769E6,3.6611412E5,-4.0773178E5],"categories":[],"categories_nodes":[],"categories_segments":[],"categories_sizes":[],"default_left":[0,0,0,0,0,0,0,0,0,0,0,0,0,0,0,0,0,0,0,0,0],"id":61,"left_children":[1,3,5,7,9,-1,11,13,15,17,19,-1,-1,-1,-1,-1,-1,-1,-1,-1,-1],"loss_changes":[5.2726608E16,4.0687162E15,2.0880873E16,1.7356684E15,1.3282643E15,0E0,2.7611056E15,1.9674633E15,8.782102E14,1.7786469E15,2.940643E14,0E0,0E0,0E0,0E0,0E0,0E0,0E0,0E0,0E0,0E0],"parents":[2147483647,0,0,1,1,2,2,3,3,4,4,6,6,7,7,8,8,9,9,10,10],"right_children":[2,4,6,8,10,-1,12,14,16,18,20,-1,-1,-1,-1,-1,-1,-1,-1,-1,-1],"split_conditions":[5.4454355E0,3.3218918E0,3.6950686E0,6.9144405E-2,9.3763393E-1,4.525335E5,2.7820334E0,-1.839864E-1,-3.96722E-1,5.444952E-2,6.537315E-1,1.0769371E6,9.180082E6,-1.0376799E4,-2.7662403E5,-3.0003366E5,1.5395988E5,-1.6210186E5,1.4929769E6,3.6611412E5,-4.0773178E5],"split_indices":[11,12,10,11,21,0,1,9,12,0,0,0,0,0,0,0,0,0,0,0,0],"split_type":[0,0,0,0,0,0,0,0,0,0,0,0,0,0,0,0,0,0,0,0,0],"sum_hessian":[2.56E3,2.548E3,1.2E1,2.504E3,4.4E1,6E0,6E0,1.812E3,6.92E2,3.4E1,1E1,2E0,4E0,1.475E3,3.37E2,4.1E1,6.51E2,7E0,2.7E1,4E0,6E0],"tree_param":{"num_deleted":"0","num_feature":"105","num_nodes":"21","size_leaf_vector":"1"}},{"base_weights":[5.149011E5,5.7552797E4,5.9018228E7,-4.5269222E5,1.8959309E6,1.1723376E7,1.1031006E7,-1.4253745E5,-3.1668508E6,1.6465901E6,9.827788E6,1.7533978E7,1.1122035E6,-3.113174E5,1.3136153E4,3.287362E3,-4.5140756E5,1.4309123E5,7.949805E5,1.03057055E5,1.2330789E6,-1.8415145E5,2.0709874E6,2.028416E5,-1.3416531E5],"categories":[],"categories_nodes":[],"categories_segments":[],"categories_sizes":[],"default_left":[0,0,0,0,0,0,0,0,0,0,0,0,0,0,0,0,0,0,0,0,0,0,0,0,0],"id":62,"left_children":[1,3,5,7,9,11,-1,13,15,17,19,21,23,-1,-1,-1,-1,-1,-1,-1,-1,-1,-1,-1,-1],"loss_changes":[6.8987758E16,2.4093827E15,4.2050753E16,1.6906213E15,1.0226646E15,8.890099E14,0E0,1.474759E15,8.887561E14,6.8674916E14,2.887724E14,8.060333E14,3.8337943E13,0E0,0E0,0E0,0E0,0E0,0E0,0E0,0E0,0E0,0E0,0E0,0E0],"parents":[2147483647,0,0,1,1,2,2,3,3,4,4,5,5,7,7,8,8,9,9,10,10,11,11,12,12],"right_children":[2,4,6,8,10,12,-1,14,16,18,20,22,24,-1,-1,-1,-1,-1,-1,-1,-1,-1,-1,-1,-1],"split_conditions":[5.38905E0,1.2211612E-1,6.119012E0,1.1693953E-1,4.781239E0,3.152108E0,1.1031006E7,-1.293935E0,-3.3822647E-1,4.335338E0,9.2557335E-1,6.54243E-1,4.009676E0,-3.113174E5,1.3136153E4,3.287362E3,-4.5140756E5,1.4309123E5,7.949805E5,1.03057055E5,1.2330789E6,